tree
version=v4
num_class=1
num_tree_per_iteration=1
label_index=0
max_feature_idx=6
objective=lambdarank
feature_names=bm25_score tfidf_sim q_title_sim q_abstract_sim keyword_overlap bert_sim cross_encoder_score
feature_infos=[0:16.449955784272795] [0:0.61610048833224185] [0:0.62244432639419744] [0:0.57830088094456744] [0:3] [-0.14299120008945465:0.701515793800354] [-11.439327239990234:9.4264793395996094]
tree_sizes=3346 3350 3336 3384 3361 3354 3338 3397 3355 3340 3349 3397 3370 3366 3377 3360 3358 3359 3394 3360 3323 3373 3369 3374 3344 3367 3380 3383 3383 3340 3389 3320 3312 3392 3328 3376 3372 3367 3381 3323 3294 3287 3333 3302 3267 3277 3316 3313 3367 3340 3207 3295 3191 3277 3230 3304 3240 3298 3217 3205 3253 3251 3177 3193 3211 3135 3182 3236 3196 3155 3162 3152 3179 3174 3182 3175 3109 3139 3186 3116 3151 3169 3077 3148 3074 3024 3170 3118 2996 3130 2889 3134 3071 3115 3144 3083 3040 3144 3086 2626 2721 3089 3017 2831 2273 3121 2805 3071 3062 2621 2806 3071 2886 2242 3061 3058 1977 3084 3089 2618 2073 2332 1857 1969 2720 1588 1855 1968 2205 1667 1795 1950 1679 1968 1970 2531 2192 1977 1496 1699 1691 2042 1693 1764 1794 1494 1796 1573 1476 1296 1652 1939 1827 1971 1769 1830 1389 1543 1564 1008 1502 1285 1851 1378 1019 1284 1653 2142 1194 1565 1846 2158 1376 1098 1126 1566 1211 729 1491 1490 1305 1363 1023 2156 1363 1088 912 1547 1192 1486 1276 1286 1090 1357 1484 1268 1379 1109 1573 1548

Tree=0
num_leaves=31
num_cat=0
split_feature=5 5 0 0 5 3 5 1 0 2 0 3 2 5 3 5 6 3 3 5 0 1 1 2 5 1 3 5 6 3
split_gain=205.044 17.5817 10.4935 10.345 7.12081 4.25993 4.14087 3.50466 3.28194 2.39227 3.64827 1.98058 1.66722 2.43653 1.4769 1.44649 1.23391 1.17453 2.9063 1.1541 1.07847 1.03178 0.883365 0.727033 0.704014 0.57967 0.718795 0.395619 1.48944 1.58546
threshold=0.301999181509018 0.35636070370674139 5.2742468866526773 5.1054243844669918 0.23255235701799395 0.09737806333517042 0.28202840685844427 0.08118871759768341 7.4939474625449405 0.071499916261372351 2.2775311505273392 0.060996436304875314 0.14519270672300291 0.41138142347335821 0.048077973946342466 0.33477005362510687 -10.367433547973631 0.065410913987664174 0.096964197916000652 0.28609581291675573 9.6612376065247663 0.050829555519959442 0.080629661923631288 0.2420238690485835 0.28497289121150976 0.049157210962045582 0.031658323332661366 0.31469902396202093 -6.8361330032348624 0.098394009762624704
decision_type=2 2 2 2 2 2 2 2 2 2 2 2 2 2 2 2 2 2 2 2 2 2 2 2 2 2 2 2 2 2
left_child=3 2 7 6 25 14 -1 9 12 10 -2 -12 16 23 -6 22 -3 -16 -19 24 -7 -13 -11 -14 -8 26 -5 -4 -29 -30
right_child=1 8 27 4 5 20 19 -9 -10 15 11 21 13 -15 17 -17 -18 18 -20 -21 -22 -23 -24 -25 -26 -27 -28 28 29 -31
leaf_value=-0.09718764040271774 0.048316837084483699 0 0.092237601311032494 0.038161400805778962 -0.042880455476906054 -0.085488868771703086 -0.038265761777188531 -0.075056680398480818 0.096881348143744495 -0.057116110478531358 -0.084361564282041446 0.050534629486928322 -0.067137630830676448 0.060632520065723818 0.079169677370064029 0.067260759394021902 0.073791198410319392 -0.073321403997224088 0.078525670382896706 -0.053503971829574559 0.020628405894140282 -0.044630229990843595 0.041534264298113917 0.013470774247051313 0.040885426845382204 -0.085323756521353489 -0.056442974822534714 0.084462019189370824 -0.060207942831879684 0.042960981924590788
leaf_weight=32.220176157425158 1.0813136771321281 0.47453099302947777 2.0347999557852736 0.20149224437773083 0.29680509772151742 0.93368922546505906 0.34643685421906356 2.0403909387532622 20.791484773159027 0.42639693617820773 1.8112680884078147 0.47719889879226673 0.60239751543849651 1.5066854581236837 1.8966602981090548 1.4868668261915443 16.554622403578836 0.46224847808480241 0.59850841760635376 2.7928534912643954 0.17764290235936642 0.45497993798926473 0.26006851717829704 0.27205381169915199 0.58119950088439509 3.2588812266476452 0.37596977315843105 1.636137278750539 0.39974909275770176 1.2066614069044588
leaf_count=1579 14 15 6 5 14 26 17 88 74 23 91 7 18 23 9 19 203 17 1 109 2 21 2 7 8 96 17 13 10 16
internal_value=0 0.0657441 0.0153405 -0.0796753 -0.0276934 0.0150136 -0.0912895 -0.0201251 0.0822355 0 -0.0241443 -0.0551577 0.065875 0.0222769 0.0446261 0.0403035 0.0715137 0.0561588 0.00743135 -0.0376945 -0.064096 0 -0.0128557 -0.0381194 0.00561277 -0.0767088 -0.0152921 0.0696613 0.0516625 0.0123338
internal_weight=97.6602 53.5176 13.3158 44.1426 8.2019 4.36555 35.9407 8.03848 40.2018 5.99809 3.82476 2.74345 19.4103 2.38114 3.25422 2.17333 17.0292 2.95742 1.06076 3.72049 1.11133 0.932179 0.686465 0.874451 0.927636 3.83634 0.577462 5.27735 3.24255 1.60641
internal_count=2550 650 310 1900 187 69 1713 265 340 177 133 119 266 48 41 44 218 27 18 134 28 28 25 25 25 118 22 45 39 26
is_linear=0
shrinkage=0.05


Tree=1
num_leaves=31
num_cat=0
split_feature=5 5 1 2 4 6 4 5 2 2 1 2 6 6 6 2 5 5 1 3 6 6 3 2 2 3 1 5 2 3
split_gain=284.753 31.3304 9.97411 8.90214 8.0889 7.26202 7.17233 6.95238 5.38959 4.03833 7.49461 6.99664 5.00935 5.19528 5.01297 5.60187 3.80284 3.75187 3.06425 3.05594 3.04484 2.92694 8.8698 2.67396 2.8769 2.66224 2.62166 2.49035 2.43272 2.17925
threshold=0.28202840685844427 0.3704937100410462 0.026710405676148602 0.3114472966441959 1.5000000000000002 1.0000000180025095e-35 1.5000000000000002 0.301999181509018 0.041431902003036279 0.041431902003036279 0.069502772379243877 0.071499916261372351 -8.0285992622375471 -10.087201118469237 -6.6135993003845206 0.07726436048225381 0.24721334874629977 0.5352618694305421 0.061774954770356362 0.048077973946342466 -8.7942175865173322 -10.182992935180662 0.035344916524466335 0.072328929996614125 0.27256523960499945 0.19776130037555198 0.035108142683711555 0.14198740571737292 0.15799494031116601 0.12983494474118742
decision_type=2 2 2 2 2 2 2 2 2 2 2 2 2 2 2 2 2 2 2 2 2 2 2 2 2 2 2 2 2 2
left_child=6 2 21 5 9 25 16 -6 -8 10 19 -11 13 -13 -14 -16 -1 -7 -9 -4 -21 -2 -23 -15 -25 26 -3 -10 29 -18
right_child=1 3 4 -5 7 17 8 18 27 11 -12 12 14 23 15 -17 28 -19 -20 20 -22 22 -24 24 -26 -27 -28 -29 -30 -31
leaf_value=-0.092421445800465601 0.068495766444230763 0.00071798998697568481 -0.017715639079043638 0.089230681461888228 -0.082154468695947266 -0.0080650835182599287 -0.080303566929572343 -0.015328298087242814 0.068373947858895126 -0.075366260339700245 -0.061160178533063853 0.037567580687126158 0.053096674381784809 0.057932353275437568 0.068181154270880479 -0.048171548335678299 -0.071836820083364034 0.068960533493136786 0.06681928377382737 0.067859455378700625 0 -0.071799318046893004 0.079609895305512407 -0.084741648816104964 0.041833524610515899 0.002296801250786306 0.064002326987073657 -0.017541524263926689 0.010972296671425293 0.019695564010002241
leaf_weight=54.122882736846805 8.7767237201333028 1.8676184788346279 2.1917752362787706 22.627417370676994 0.90429114922881026 6.8643431924283487 3.179974718950688 1.1753479801118354 1.0532536637037995 4.7895598914474276 2.5906253186985841 1.5230468790978191 4.6364745125174505 0.30530548095703025 1.2803786844015155 3.8613051036372781 7.1618565572425705 1.9220925271511076 7.8271869700402021 5.381775132380425 2.5772273978218445 1.5914023537188762 2.1311248373240232 4.5279673803597689 0.38210870511829842 2.1674230620264998 44.340135497972369 2.9438114315271378 1.0900957956910131 0.58122410532087077
leaf_count=1401 31 13 27 40 16 44 72 14 11 97 26 12 25 1 8 90 191 9 37 27 33 18 4 61 3 7 157 50 16 9
internal_value=0 0.0421327 0.0134798 0.0623008 0.00211413 0.0514161 -0.0817917 0.0417348 -0.0326966 -0.00935634 0.0125988 -0.0227169 -0.00678686 -0.039857 0.0156694 -0.0174956 -0.0872486 0.00880855 0.0554944 0.0323239 0.0467732 0.0527171 0.0133885 -0.0636893 -0.073255 0.0590177 0.0615596 0.00499368 -0.0543137 -0.064165
internal_weight=206.376 136.243 56.4536 79.789 43.9544 57.1616 70.1331 9.90683 7.17704 34.0475 12.7414 21.3061 16.5166 6.73843 9.77816 5.14168 62.9561 8.78644 9.00253 10.1508 7.959 12.4993 3.72253 5.21538 4.91008 48.3752 46.2078 3.99707 8.83318 7.74308
internal_count=2550 800 530 270 477 230 1750 67 133 410 113 297 200 77 123 98 1617 53 51 87 60 53 22 65 64 177 170 61 216 200
is_linear=0
shrinkage=0.05


Tree=2
num_leaves=31
num_cat=0
split_feature=5 5 2 2 5 5 4 5 1 1 6 5 4 6 2 2 1 2 6 2 6 1 3 3 6 6 3 5 5 2
split_gain=241.545 27.2723 7.40596 9.08766 6.51959 5.29516 5.7242 4.55916 4.64393 4.45149 3.97753 4.45236 3.73984 3.36819 3.25402 2.87358 4.36932 2.15713 2.13382 2.12582 2.09561 1.88263 2.63888 3.60979 2.7983 8.37178 7.7777 2.82837 1.67907 2.1527
threshold=0.28497289121150976 0.35636070370674139 0.041431902003036279 0.20151677424825631 0.43077918887138372 0.24721334874629977 1.5000000000000002 0.33307245373725897 0.06680710353412414 0.026168943762661444 -8.6792798042297346 0.33643606305122381 1.5000000000000002 -10.271856784820555 0.24983805758071506 0.094638252465044606 0.085617016489708861 0.079671869517128638 -7.5097188949584952 0.041431902003036279 -7.6682739257812491 0.019054918883057832 0.035765026160780637 0.040348649673907826 -8.2856621742248517 -5.7068767547607413 0.060689128965745534 0.41453868150711065 0.38636636734008795 0.12706342692983894
decision_type=2 2 2 2 2 2 2 2 2 2 2 2 2 2 2 2 2 2 2 2 2 2 2 2 2 2 2 2 2 2
left_child=5 2 10 7 21 6 -1 15 18 13 11 -2 -5 -7 -11 -4 -17 -10 -9 -8 -12 -3 -23 -24 -25 26 -26 -28 -27 -30
right_child=1 4 3 12 -6 9 19 8 17 14 20 -13 -14 -15 -16 16 -18 -19 -20 -21 -22 22 23 24 25 28 27 -29 29 -31
leaf_value=-0.086324422399647757 0.048468715103078236 -0.058865160628786752 -0.086155570974613307 -0.031639060314041532 0.0731619769635906 -0.064056948627504356 -0.066501843439971189 -0.0068332317313780757 0.027251724155464105 -0.069747986800098347 -0.076880871444420101 -0.060758276767350294 0.081583613927155144 0.043246166382536269 0.03791285874377761 0.034990450763466088 -0.071716776654095857 -0.07492858645373475 0.079936727051050094 0 0.0042340238780222738 0.071303450702860635 -0.037355790440534602 0.065489914252186518 0.051617781791067685 0.06668055666127938 -0.065321185592804906 0.038372110013343272 0.045430279800198758 -0.023595746270990967
leaf_weight=51.618958879262209 13.295491794124246 0.313254214823245 4.5899181086570042 0.85875484719872419 40.34546871855855 0.97672365047037635 1.9693132713437069 1.014715448021889 0.56137283705174956 8.2114365249872172 0.85744669847190369 0.87943341024220067 2.634563572704792 2.1217631287872782 0.6421617269515999 1.5987339913845064 2.0214005466550589 1.8300920315086839 1.6148800402879704 2.9571127146482468 4.1764845866709939 8.4995289333164674 1.3486173078417767 9.6112828440964133 2.9877240248024419 9.59026478789748 4.1033671665936708 0.64712446928024281 5.1317412815988055 1.2683417722582815
leaf_count=1401 67 5 125 18 130 30 52 18 7 213 21 15 6 21 6 16 53 31 6 47 57 29 9 44 13 40 32 3 22 13
internal_value=0 0.0428173 0.00619201 -0.0178985 0.0584278 -0.074827 -0.0813567 -0.0370482 0 -0.043101 0.0274098 0.0409637 0.0522529 0.00691299 -0.0610446 -0.0597786 -0.0235746 -0.0488048 0.0455983 -0.027629 -0.00983702 0.0445114 0.045511 0.0388607 0.0421957 0.0323152 -0.00976226 -0.0496651 0.0529227 0.0308292
internal_weight=188.277 119.78 35.9333 16.7244 83.8467 68.4975 56.5454 13.2311 5.02106 11.9521 19.2089 14.1749 3.49332 3.09849 8.8536 8.21005 3.62013 2.39146 2.6296 4.92643 5.03393 43.5012 43.188 34.6885 33.3398 23.7286 7.73822 4.75049 15.9903 6.40008
internal_count=2550 780 440 280 340 1770 1500 256 62 270 160 82 24 51 219 194 69 38 24 99 78 210 205 176 167 123 48 35 75 35
is_linear=0
shrinkage=0.05


Tree=3
num_leaves=31
num_cat=0
split_feature=5 5 4 1 2 2 5 6 5 1 4 5 5 1 3 2 6 2 1 2 2 6 6 2 5 3 3 5 6 3
split_gain=210.843 22.6308 4.13507 3.21588 3.17629 8.11499 4.77113 3.58667 3.14269 2.52448 2.44302 5.58425 2.31251 1.89581 1.81691 1.81017 1.75839 1.54751 2.21144 1.52895 2.25846 1.60895 1.59839 1.41288 1.2063 1.2002 1.38043 3.81139 1.37932 1.24206
threshold=0.28497289121150976 0.36766296625137335 1.5000000000000002 0.36610243815352511 0.041431902003036279 0.071499916261372351 0.301999181509018 -8.2584919929504377 0.24721334874629977 0.077881861116868414 1.5000000000000002 0.33307245373725897 0.15230974555015567 0.06680710353412414 0.022323350886540135 0.041431902003036279 -1.0000000180025095e-35 0.11780336374718443 0.087492051185772066 0.28567802377014045 0.038888291151610375 -10.271856784820555 -8.7942175865173322 0.17133364069510273 0.35636070370674139 0.075204510629069285 0.035344916524466335 0.30358348786830908 -10.988516807556151 0.037123850749752829
decision_type=2 2 2 2 2 2 2 2 2 2 2 2 2 2 2 2 2 2 2 2 2 2 2 2 2 2 2 2 2 2
left_child=2 4 8 14 7 9 -7 25 16 -6 11 17 15 -13 -3 -4 -1 -8 -19 20 21 -10 -23 -14 -11 26 27 -2 -29 -28
right_child=1 3 12 -5 5 6 10 -9 19 24 -12 13 23 -15 -16 -17 -18 18 -20 -21 -22 22 -24 -25 -26 -27 29 28 -30 -31
leaf_value=-0.081807254194246296 0.047806344917084347 0.074268480512898916 -0.061192203354808877 0.084560231497034954 -0.081604179537276736 -0.062793766874421272 -0.076572669452795228 -0.0094087206214156505 -0.072417166923207849 -0.053839504940375649 0.057734569252205208 0.059285851389476889 -0.061471418122714686 0.007796745602349441 0.049194536150419438 0.043074407740729348 0.041454375665486896 0.056519488488192597 -0.047666085232034132 0.036727008048413841 -0.074903626437017118 0.022950601984258825 -0.047651446346252145 0.012665369317386136 0.049993112155739698 -0.0056181367855533803 0.075162634135674394 0.00028285608213193613 -0.078345738676467519 0.036073748764308487
leaf_weight=48.925476698204868 3.7198715973645546 10.302174117416142 0.45510207675397296 11.298087053000925 3.3436274956911829 1.650063138455155 1.5192874055355772 5.3003415297716847 1.093051344156265 0.34979820996522892 3.912936817854642 3.9279580898582935 3.9326293207705021 3.7334961052983999 47.605481227859855 1.4000991545617578 0.18086007237434998 0.70209563896059979 1.2468727827072141 0.377971541136504 5.0116866752505302 1.9992504362016914 1.1811797711998191 0.60097941197454918 0.59707988053560257 1.3242948036640871 3.8500246796756965 0.97966982796788193 0.90291235037147999 6.9429121315479279
leaf_count=1400 17 26 14 17 91 42 45 83 34 10 18 18 97 50 237 15 1 3 33 2 143 25 31 8 3 17 5 5 14 46
internal_value=0 0.041232 -0.0715918 0.0590604 0.0130088 -0.000842355 0.0147458 0.0257998 -0.0758219 -0.0615834 0.02394 0.0112051 -0.0313409 0.0352627 0.0538619 0.0131178 -0.0811683 -0.0400362 -0.00676737 -0.0475869 -0.0519066 -0.0226978 -0.00239938 -0.0505035 0.00538007 0.0366057 0.0403327 0.0182984 -0.0369561 0.0510384
internal_weight=178.367 113.209 65.1583 69.2057 44.0032 20.9832 16.6927 23.02 58.7695 4.29051 15.0426 11.1297 6.38881 7.66145 57.9077 1.8552 49.1063 3.46826 1.94897 9.66314 9.28517 4.27348 3.18043 4.53361 0.946878 17.7197 16.3954 5.60245 1.88258 10.7929
internal_count=2550 780 1770 280 500 313 209 187 1636 104 167 149 134 68 263 29 1401 81 36 235 233 90 56 105 13 104 87 36 19 51
is_linear=0
shrinkage=0.05


Tree=4
num_leaves=31
num_cat=0
split_feature=5 5 5 6 0 3 0 0 3 5 6 5 5 6 2 0 3 0 5 2 2 6 2 3 5 5 5 5 6 5
split_gain=184.812 14.5904 10.5031 7.05111 4.63276 4.29137 4.15634 4.06637 2.93398 2.15469 2.01803 2.98834 2.93336 2.2959 3.19561 1.89824 1.82572 1.83974 2.91551 2.18048 2.85201 1.77851 2.41153 1.70435 3.24542 1.66294 2.11508 1.64082 1.41327 1.29388
threshold=0.29894348978996282 0.36766296625137335 0.2788949459791184 -10.248483180999754 5.2742468866526773 0.043996015256418025 9.8553017247274806 5.1054243844669918 0.035344916524466335 0.29025956988334661 -7.4145591259002677 0.30047252774238592 0.32903845608234411 -10.988516807556151 0.11102924482401673 2.7829728856532143 0.023663134198663966 3.7797381197715727 0.38207247853279119 0.081681419745196535 0.048642209287259194 -1.8961738944053648 0.2927111069402934 0.037123850749752829 0.34185802936553961 0.32236993312835699 0.3234135508537293 0.30960495769977575 -11.212018013000487 0.3459054976701737
decision_type=2 2 2 2 2 2 2 2 2 2 2 2 2 2 2 2 2 2 2 2 2 2 2 2 2 2 2 2 2 2
left_child=2 4 7 9 5 8 16 -1 10 -4 11 -2 -12 -13 -15 27 -3 18 19 20 -18 -19 -23 -10 -25 -17 -27 -7 -11 -28
right_child=1 6 3 -5 -6 15 -8 -9 23 28 12 13 -14 14 -16 25 17 21 -20 -21 -22 22 -24 24 -26 26 29 -29 -30 -31
leaf_value=-0.075236730367882337 0.062117925053648763 0.069339082151604628 0.051746227367767787 -0.052443820542222942 0.048581489539885322 0.049013303902075658 0.078859449452514788 -0.033323984323989836 0.065667784439994756 0.032306113802965643 -0.060612800683274064 0.025871461134935936 0.059279401092084287 -0.076435857786960104 0.039164939306259444 -0.066496724280919392 -0.043087223287524574 0.062313876545937411 0.04032436139633163 -0.078410837761124508 0.059876855294894039 0.013918200285322955 0.074194169044966909 -0.068146069109368476 0.052108486902388951 0.056383101810098701 -0.062184852577132424 -0.024675065760613749 -0.07099998051696306 -0.0078843215085705829
leaf_weight=52.940609065815806 0.89708974957466026 9.9338240735232812 3.3603565860539675 5.284616041928528 8.3216497190296632 1.6175172440707677 16.682947017252445 7.2656394857913247 4.4053634330630294 0.44654104858636856 0.51309415884316267 1.0886017680168141 2.4481582380831242 2.7533910740166916 0.62668476998805989 2.2152266856282932 1.1314326561987398 16.607060618698597 12.295513577759264 0.8079436384141444 1.3356572017073629 6.1492321155965346 2.3759391009807587 0.74525600671768222 1.5149543657898901 0.76836458966135968 1.6750531215220688 1.1673718970268963 0.632915014401078 3.6791629679501057
leaf_count=1562 3 26 16 121 57 7 27 168 10 2 14 6 12 68 5 62 12 58 74 11 8 52 12 19 7 4 45 17 11 54
internal_value=0 0.0429895 -0.0625264 -0.0135081 0.0162499 0.00561068 0.0565495 -0.0703253 0.023147 0.0318692 0.00260343 -0.0149938 0.035571 -0.0325893 -0.0530566 -0.0175771 0.0489597 0.0437057 0.0291344 -0.0113448 0.0108697 0.0523838 0.0319621 0.0476544 0.00913137 -0.0296489 -0.0146589 0.0166068 -0.0249101 -0.0266175
internal_weight=171.687 101.756 69.9307 9.72443 34.4369 26.1153 67.3196 60.2062 14.9926 4.43981 8.32702 5.36577 2.96125 4.46868 3.38008 11.1227 50.6366 40.7028 15.5705 3.27503 2.46709 25.1322 8.52517 6.66557 2.26021 8.33781 6.12258 2.78489 1.07946 5.35422
internal_count=2550 670 1880 150 390 333 280 1730 144 29 108 82 26 79 73 189 253 227 105 31 20 122 64 36 26 165 103 24 13 99
is_linear=0
shrinkage=0.05


Tree=5
num_leaves=31
num_cat=0
split_feature=0 6 0 6 2 6 0 2 0 1 0 1 1 6 3 3 6 6 2 6 6 3 0 1 3 3 6 6 2 0
split_gain=60.348 25.1459 7.23644 5.24938 4.80892 4.17751 4.98907 6.67107 6.33798 3.94062 3.78666 5.93478 2.9762 2.86324 2.88925 2.82433 2.69073 2.65728 2.14408 2.28364 2.24177 2.13867 2.11328 2.07211 1.9015 1.73626 1.50775 1.58768 2.54355 1.46207
threshold=6.4415769481362606 -10.545860290527342 5.1054243844669918 -3.3456858396530147 0.20151677424825631 -10.51227807998657 2.7513813956446715 0.085016490557855054 2.7829728856532143 0.07553059552518139 3.1799591422254738 0.051647836800849799 0.038716968727258529 -7.5097188949584952 0.058447681752775947 0.095850678672062456 -11.350500106811522 -11.358842372894285 0.10148804817086705 -8.2160949707031232 -8.9385147094726545 0.12253508868843216 1.8712182601699576 0.14433487173754397 0.070976410590755781 0.023213745608199964 -8.7341732978820783 -6.4796051979064933 0.078542730943521696 4.7674803190039876
decision_type=2 2 2 2 2 2 2 2 2 2 2 2 2 2 2 2 2 2 2 2 2 2 2 2 2 2 2 2 2 2
left_child=1 2 16 5 21 -3 7 9 12 22 13 18 -8 -10 -15 26 17 -1 19 20 -12 24 -7 -17 25 -2 -13 -28 -29 -5
right_child=4 3 -4 29 -6 6 8 -9 10 -11 11 15 -14 14 -16 23 -18 -19 -20 -21 -22 -23 -24 -25 -26 -27 27 28 -30 -31
leaf_value=-0.06472596078606245 0.053370057499113055 0.04509911815912783 0.045498678689972608 0.038364975598422911 0.068369517236734914 -0.021182386401663908 -0.055444795141402409 0.047555654573709479 -0.04449665628335317 0.028992545236615749 0.0034807626743071254 -0.061390528144834769 0.056162881311738258 0.014194628943154467 -0.056580179791500443 0.019496834724434711 -0.06915338311408957 0.035376292966372846 0.070019259271789841 -0.023385726592555837 0.055459009536814888 -0.0009388815074924668 -0.058124595650220628 -0.023072188089132889 0.055757082070135494 -0.067080650007587644 -0.0030059364366525781 0.012872002742889571 -0.066558875628340897 0
leaf_weight=1.1454522591084242 0.39432889968156626 3.3653257861733428 1.4749185927212227 8.21500216424465 25.985936630517244 6.4973761066794493 0.54327657073736091 2.3255520630627862 10.37216880451888 1.7694196999073017 4.5345799624919874 2.934164116159077 5.5463403565809131 5.5852602114900938 1.8204037975519893 7.6281471364200097 24.035271679982543 1.2718315850943389 2.3467239141464225 2.517850447446107 4.1289408896118402 3.9446097053587437 12.767358137294648 4.3879738878458738 5.558125713840127 0.60157774947583675 6.5209680721163688 1.2845392450690383 3.1296788780018687 3.2238826751708975
leaf_count=33 2 20 9 62 79 124 17 17 249 18 73 81 29 75 46 92 675 11 2 55 21 53 323 83 27 15 119 20 80 40
internal_value=0 -0.0160226 -0.0579596 -0.00438254 0.0567038 -0.00848706 -0.0106757 -0.0303972 -0.0032803 -0.0394366 -0.00854154 0 0.0446632 -0.0276282 -0.00305857 -0.0138995 -0.0640661 -0.0107587 0.0268388 0.0167927 0.0291737 0.0269849 -0.0460971 0.00347694 0.0443041 -0.0143077 -0.0292292 -0.0196684 -0.0425637 0.027274
internal_weight=165.857 129.372 27.9275 101.445 36.4846 90.006 86.6407 23.3597 63.281 21.0342 57.1914 39.4136 6.08962 17.7778 7.40566 25.8855 26.4526 2.41728 13.5281 11.1814 8.66352 10.4986 19.2647 12.0161 6.55403 0.995907 13.8694 10.9352 4.41422 11.4389
internal_count=2550 2374 728 1646 176 1544 1524 482 1042 465 996 626 46 370 121 475 719 44 151 149 94 97 447 175 44 17 300 219 100 102
is_linear=0
shrinkage=0.05


Tree=6
num_leaves=31
num_cat=0
split_feature=5 5 6 5 4 1 2 4 3 1 2 5 5 5 5 2 1 6 5 2 2 2 2 6 6 5 5 1 1 1
split_gain=157.718 18.3801 3.36368 5.38084 2.96743 3.47206 3.19308 2.91294 2.85768 3.07079 2.50093 2.33948 2.18471 2.15133 1.71362 1.83693 1.67419 1.51438 1.35096 1.22997 1.16398 1.47362 1.16127 1.05087 0.930049 0.920921 1.20848 0.92035 1.00883 0.918874
threshold=0.28497289121150976 0.35636070370674139 -10.182992935180662 0.301999181509018 1.5000000000000002 0.083849944750145108 0.071499916261372351 1.5000000000000002 0.056869897352988967 0.050829555519959442 0.041431902003036279 0.43077918887138372 0.14198740571737292 0.24721334874629977 0.33477005362510687 0.11780336374718443 0.069502772379243877 -10.489448547363279 0.32903845608234411 0.28567802377014045 0.20151677424825631 0.09505224509934472 0.038888291151610375 -10.271856784820555 -5.6108553409576407 0.2788949459791184 0.25975228846073156 0.15454388716377812 0.18365154597093566 0.027233357913666306
decision_type=2 2 2 2 2 2 2 2 2 2 2 2 2 2 2 2 2 2 2 2 2 2 2 2 2 2 2 2 2 2
left_child=7 2 18 -4 5 6 8 13 29 -10 -9 16 -12 -1 15 -8 17 -3 -2 22 21 24 23 -15 -6 26 -25 -7 -29 -5
right_child=1 11 3 4 20 27 14 10 9 -11 12 -13 -14 19 -16 -17 -18 -19 -20 -21 -22 -23 -24 25 -26 -27 -28 28 -30 -31
leaf_value=-0.072723578820032567 0.038686541465033218 -0.0090629904755478927 -0.052941930417185368 0 0.063221235532345182 -0.068688639604366553 -0.060342876540809491 -0.065733754257748328 0.04767535448940427 -0.049052936305978845 0.055018571171006718 0.061477426593158115 -0.027482605461155898 -0.064383802403450208 0.055885711898544521 0.04794328065802541 0.029226642463212639 0.056651632615238805 -0.028747338742052514 0.029654379599742604 0.066463915306135699 -0.062171288534182523 -0.065139045596713491 0.0065470369230917107 0 0.035389941282036347 -0.063770366307224685 0.025663853526411529 -0.058441559296542503 -0.071138292377552606
leaf_weight=44.891916094347835 8.1748182438313926 0.76283030956983822 4.3218648303300169 0.73537748306989881 1.0863236784935002 2.0174590200185771 0.71303742565214612 2.5570027194917193 2.3257108964025979 1.1090331841260193 1.0745573081076147 36.69546964019537 2.4239779133349657 1.1157784350216391 3.7523035928606987 0.63368820026516914 15.885892473161219 16.048227000981569 0.65770988538861352 0.39881633222103197 2.356926903128624 0.38311734423041333 4.7318872399628162 1.1523997560143442 1.1832155026495448 0.7687513306736945 0.9563110414892434 0.69455818273127057 0.50844423845410347 1.8635662700980899
leaf_count=1401 50 11 104 13 9 63 22 73 12 26 11 130 50 34 17 3 129 70 15 2 6 7 143 19 16 7 30 9 14 54
internal_value=0 0.0378692 0.00664399 -0.00301177 0.00809075 -0.00321475 0.00971707 -0.0642002 -0.0142254 0.0145244 -0.0291441 0.0523986 0 -0.0679767 0.0387386 -0.00614187 0.0419008 0.0533381 0.0328397 -0.0435438 0.0408901 0.014762 -0.0477543 -0.0248442 0.0319348 -0.00618539 -0.0245219 -0.0483705 -0.00780275 -0.0532038
internal_weight=161.981 101.91 32.5172 23.6846 19.3628 14.3532 11.1327 60.0714 6.03369 3.43474 6.05554 69.3924 3.49854 54.0159 5.09903 1.34673 32.6969 16.8111 8.83253 9.12394 5.00958 2.65266 8.72513 3.99324 2.26954 2.87746 2.10871 3.22046 1.203 2.59894
internal_count=2550 780 440 375 271 233 147 1770 105 38 134 340 61 1636 42 25 210 81 65 235 38 32 233 90 25 56 49 86 23 67
is_linear=0
shrinkage=0.05


Tree=7
num_leaves=31
num_cat=0
split_feature=0 6 0 6 2 6 1 1 2 2 6 0 2 6 0 0 1 6 6 3 1 1 1 6 6 3 1 1 3 1
split_gain=47.5232 20.8791 5.78679 4.94309 3.53992 3.36791 3.45601 5.97771 5.28642 3.50515 3.99092 3.49851 3.92337 2.7376 2.20332 2.04805 2.01042 1.84785 1.87085 1.79721 1.75565 1.73961 2.76069 1.57352 1.40201 1.38829 1.29741 2.44688 1.92753 1.24949
threshold=6.5879796083669326 -10.545860290527342 5.1054243844669918 -2.6259273290634151 0.20151677424825631 -10.51227807998657 0.035108142683711555 0.070285425119176792 0.079246528432278959 0.056008825582972072 -6.5654053688049308 3.1043858356541199 0.085016490557855054 -8.2584919929504377 2.7829728856532143 3.2454302634416896 1.0000000180025095e-35 -11.350500106811522 -11.358842372894285 0.12253508868843216 0.063309532857719106 0.04880360817374587 0.06137922908298607 -9.2563676834106428 -10.087201118469237 0.070976410590755781 0.079249298907440271 0.08118871759768341 0.081524786520171283 0.06783601397066695
decision_type=2 2 2 2 2 2 2 2 2 2 2 2 2 2 2 2 2 2 2 2 2 2 2 2 2 2 2 2 2 2
left_child=1 2 17 5 19 -3 11 8 9 13 -11 12 16 21 -9 -13 -7 18 -1 25 24 -8 -23 -16 -10 -2 -25 -28 -29 -22
right_child=4 3 -4 -5 -6 6 7 14 20 10 -12 15 -14 -15 23 -17 -18 -19 -20 -21 29 22 -24 26 -26 -27 27 28 -30 -31
leaf_value=-0.058881201395452103 -0.009003812503518378 0.042044297285934042 0.040337568457209892 0.029484835990980448 0.062086622944208886 -0.017787297359888651 0.029730507211503606 0.029089194625006927 -0.043528982682578654 -0.063015923189938899 0.02688069652257747 0.048891745841981027 0.050100388516351291 -0.018386594270100708 -0.062009833785713023 -0.021636185955760334 -0.058651316838929102 -0.064081068418864115 0.030812310071321854 -0.0019640669185747284 -0.057862987554954663 -0.052350962676338597 0.031273082778018442 -0.053760331463572855 0.050995055607015755 0.052163014884315434 0.034738599823828813 -0.043320916174282985 -0.0080961236069635577 0.022942476343004059
leaf_weight=1.0061970856040716 0.94113594107329657 3.1529925093054763 1.401369435712694 9.8781725093722326 24.778451034799218 5.1003730464726713 10.36893014423549 1.7768357936292911 0.28003864362835784 4.1643693242222071 1.5807807315140951 1.971847124397754 1.0360184423625458 7.1722435951232972 2.7890834640711573 1.8509290944784877 9.7077471259981376 22.580197554081678 1.0686772353947225 3.5739370491355658 0.63465751241892476 1.8291797386482351 1.869469031691551 2.7078909873962429 8.7570304665714485 4.9344174601137638 1.9626806750893617 6.6264535011723664 10.404533172026275 1.2142687113955615
leaf_count=33 17 20 9 83 79 109 111 21 9 129 16 7 4 143 83 42 276 675 11 51 20 52 18 69 51 23 22 169 183 15
internal_value=0 -0.0145182 -0.0541715 -0.00375199 0.0520171 -0.00761455 -0.00959032 -0.00385972 0.00875285 -0.00296884 -0.0373887 -0.0279122 -0.0383102 0.00623865 -0.0221977 0.0137876 -0.0451256 -0.0598866 -0.0110924 0.0247155 0.0380271 0.0191877 -0.00905665 -0.0262251 0.0470744 0.041542 -0.0211334 -0.0159628 -0.0222662 -0.00377485
internal_weight=157.121 122.893 26.0564 96.8365 34.2279 86.9584 83.8054 64.1384 37.871 26.985 5.74515 19.6669 15.8441 21.2398 26.2675 3.82278 14.8081 24.6551 2.07487 9.44949 10.886 14.0676 3.69865 24.4906 9.03707 5.87555 21.7016 18.9937 17.031 1.84893
internal_count=2550 2380 728 1652 170 1569 1549 1111 564 469 145 438 389 324 547 49 385 719 44 91 95 181 70 526 60 40 443 374 352 35
is_linear=0
shrinkage=0.05


Tree=8
num_leaves=31
num_cat=0
split_feature=5 5 0 0 5 4 2 1 2 0 1 5 2 5 6 2 2 0 5 2 6 5 0 2 2 1 1 1 1 6
split_gain=131.456 15.6235 4.81066 6.94447 3.24331 2.74783 2.70348 3.06893 2.25135 2.19645 2.9919 1.92937 1.69475 1.58616 1.31114 1.58086 1.28706 1.25857 1.31192 1.13695 1.09678 1.70997 1.90197 2.20527 1.05943 1.4632 1.04597 1.80705 0.974484 1.03025
threshold=0.28497289121150976 0.35636070370674139 2.2775311505273392 5.2742468866526773 0.33307245373725897 1.5000000000000002 0.071499916261372351 0.06680710353412414 0.041431902003036279 8.2649343343853143 0.069502772379243877 0.14198740571737292 0.041431902003036279 0.24721334874629977 -6.8361330032348624 0.22153039119856308 0.079671869517128638 2.2384889976657183 0.47884787619113928 0.28567802377014045 1.6589395999908449 0.41138142347335821 3.7797381197715727 0.14594846314158957 0.055649675440407366 0.082311067250165404 0.042367007473119292 0.04525580452234209 0.013107559553266061 -10.271856784820555
decision_type=2 2 2 2 2 2 2 2 2 2 2 2 2 2 2 2 2 2 2 2 2 2 2 2 2 2 2 2 2 2
left_child=5 2 -2 4 12 13 -6 -8 -7 10 17 -10 26 -1 -5 -16 -9 18 -3 28 21 22 24 -24 -12 -26 -4 -28 29 -15
right_child=1 9 3 14 6 8 7 16 11 -11 20 -13 -14 19 15 -17 -18 -19 -20 -21 -22 -23 23 -25 25 -27 27 -29 -30 -31
leaf_value=-0.068851304762895776 0.044660165763354451 -0.058009208464878774 -0.04179221503565856 0.057944050027005568 -0.044362499545977707 -0.061745130221647418 0.052274071838940464 0.031403394010336046 0.053089570930384383 0.06315700235896933 -0.058169287408759332 -0.025024839011746548 -0.054521402493122144 -0.052426491242032185 -0.014542581171013756 0.050491878169060325 -0.065072433691262865 0.056880329016719015 0.045243535599713551 0.027373692298966065 -0.0096638636069027815 0.04515333951876993 0.051801253933411409 -0.030973089096946255 0.042903952078293742 -0.01965352851942484 0.038757455088250424 -0.035763916866666683 -0.05487590070777424 0.025497445793734769
leaf_weight=41.922873915173113 6.2231447324156788 0.43926324322819954 1.9101373217999986 3.6523466259241104 1.7169796163216222 2.4345793575048438 3.3776458539068699 0.36531824991106965 1.0744362957775595 20.447676330804825 0.7586072236299567 2.3164459262043238 6.2943564457818866 0.63020250573754311 1.9952965416014188 1.5007637981325386 0.93869092874228954 23.338329328224063 0.61575827747583389 0.40115413069725114 1.5498006716370571 10.555642802268265 4.046497754752636 0.84697918221354473 1.3737636655569079 2.4018149226903915 1.6666242424398663 1.3840549383312462 6.7283136760815978 0.85303257405757527
leaf_count=1401 32 8 35 19 46 73 15 3 11 59 12 50 188 22 31 7 26 91 3 2 20 64 24 12 12 35 8 30 202 9
internal_value=0 0.0351584 0.00565898 -0.00406611 -0.0210679 -0.0607131 0.00664869 0.026939 -0.026094 0.0488428 0.0422378 0 -0.0371851 -0.0645456 0.0369434 0.0126123 -0.0341718 0.0544752 0 -0.0424637 0.0279559 0.0311561 0.0146499 0.0361397 -0.00774328 0.00233792 -0.0135579 0.00329905 -0.0467653 -0.00567323
internal_weight=153.761 97.3995 31.0254 24.8022 17.6538 56.361 6.39863 4.68166 5.82546 66.3741 45.9265 3.39088 11.2552 50.5356 7.14841 3.49606 1.30401 24.3934 1.05502 8.6127 21.5331 19.9833 9.42766 4.89348 4.53419 3.77558 4.96082 3.05068 8.21155 1.48324
internal_count=2550 780 440 408 351 1770 90 44 134 340 281 61 261 1636 57 38 29 102 11 235 179 159 95 36 59 47 73 38 233 31
is_linear=0
shrinkage=0.05


Tree=9
num_leaves=31
num_cat=0
split_feature=5 5 0 0 5 4 3 0 5 5 1 1 6 6 0 3 6 0 6 1 6 1 3 0 0 3 5 6 0 5
split_gain=118.16 13.9504 3.76484 6.17978 2.93808 2.75522 2.24413 2.03326 1.54392 1.51934 1.4247 1.30226 1.18191 1.16459 1.14092 0.937442 0.914339 1.36395 0.863328 0.883482 0.923797 0.849444 3.52445 0.979136 1.13583 0.843203 0.825792 0.776495 0.768568 0.98155
threshold=0.28497289121150976 0.35636070370674139 2.2775311505273392 5.2742468866526773 0.33307245373725897 1.5000000000000002 0.028369628667304841 9.8553017247274806 0.14198740571737292 0.24721334874629977 0.069502772379243877 0.12581028511196965 -7.4145591259002677 -10.489448547363279 7.1492986840586434 0.022952663207066511 -6.8361330032348624 9.8553017247274806 -2.2697920799255367 0.013107559553266061 -10.271856784820555 0.04525580452234209 0.051547159357128843 3.2319374436169599 4.2275510770442422 0.19776130037555198 0.3234135508537293 1.6589395999908449 2.7355117290466038 0.43464653193950659
decision_type=2 2 2 2 2 2 2 2 2 2 2 2 2 2 2 2 2 2 2 2 2 2 2 2 2 2 2 2 2 2
left_child=5 2 -2 4 21 9 12 10 -7 -1 13 -10 15 -3 25 -6 -5 26 19 20 -11 22 -4 -23 -25 27 -18 -12 29 -15
right_child=1 7 3 16 6 8 -8 -9 11 18 14 -13 -14 28 -16 -17 17 -19 -20 -21 -22 23 -24 24 -26 -27 -28 -29 -30 -31
leaf_value=-0.066883946933860697 0.040203600017379576 -0.0058457766634092759 -0.059932740143263656 0.053983935832969156 -0.055067044790969105 0.018712103492974395 -0.019000799909574283 0.064542237286346713 -0.05629592610756208 -0.050674842726901939 0.029149319770498908 0 0.061926943878102096 -0.0014635369833644728 0.047189885119401247 0.036627378358748124 -0.048830789195335518 0.055707383307713368 0.019252564301548637 -0.052528027695404982 0.022992763154446011 -0.066938948087610181 0.027787908774254723 0 -0.05716428031064439 -0.020842981718158866 0.01190469823322679 -0.023140621947778196 0.056841189099218675 0.052481631963369704
leaf_weight=40.308330111205578 6.1181335672736195 0.69230967760086315 2.1774436281994038 3.5407540276646614 0.41528911422938142 1.3922281619161356 3.3961498513817787 14.138229966163633 3.0152043588459492 0.61652849055826664 15.427012179046871 1.3010917194187639 1.8858821243047703 1.4637979455292254 9.750359255820511 0.48502174951136112 0.72184693254530419 1.2012670077383516 0.40060357749461939 6.4900417383760214 0.8795693367719648 3.3013977911323309 2.1329137310385704 1.8919514445587995 1.3532669395208357 0.79256359487772066 1.4707431383430956 0.56534608826041299 20.113378152251244 1.4514722153544424
leaf_count=1401 32 11 60 19 10 23 71 27 89 22 136 22 4 16 53 5 17 3 4 200 9 108 15 39 39 13 18 9 67 8
internal_value=0 0.0337892 0.00546975 -0.0033168 -0.0196886 -0.0586384 0.00709963 0.0469166 -0.0237626 -0.0625674 0.0417405 -0.0387085 0.0402024 0.0511506 0.0329803 -0.00194703 0.0359082 0.0146136 -0.0406883 -0.0445143 -0.00550528 -0.0353246 -0.015746 -0.0470323 -0.0238907 0.0241992 -0.00716753 0.0268578 0.0530981 0.0245866
internal_weight=148.89 94.4865 30.0921 23.9739 17.0393 54.4036 6.18234 64.3945 5.70852 48.6951 50.2562 4.3163 2.78619 23.721 26.5353 0.900311 6.93461 3.39386 8.38674 7.98614 1.4961 10.857 4.31036 6.54662 3.24522 16.7849 2.19259 15.9924 23.0286 2.91527
internal_count=2550 780 440 408 351 1770 90 340 134 1636 313 111 19 102 211 15 57 38 235 231 31 261 75 186 78 158 35 145 91 24
is_linear=0
shrinkage=0.05


Tree=10
num_leaves=31
num_cat=0
split_feature=5 5 0 1 5 0 2 6 6 0 1 5 2 1 3 3 2 2 2 2 3 0 6 0 1 1 3 1 2 0
split_gain=106.72 13.1916 2.59455 4.49932 2.93032 2.47756 2.2891 1.7241 2.0782 1.3964 1.45587 1.2348 1.15954 1.82661 1.13258 1.71961 1.08603 1.11076 0.825312 1.06541 0.824883 1.03884 0.773179 1.51062 0.951064 0.697672 0.600033 0.59572 0.543779 1.00427
threshold=0.28497289121150976 0.36766296625137335 5.2742468866526773 0.027233357913666306 0.33307245373725897 5.1054243844669918 0.041431902003036279 -7.74060034751892 -6.1621990203857413 9.8553017247274806 0.077629858868269994 0.2788949459791184 0.042954987560770895 0.051647836800849799 0.051547159357128843 0.067064666367474532 0.11548821102673787 0.091176843999790591 0.10555933526824156 0.11900444785246141 0.035344916524466335 1.9725285548499853 -8.8806829452514631 7.2136386593974269 0.13701427212954198 0.1011184262749588 0.0097402579028979096 0.035108142683711555 0.11102924482401673 2.9572426410087815
decision_type=2 2 2 2 2 2 2 2 2 2 2 2 2 2 2 2 2 2 2 2 2 2 2 2 2 2 2 2 2 2
left_child=5 2 3 20 6 11 14 28 -9 10 27 -1 -7 -14 -5 -16 17 -12 -8 -20 21 -2 -4 24 -24 -18 -13 -3 29 -6
right_child=1 9 22 4 7 12 18 8 -10 -11 16 26 13 -15 15 -17 25 -19 19 -21 -22 -23 23 -25 -26 -27 -28 -29 -30 -31
leaf_value=-0.062795915332935909 0.030110258998482815 0.014965845996258843 0.056509730658552242 -0.058845900052833938 -0.059297865006597554 -0.056407258102712757 -0.064770985862611416 0.04955085094296667 -0.0081607663838834266 0.062673885718106656 0.021634275469423932 0.023724194839279913 0.066094289856824542 -0.023707777084461291 0.033868438722340723 -0.034141563011758552 -0.0024122376879797342 -0.041793976424244837 0.026170401250891519 -0.043732553840185984 0.051118338337357516 -0.020726773089157935 0.014826254765800021 0.04315610803099567 -0.046704204446966574 0.042989562022016321 -0.03554037464804273 0.054748808989041699 0.035405319878027211 0
leaf_weight=43.896827889606357 3.6346270404756087 1.454669795930388 2.640741478651762 0.64083673059940505 1.246025579050184 2.2824283000081769 3.7570939594879746 3.436849458143115 2.5164630049839598 13.716526307165621 6.2301695104688433 0.52621045149862655 0.53519588708877552 4.1971235107630491 2.4419524464756255 1.3218598347157238 0.6709800697863092 0.63547980785369862 0.64481042418628964 1.5271581346169112 3.4702472779899836 1.1754220034927128 1.4272034000605329 3.0981249138712883 0.90688741393387307 13.371328640729187 0.97509949840605259 19.726936541497707 0.245741307735443 1.7809735229238866
leaf_count=1562 22 15 12 16 30 71 134 20 44 27 59 5 5 98 14 32 6 11 8 47 11 23 18 20 18 88 29 74 1 30
internal_value=0 0.0325145 0.00867111 0.00120825 -0.0116869 -0.0568518 -0.0299551 0.00834026 0.0245984 0.0477261 0.0425993 -0.0612371 -0.0273065 -0.0113594 -0.00134256 0.00842366 0.0322962 0.0145299 -0.050007 -0.0205407 0.0320419 0.0164999 0.0334657 0.0205407 -0.00796321 0.0404649 -0.0114613 0.0523348 -0.0196042 -0.0266585
internal_weight=144.132 91.7191 35.913 27.8401 19.5598 52.4129 10.3337 9.22605 5.95331 55.8061 42.0896 45.3981 7.01475 4.73232 4.40465 3.76381 20.908 6.86565 5.92906 2.17197 8.2803 4.81005 8.07296 5.43222 2.33409 14.0423 1.50131 21.1816 3.27274 3.027
internal_count=2550 780 500 432 376 1770 251 125 64 280 253 1596 174 103 62 46 164 70 189 55 56 45 68 56 36 94 34 89 61 60
is_linear=0
shrinkage=0.05


Tree=11
num_leaves=31
num_cat=0
split_feature=5 5 0 0 1 5 2 1 1 2 5 0 5 5 2 1 3 5 0 0 2 2 6 1 6 6 6 1 1 1
split_gain=96.3472 12.0258 2.51011 2.34614 4.02119 1.83637 1.4099 1.43246 1.35221 1.41821 1.75467 2.06698 1.28469 1.26687 1.09278 1.4337 1.00198 0.852552 2.84794 1.01858 0.848754 0.918272 0.824621 0.747055 0.717469 1.8526 0.70496 0.667419 0.869929 0.739326
threshold=0.28497289121150976 0.36766296625137335 5.1054243844669918 5.2742468866526773 0.032882132677193372 0.30623297393321997 0.3114472966441959 0.077629858868269994 0.08166658216139612 0.096069814840398463 0.30777782201766973 2.9995146789886884 0.25127512216567999 0.35762636363506323 0.042954987560770895 0.052198016307407537 1.0000000180025095e-35 0.31365041434764868 1.9725285548499853 2.2106346330664519 0.11548821102673787 0.091176843999790591 -10.271856784820555 0.1011184262749588 -5.0372467041015616 -1.6587657332420347 -7.74060034751892 0.063309532857719106 0.079457517830733973 0.044911803008322239
decision_type=2 2 2 2 2 2 2 2 2 2 2 2 2 2 2 2 2 2 2 2 2 2 2 2 2 2 2 2 2 2
left_child=2 3 12 4 17 -6 7 -3 9 10 -7 26 -1 -10 -4 -16 22 18 -2 -19 21 -9 -14 -22 -5 -26 -12 29 -29 -13
right_child=1 6 14 24 5 8 -8 20 13 -11 11 27 16 -15 15 -17 -18 19 -20 -21 23 -23 -24 -25 25 -27 -28 28 -30 -31
leaf_value=-0.063595622654784009 0.031955765215951101 0.049928818176197688 -0.054165576710249179 0.043465059612128258 -0.042875449229095516 0.048763974104320387 0.060076647501589801 0.019918351870025702 -0.051807873583384678 0.040392846902973921 -0.065504231127279877 -0.021911242781948708 -0.047883134036847984 0.011078792362053336 0.057327425898580045 -0.021167475875471162 -0.048220832573919341 -0.0097791421758079439 -0.061169819334564439 0.046389106502799739 -0.011117021325360551 -0.040735736304162648 0.019233837160564489 0.040449093481755037 -0.033556264905181057 0.045506675536806401 -0.0095011344151621907 -0.057511475226718914 0.030149622285359414 0.036037107985686233
leaf_weight=36.855971743352711 3.0283421128988284 20.653660986572504 2.1856054030358782 5.0572975538671017 3.9951606690883663 1.1583446301519851 14.867966089397667 6.1237353943288353 2.2767479475587602 2.1206034161150455 1.7811098610982306 0.53852747566998083 0.59096655622124661 0.98728857375681389 0.55436205118894566 4.1349605638533831 4.9644954018294811 0.75015266425907601 0.99890699610114086 5.172351123765111 0.54852788895368476 0.55361674726009358 1.2032402139157046 11.459401579573749 1.2160037308931353 1.5255824401974667 1.1900806054472917 0.61910860799252976 0.30413434281945229 2.1625401340425014
leaf_count=1390 16 89 71 37 111 4 40 60 78 16 53 11 23 12 6 97 165 11 29 28 6 11 18 74 21 10 24 15 3 21
internal_value=0 0.0312639 -0.0551181 0.0081548 0.000967382 -0.0135037 0.0460002 0.0404145 -0.00393821 0.00490779 -0.00455115 -0.0152499 -0.0596475 -0.031536 -0.0252234 -0.00984075 -0.0367757 0.0262707 0.00672327 0.0384003 0.0294219 0.0136249 -0.00159398 0.0376082 0.0321535 0.00873269 -0.0457405 0.00896058 -0.0236234 0.0223288
internal_weight=139.579 89.0892 50.4896 34.8823 27.0834 17.1336 54.2069 39.3389 13.1385 9.87445 7.75385 6.5955 43.6147 3.26404 6.87493 4.68932 6.7587 9.94975 4.02725 5.9225 18.6853 6.67735 1.79421 12.0079 7.79888 2.74159 2.97119 3.62431 0.923243 2.70107
internal_count=2550 780 1770 500 432 348 280 240 237 147 131 127 1596 90 174 103 206 84 45 39 151 71 41 80 68 31 77 50 18 32
is_linear=0
shrinkage=0.05


Tree=12
num_leaves=31
num_cat=0
split_feature=5 5 0 0 0 5 1 2 3 3 5 1 0 6 2 1 3 0 3 3 6 6 6 2 6 3 0 0 1 5
split_gain=87.6072 11.0103 2.56719 4.83529 2.45837 2.0972 1.81056 1.89112 2.06599 1.17609 1.13373 1.12294 1.18423 1.10006 0.992945 1.30065 0.94144 3.53333 0.880413 0.773398 0.754353 0.712251 0.69376 1.39463 0.668853 0.657686 0.655057 1.4577 0.765678 0.638678
threshold=0.28497289121150976 0.35636070370674139 5.2742468866526773 2.3602918490304075 5.1054243844669918 0.43077918887138372 0.08118871759768341 0.071499916261372351 0.060996436304875314 0.022952663207066511 0.25127512216567999 0.17959288911601481 2.490557063790551 -9.6816263198852521 0.042954987560770895 0.052198016307407537 0.058137446329838541 3.7797381197715727 1.0000000180025095e-35 0.13146281986378583 -10.367433547973631 -3.4934709072113033 -8.8806829452514631 0.22153039119856308 -10.271856784820555 0.12983494474118742 12.116512104080119 11.724959963271715 0.36610243815352511 0.30777782201766973
decision_type=2 2 2 2 2 2 2 2 2 2 2 2 2 2 2 2 2 2 2 2 2 2 2 2 2 2 2 2 2 2
left_child=4 2 3 -2 10 11 7 8 -5 -9 -1 12 -3 -10 -6 -16 20 -18 24 21 -14 -19 -4 -24 -12 -20 27 28 -7 -11
right_child=1 5 22 6 14 26 -8 9 13 29 18 -13 16 -15 15 -17 17 19 25 -21 -22 -23 23 -25 -26 -27 -28 -29 -30 -31
leaf_value=-0.062198899299170329 0.029205636853957911 -0.0094181780280490415 0.052262435942180732 -0.050162288454142889 -0.052276618369983124 0.04460741643846515 -0.054696390281536479 -0.03630560992358605 0.037611473514195602 -0.010127799681603669 -0.045709668090269093 -0.0025127757518741173 -0.0098217894070961667 -0.020987957520881076 0.055106321047383527 -0.020140016996242502 -0.011670211964920404 0.056109765522079004 -0.052170925789194571 0 0.050017843673655374 0.015022947669143614 -0.0095198250511882299 0.048220188000198332 0.015936741535227894 0.0093668166869526441 0.068422277799557341 -0.0026092858427119647 0.074349972515442661 0.040513861308913109
leaf_weight=35.231032425537705 6.8245990443974796 1.2482916265726149 2.4945839382708073 3.9669134123250824 2.0946305859833947 19.877342190593492 3.1813569283112875 0.70129570364952121 1.2924963161349299 0.57698083855211768 0.54917448945343483 1.9456030167639244 0.37564250454306503 1.7298664171248672 0.5442708022892474 4.1102513615041971 4.0068716220557681 6.5804491825401774 4.5014432361349463 1.032844703644513 11.561902884393932 1.7869474552571762 2.1547294761985536 1.7159871030598877 1.1819750294089306 0.30043019913136948 6.3558791130781165 1.2215115651488293 3.4237950891256324 2.5855056345462799
leaf_count=1390 48 15 12 122 71 108 114 17 6 15 23 19 7 40 6 97 54 28 160 12 63 12 36 9 18 5 11 3 8 21
internal_value=0 0.0301139 0.00356006 -0.00474382 -0.0537328 0.0421702 -0.0216962 -0.0111553 -0.0268063 0.0158567 -0.0583581 0.0317208 0.0344128 0.0028724 -0.0239473 -0.00931558 0.0367966 0.0264783 -0.0362661 0.0432172 0.0476535 0.0482068 0.0311976 0.0153883 -0.00231715 -0.0471882 0.0515328 0.0466921 0.0494904 0.0297147
internal_weight=135.155 86.6414 27.2243 20.859 48.5132 59.4171 14.0344 10.8531 6.98928 3.86378 41.7641 28.5386 26.5929 3.02236 6.74915 4.65452 25.3447 13.4071 6.53302 9.40024 11.9375 8.3674 6.3653 3.87072 1.73115 4.80187 30.8785 24.5226 23.3011 3.16249
internal_count=2550 780 440 383 1770 340 335 221 168 53 1596 210 191 46 174 103 176 106 206 52 70 40 57 45 41 165 130 119 116 36
is_linear=0
shrinkage=0.05


Tree=13
num_leaves=31
num_cat=0
split_feature=5 5 4 0 0 1 2 5 5 5 5 5 1 1 1 0 5 0 0 0 2 2 0 5 5 5 0 0 3 5
split_gain=80.5545 10.4586 2.75434 2.52324 1.90543 2.96071 1.61089 1.36382 1.34834 1.30796 1.06544 1.73057 0.891673 1.2235 0.874717 1.06326 0.845852 2.2801 0.923466 0.71503 0.707455 0.806702 0.687745 0.634237 0.615176 0.596858 0.637537 0.582633 0.876923 0.581075
threshold=0.28497289121150976 0.36766296625137335 1.5000000000000002 9.8553017247274806 5.2742468866526773 0.032882132677193372 0.041431902003036279 0.24721334874629977 0.14198740571737292 0.30623297393321997 0.30960495769977575 0.32236993312835699 0.044911803008322239 0.063309532857719106 0.077629858868269994 7.1492986840586434 0.31365041434764868 1.9725285548499853 2.2106346330664519 2.877024625992644 0.28567802377014045 0.038888291151610375 2.647726267119122 0.35015504062175756 0.2788949459791184 0.45014810562133795 4.7780109434911022 2.7935090308841581 0.056150667218426618 0.29229032993316656
decision_type=2 2 2 2 2 2 2 2 2 2 2 2 2 2 2 2 2 2 2 2 2 2 2 2 2 2 2 2 2 2
left_child=2 4 7 14 5 16 -4 -1 -8 29 -11 -12 -13 23 22 25 17 -2 -18 -15 21 24 -3 -14 -9 27 -27 -16 -29 -7
right_child=1 3 6 -5 -6 9 8 20 -10 10 11 12 13 19 15 -17 18 -19 -20 -21 -22 -23 -24 -25 -26 26 -28 28 -30 -31
leaf_value=-0.061478543634903071 0.026223013954414849 0.017884293925036231 -0.050442921921242556 0.064550368300254402 0.029390231516078991 -0.010432561522422328 0.049258853003951622 -0.030599878024190771 -0.01680682625756318 0.031749504257639248 -0.055741383050557328 -0.042693618256950394 0.038216030853862382 0.012855099426495093 0.040278778718534462 0.042154609584537532 -0.010121276965596275 -0.058819427152665797 0.043181628413112155 -0.026744628402291901 0.021664305781286065 -0.055103403941787005 0.048935868165458155 -0.0062303756917202659 0.014401541793315415 0.047024919567115388 0 -0.048889806215328811 0.0082044416188557338 -0.055060176872108214
leaf_weight=34.01734867785126 2.9404606819152854 2.7676581889390972 2.0383228948339811 11.710997119545935 7.3700856510549775 1.6409405199810891 1.0536856390535834 2.460977995768189 2.139652207493782 1.6439595324918617 1.6429313616827119 1.0345461787655938 2.717120990157126 1.5529810376465318 1.0518420040607468 8.4435177594423276 0.7594171930104493 0.9549190830439328 4.8517117146402597 2.9395216424018145 0.34758724644780148 3.7750729257240891 16.907974541187286 0.8373147714883088 0.83752746693789948 2.5974474251270299 1.2759154103696344 0.66098560392856587 5.4771561697125435 2.1477938061580062
leaf_count=1401 16 22 73 27 68 38 11 79 50 15 64 28 23 21 6 51 11 29 28 72 2 143 67 14 11 14 17 12 64 73
internal_value=0 0.0292745 -0.0525946 0.0434933 0.0071523 0.000482648 -0.0166319 -0.0569636 0.00430803 -0.0123251 -0.00388533 -0.0100526 -0.000725391 0.0045143 0.0369241 0.0284025 0.0226726 0.00317374 0.0350412 -0.0119851 -0.0350606 -0.0388082 0.0449334 0.0264937 -0.0176147 0.0171755 0.0331679 0.00753744 0.000569563 -0.0377826
internal_weight=130.597 83.9272 46.6702 50.8935 33.0337 25.6636 5.23166 41.4385 3.19334 16.1571 12.3684 10.7244 9.08148 8.04694 39.1825 19.5069 9.50651 3.89538 5.61113 4.4925 7.42117 7.07358 19.6756 3.55444 3.29851 11.0633 3.87336 7.18998 6.13814 3.78873
internal_count=2550 780 1770 280 500 432 134 1636 61 348 237 222 158 130 253 164 84 45 39 93 235 233 89 37 90 113 31 82 76 111
is_linear=0
shrinkage=0.05


Tree=14
num_leaves=31
num_cat=0
split_feature=5 5 0 0 0 1 5 3 5 2 5 6 5 6 2 1 6 0 6 3 1 5 3 6 2 0 0 2 2 3
split_gain=73.5488 10.055 2.44186 2.39983 1.71941 3.61538 1.58048 1.17378 0.989124 0.91057 3.46513 2.06313 1.02617 0.990168 0.827319 1.54752 0.805298 1.43075 1.00622 0.734337 0.7268 0.600518 0.574585 0.552069 0.537663 0.524315 1.07081 0.786489 1.11266 0.90146
threshold=0.28497289121150976 0.36766296625137335 9.8553017247274806 5.1054243844669918 6.8048835141671757 0.066382519580874655 0.35487212240695959 0.033945616248228665 0.25127512216567999 0.041431902003036279 0.33307245373725897 -7.5097188949584952 0.33643606305122381 -8.2584919929504377 0.042954987560770895 0.051647836800849799 -7.7899856567382804 2.7513813956446715 -7.243879795074462 1.0000000180025095e-35 0.053546985749526571 0.42378932237625128 0.027416237302731628 -10.271856784820555 0.15397589492377547 2.7865379469487892 5.7117414289801571 0.11988143706806541 0.11548821102673787 0.060293912766048278
decision_type=2 2 2 2 2 2 2 2 2 2 2 2 2 2 2 2 2 2 2 2 2 2 2 2 2 2 2 2 2 2
left_child=3 4 16 8 5 9 7 22 -1 13 -11 12 -12 -2 -5 -16 17 21 -18 23 -15 -3 -7 -10 -6 -20 27 28 29 -27
right_child=1 2 -4 14 24 6 -8 -9 19 10 11 -13 -14 20 15 -17 18 -19 25 -21 -22 -23 -24 -25 -26 26 -28 -29 -30 -31
leaf_value=-0.060124600332548329 0.026747573759621387 -0.021526983890186483 0.063434128256574851 -0.048512609698396672 0 -0.040889420428221274 0.0048605535975504398 -0.049237290761850849 -0.043408685152575288 -0.057160187819589384 0.025806552748167351 0.056648113708241347 -0.05756916658995475 -0.025005532134050153 0.062851964113954287 -0.020071089971898715 -0.023318814025861844 0.054623185903966254 0.052690151454762857 -0.045253537355051547 0.026467991313977854 0.031185652924502646 0.027378997362725522 0.013635927812074476 0.050155515288510755 0.036535388029474404 0.039779269115771218 -0.0045041169257164391 0.059165609502855654 -0.00058067934512366539
leaf_weight=32.151226726360619 11.864345112815501 0.88714749366044543 11.382749401032923 1.9248589668422926 0.91078605875372831 0.34006272442638674 2.8778043538331985 4.8607262745499611 0.51720994897186745 1.8421432264149178 0.48580887541174911 2.0615387633442879 0.73462303634732962 1.7702127024531393 0.53860600292682637 3.9454788956791162 0.68307369947433372 10.367276251316069 3.2243972979486086 4.4934613211080432 0.93114829249680031 1.0091186165809629 0.84306164924055338 1.1406154055148352 2.6040958128869534 2.4158132486045378 10.752971328794954 2.9120343923568717 1.7668306455016134 3.9504477269947529
leaf_count=1390 94 11 27 71 13 11 38 162 23 74 5 7 20 39 5 98 10 47 17 165 15 7 10 18 12 13 68 38 6 36
internal_value=0 0.0282689 0.0424366 -0.0514629 0.00628555 0.00198855 -0.024048 -0.0384818 -0.0562942 0.0141005 -0.00315786 0.0264687 -0.0211528 0.020493 -0.0213999 -0.00786624 0.0358603 0.0473242 0.0300352 -0.0348321 -0.0051665 0.00417694 0.00220257 -0.0027735 0.0388578 0.0317777 0.0282295 0.0162806 0.0242942 0.0130778
internal_weight=126.19 81.4782 49.3519 44.7115 32.1264 28.6115 8.92166 6.04385 38.3025 19.6898 5.12411 3.28197 1.22043 14.5657 6.40894 4.48408 37.9691 12.2635 25.7056 6.15129 2.70136 1.89627 1.18312 1.65783 3.51488 25.0225 21.7981 11.0451 8.13309 6.36626
internal_count=2550 780 280 1770 500 475 221 183 1596 254 106 32 25 148 174 103 253 65 188 206 54 18 21 41 25 178 161 93 55 49
is_linear=0
shrinkage=0.05


Tree=15
num_leaves=31
num_cat=0
split_feature=5 5 5 4 6 5 0 1 5 6 2 6 0 1 0 0 2 5 0 2 1 6 1 6 5 2 6 2 1 0
split_gain=66.7875 6.66685 3.97437 3.16793 2.50434 1.88933 1.68206 2.37206 1.52234 1.30271 1.02028 1.22388 0.930634 0.964929 0.97583 1.50748 0.99233 0.951526 0.810457 2.00261 1.41458 0.758877 0.747511 0.734468 0.730744 0.694586 1.22094 0.689741 0.622453 0.668034
threshold=0.29894348978996282 0.43077918887138372 0.2788949459791184 1.5000000000000002 -10.248483180999754 0.35636070370674139 5.2742468866526773 0.063309532857719106 0.14198740571737292 -2.2697920799255367 0.27256523960499945 -2.2697920799255367 2.490557063790551 0.065604806099956725 4.6728395553925415 2.7935090308841581 0.13661837429876489 0.36087571084499365 2.2775311505273392 0.071499916261372351 0.042367007473119292 -7.5097188949584952 0.17959288911601481 -3.1552737951278682 0.29025956988334661 0.042954987560770895 -8.6792798042297346 0.043814586191444009 0.043909354020869255 3.4825524585662619
decision_type=2 2 2 2 2 2 2 2 2 2 2 2 2 2 2 2 2 2 2 2 2 2 2 2 2 2 2 2 2 2
left_child=2 5 3 9 24 6 7 18 27 -1 11 -3 17 23 15 -15 25 -7 -2 20 -20 -21 -16 -14 -4 26 -17 -5 -22 -30
right_child=1 10 4 8 -6 12 -8 -9 -10 -11 -12 -13 13 14 22 16 -18 -19 19 21 28 -23 -24 -25 -26 -27 -28 -29 29 -31
leaf_value=-0.057706645094335166 0.030291893109285675 0.049236073962299676 0.035435810198424074 -0.019329831378193104 -0.036385824913531116 0.024963143345115985 0.031318606739283557 -0.033713941909751945 -0.030475496762535467 0.0094180378991793358 0.060383538377217397 0.015728703919773723 0.045427790247422196 0.046820595569491863 0.043032575270989831 0.028196231202416197 -0.051744269955310208 -0.05808290698344825 -0.052381452492004182 -0.00029667358093556713 0.038656310049364345 0.051207534041966499 0 0.0024086579364551389 -0.013705963185727013 0.013732493967577371 -0.065261408843997254 0.048696405780773735 -0.040068823972829855 0.015556989936402347
leaf_weight=35.879067779518664 3.3166341949254292 9.4601583480834943 2.3951813466846947 0.35427415743470092 4.1307901786640278 0.54944748058915382 4.8370136618614188 4.2028253357857457 3.3795354114845395 0.58090101182460685 13.496919453144072 4.7045075595378902 9.6797945909202081 1.7499385569244603 4.8327327482402325 0.42886753007769585 0.84254354424774636 0.55479862168431282 1.8354828618466852 0.83113657310605082 0.77518068626523051 1.8504667207598684 1.058996547013521 1.3940014466643358 0.84727757051587094 4.1818751804530621 0.75034214928746201 1.0800574049353597 0.95927245728671529 0.86142029985785484
leaf_count=1590 19 39 16 13 121 5 46 137 105 12 47 44 51 11 35 3 18 10 60 17 4 7 10 7 13 48 12 10 29 11
internal_value=0 0.0301782 -0.04535 -0.0514135 -0.0105049 0.0181691 0.00601012 -0.00217247 -0.0116725 -0.0564776 0.0496118 0.0386461 0.0270166 0.0290811 0.0193406 0.00696118 -0.00405367 -0.0139675 0.0102625 0 -0.0198702 0.03401 0.0348226 0.0405299 0.0210729 0.00333603 -0.027816 0.0284707 0.00235332 -0.0117078
internal_weight=121.801 73.1544 48.6471 41.2738 7.37325 45.4928 19.4694 14.6324 4.81387 36.46 27.6616 14.1647 26.0233 24.9191 13.8453 7.95357 6.20363 1.10425 10.4296 7.11296 4.43136 2.6816 5.89173 11.0738 3.24246 5.36108 1.17921 1.43433 2.59587 1.82069
internal_count=2550 670 1880 1730 150 540 330 284 128 1602 130 83 210 195 137 92 81 15 147 128 104 24 45 58 29 63 15 23 44 40
is_linear=0
shrinkage=0.05


Tree=16
num_leaves=31
num_cat=0
split_feature=5 5 5 4 0 5 5 0 0 6 6 3 6 0 3 2 6 5 6 3 0 3 0 6 0 0 0 0 5 3
split_gain=60.3783 6.22296 3.70154 3.64362 2.13212 1.80977 1.69372 1.5182 1.46329 1.21682 1.11435 1.02134 1.38885 1.98224 1.11906 1.01694 1.18727 0.967387 0.82282 0.756885 0.864836 0.742704 0.93748 0.671037 0.623258 0.610999 1.03056 0.728957 0.634436 0.604706
threshold=0.29894348978996282 0.43077918887138372 0.2788949459791184 1.5000000000000002 2.0283281843974796 0.35636070370674139 0.14198740571737292 6.4415769481362606 2.3602918490304075 -11.19525623321533 -2.2697920799255367 0.035765026160780637 -3.4934709072113033 3.7797381197715727 0.132833170541718 0.27256523960499945 -1.8961738944053648 0.41138142347335821 -9.9922399520874006 0.10760618942759116 5.2742468866526773 0.098394009762624704 5.6264896827974775 -10.528565883636473 8.2649343343853143 2.7513813956446715 2.7829728856532143 2.9444126052999029 0.32236993312835699 0.058137446329838541
decision_type=2 2 2 2 2 2 2 2 2 2 2 2 2 2 2 2 2 2 2 2 2 2 2 2 2 2 2 2 2 2
left_child=2 5 3 10 -4 7 18 8 23 -6 -1 -7 13 17 -15 16 -3 29 -5 20 25 22 -14 -2 -18 -10 -27 -28 -29 -13
right_child=1 15 4 6 9 11 -8 -9 19 -11 -12 12 21 14 -16 -17 24 -19 -20 -21 -22 -23 -24 -25 -26 26 27 28 -30 -31
leaf_value=-0.056881817916790062 -0.01297332415320256 0.046713131964664867 0.0249382194478357 0.065971413835665432 0.031112718304488047 0.043903231957562371 -0.028742576431372725 0.037433768797156118 -0.043368940741382381 -0.04029666923066897 0.0060732431852612923 0.012475080031892736 0.0011719120333393692 0.050988722153241309 -0.001757592103064725 0.059147533147928422 -0.002517344189562704 0.046206577225793133 0 -0.046579703466590981 0.031078314441546476 0.01657781536663732 -0.060334718196143271 0.033843038199191031 0.035656981903181791 0.034816245847914803 -0.046506328988231503 -0.026436468405454334 0.0074434194360941666 -0.018226697400131237
leaf_weight=34.200398181565106 0.74507588334381569 9.6310723796486837 2.5594852752983561 0.77660070173442364 0.53903383389115322 6.4512321129441288 3.2513728840276599 2.9789004512131205 1.1856325538828958 4.1116838902235031 0.5528511069715013 3.4605298023670947 1.0962065309286098 6.8032385930418968 0.95749789476394642 13.044984474778174 2.3840907774865658 1.1984110958874223 0.75377535261213668 1.194932673126458 1.2842922080308188 1.5649747326970098 0.97741351649165142 3.4099878901615766 1.5601373687386511 1.2112894020974616 1.2466212827712295 2.0100521920248866 3.6076034093275666 2.7875309679657221
leaf_count=1590 9 41 17 6 2 34 105 23 39 131 12 38 12 36 14 47 31 10 17 39 15 16 6 24 11 9 47 62 63 44
internal_value=0 0.0291064 -0.0440473 -0.0500793 -0.0100561 0.0173566 -0.00774076 0.00526342 -0.000649229 -0.0304869 -0.0557223 0.0261263 0.0195774 0.0262564 0.0439054 0.0482781 0.0371115 0.00686187 0.0328382 -0.00998359 -0.00496852 -0.00695501 -0.0269613 0.0241654 0.0118545 -0.01078 -0.00491187 -0.0130396 -0.004055 -0.000506022
internal_weight=117.537 70.7917 46.7452 39.535 7.2102 44.1714 4.78175 18.8744 15.8955 4.65072 34.7532 25.297 18.8458 15.2072 7.76074 26.6203 13.5753 7.44647 1.53038 11.7404 10.5455 3.63859 2.07362 4.15506 3.94423 9.2612 8.07557 6.86428 5.61766 6.24806
internal_count=2550 670 1880 1730 150 540 128 330 307 133 1602 210 176 142 50 130 83 92 23 274 235 34 18 33 42 220 181 172 125 82
is_linear=0
shrinkage=0.05


Tree=17
num_leaves=31
num_cat=0
split_feature=5 5 5 4 0 6 0 6 2 5 2 6 2 6 5 3 6 6 0 5 5 4 5 0 0 2 2 3 0 6
split_gain=56.6957 6.45931 3.46461 2.89979 2.09558 1.81236 1.32137 1.34286 1.3031 1.18275 1.12097 2.35813 1.05593 0.986731 0.851878 0.699869 0.624572 1.30931 1.23725 0.60135 0.569848 0.56656 0.543647 0.537513 0.681966 0.876249 0.734627 0.558175 0.66827 0.533811
threshold=0.29894348978996282 0.36766296625137335 0.2788949459791184 1.5000000000000002 9.8553017247274806 -10.248483180999754 6.8048835141671757 -6.4796051979064933 0.041431902003036279 0.15347462147474292 0.041431902003036279 -8.0285992622375471 0.088798811276598708 -2.2697920799255367 0.33477005362510687 0.034370260302735565 -7.7899856567382804 -7.3535399436950675 2.7513813956446715 0.29025956988334661 0.42378932237625128 1.0000000180025095e-35 0.28039132058620458 2.7865379469487892 5.7117414289801571 0.11988143706806541 0.11548821102673787 0.085254126488236076 3.7797381197715727 -11.212018013000487
decision_type=2 2 2 2 2 2 2 2 2 2 2 2 2 2 2 2 2 2 2 2 2 2 2 2 2 2 2 2 2 2
left_child=2 6 3 13 16 19 7 10 -5 -10 -2 -12 -13 -1 -9 -16 18 -18 20 21 -3 -4 -7 -19 25 26 27 -25 -29 -21
right_child=1 4 5 8 -6 22 -8 14 9 -11 11 12 -14 -15 15 -17 17 23 -20 29 -22 -23 -24 24 -26 -27 -28 28 -30 -31
leaf_value=-0.055980875786676848 0.021525188230920266 -0.022214979895819678 0.049703474049693566 -0.045754255788669373 0.060609157809990072 0.010216427512051811 0.037944585779521062 -0.044117089265619719 0.040771993618029259 -0.018806730842039349 -0.035286738921241956 -0.022240260507549965 0.041605632586915922 0.0038631130180888508 0.038756609309999072 -0.01389993208717942 -0.049971202202788612 0.050649153940604631 0.051977034553075945 0.019084410326745745 0.030062596092406919 0 -0.039494714336295256 0.025426675824895974 0.035844822664554077 -0.007434513340117065 0.05559774554743762 -0.047338783200393308 0.01201896741293576 -0.049284084246704662
leaf_weight=32.587157141417265 9.2716125398874301 0.83760401606559287 1.3835422154515988 1.7076476914808143 10.191255591809748 0.427596434950828 3.0328780747950068 1.9129103766754276 1.3723119981586935 1.7218669578433035 3.2010582974180606 0.69881002418696736 2.3285834323614836 0.53163219895213742 0.68232809752225909 2.9408669546246529 0.39287678897380729 3.1986945644021132 9.0753772594034654 0.37800217419862747 0.99255968630313873 0.87042320147156704 3.5242355428636074 3.9483771808445471 9.6209388151764852 2.6496613137423992 1.5330313667654989 0.58428184129297722 1.2713553868234155 0.45499195903539646
leaf_count=1590 96 11 4 69 27 8 21 72 15 44 98 23 17 12 4 59 8 18 47 2 7 12 113 25 68 38 6 11 14 11
internal_value=0 0.0286654 -0.0435554 -0.0495615 0.0400022 -0.0102572 0.00751555 0.00273313 -0.0116165 0.00650112 0.010482 -0.00524719 0.0250295 -0.054861 -0.017876 -0.00186599 0.033539 0.0280382 0.0444254 0.0171084 0.00363509 0.0309069 -0.0327625 0.0298126 0.02592 0.0156024 0.0245822 0.0147401 -0.00557915 -0.01418
internal_weight=113.324 68.3651 44.9594 37.9206 44.296 7.03879 24.069 21.0362 4.80183 3.09418 15.5001 6.22845 3.02739 33.1188 5.53611 3.6232 34.1048 23.1992 10.9055 3.08696 1.83016 2.25397 3.95183 22.8063 19.6076 9.98671 7.33705 5.80401 1.85564 0.832994
internal_count=2550 670 1880 1730 280 150 390 369 128 59 234 138 40 1602 135 63 253 188 65 29 18 16 121 180 162 94 56 50 25 13
is_linear=0
shrinkage=0.05


Tree=18
num_leaves=31
num_cat=0
split_feature=5 5 5 4 0 1 2 0 1 1 5 6 1 5 0 6 5 6 6 6 1 1 5 0 0 2 5 5 6 1
split_gain=51.7887 6.28751 3.43688 2.823 1.93186 1.54288 1.16541 1.15237 1.97662 0.987073 0.915813 0.895614 0.765595 0.74375 0.631179 0.610516 1.08248 0.571819 0.558854 0.51472 0.463367 0.45527 0.451417 0.444803 1.02485 0.822993 0.732436 0.562176 0.626366 0.452359
threshold=0.29894348978996282 0.36766296625137335 0.2788949459791184 1.5000000000000002 9.8553017247274806 0.038480091298750692 0.041431902003036279 6.8048835141671757 0.066382519580874655 0.052198016307407537 0.35281278192996984 -2.2697920799255367 0.077629858868269994 0.4575770795345307 10.435218155708526 -11.212018013000487 0.28609581291675573 -7.4145591259002677 -9.0943999290466291 -8.705324172973631 0.12235389780502844 0.035108142683711555 0.25127512216567999 2.9444126052999029 2.3602918490304075 0.11102924482401673 0.30777782201766973 0.31574238836765295 -5.3186018466949454 0.026168943762661444
decision_type=2 2 2 2 2 2 2 2 2 2 2 2 2 2 2 2 2 2 2 2 2 2 2 2 2 2 2 2 2 2
left_child=2 7 3 11 12 15 -5 8 23 -8 17 22 21 -14 -7 -4 -17 18 -10 -12 -21 -3 -1 24 29 26 -26 -25 -29 -2
right_child=1 4 5 6 -6 14 9 -9 10 -11 19 -13 13 -15 -16 16 -18 -19 -20 20 -22 -23 -24 27 25 -27 -28 28 -30 -31
leaf_value=-0.058069521098780531 0.00087949374410370765 0.0080464374304085387 0.039961171044070598 -0.043897500011871288 0.05953960328682667 -0.042173140914695165 0.053858578435104699 0.035772112319373078 -0.045906924753287476 -0.008447163196758041 -0.044358817855936733 0.0020730128999153301 0.01405856254580398 0.037051968162478494 0.028431708606872053 0.025430441344530392 -0.036468403753728666 -0.052002624162414815 0.0077035282531378469 0.026389013285790505 -0.015243056630301533 0.043723553766142814 -0.034908557889808553 -0.0077930679909860752 0.010080014986805268 0.039033499063296645 -0.041054926082730148 0.0366738985058601 -0.014513932819994441 0.035545607235467812
leaf_weight=26.878233822993938 2.055000759661203 1.377089980989697 1.1601743921637537 1.6379787614569057 9.7386850565671903 2.8684505065903072 0.7341562453657392 2.8907357566058627 0.60370055306702841 2.299980791285634 0.3975428864359859 0.51821271888911979 9.5144124273210782 6.9905910380184642 0.1977371722459792 1.4629952125251287 1.1756589431315658 2.1694747461006036 1.1789817772805693 1.6989089976996186 0.82138478010892857 15.056067671626804 4.1821402423083773 0.89359391666948784 0.7688194792717703 0.4365624040365218 2.1399593455716968 4.5048870947211981 0.48158261366188515 2.3237449564039707
leaf_count=1418 22 15 5 69 27 104 8 21 26 51 10 12 109 55 1 14 26 85 23 21 14 74 172 20 11 2 65 42 11 17
internal_value=0 0.0278129 -0.0425677 -0.0487323 0.0392324 -0.0090652 -0.0108211 0.00666334 0.00215657 0.00627077 -0.0192417 -0.0541317 0.0329149 0.0242629 -0.0352865 0.0111789 -0.000647613 -0.0346657 -0.00926978 0.000449427 0.0108487 0.041103 -0.0552335 0.0133889 0.00457421 -0.0151682 -0.0259918 0.0238618 0.0305591 0.0207756
internal_weight=109.157 66.0417 43.1157 36.2507 42.6768 6.86502 4.67212 23.3649 20.4741 3.03414 6.86999 31.5786 32.9382 16.505 3.06619 3.79883 2.63865 3.95216 1.78268 2.91784 2.52029 16.4332 31.0604 13.6042 7.72409 3.34534 2.90878 5.88006 4.98647 4.37875
internal_count=2550 670 1880 1730 280 150 128 390 369 59 179 1602 253 164 105 45 40 134 49 45 35 89 1590 190 117 78 76 73 53 39
is_linear=0
shrinkage=0.05


Tree=19
num_leaves=31
num_cat=0
split_feature=5 5 5 4 1 1 0 1 2 1 5 5 3 1 3 3 0 0 0 2 3 3 0 5 2 5 5 3 5 0
split_gain=47.7551 5.88056 3.0253 2.72103 1.90748 1.50598 1.08354 1.80435 1.05603 0.940041 0.828085 0.77399 0.56224 0.748358 0.552922 0.534503 0.569488 1.42979 0.525997 0.494447 0.491222 0.394094 1.26965 0.448222 0.389703 0.660455 0.381945 0.370044 0.320996 0.311274
threshold=0.29894348978996282 0.36766296625137335 0.2788949459791184 1.5000000000000002 0.36610243815352511 0.038480091298750692 6.8048835141671757 0.066382519580874655 0.041431902003036279 0.052198016307407537 0.35281278192996984 0.24721334874629977 0.090938741330915895 0.14433487173754397 0.027575852840824446 0.022952663207066511 2.2775311505273392 2.7513813956446715 2.3788712726974635 0.15799494031116601 0.028369628667304841 0.048077973946342466 2.0283281843974796 0.29025956988334661 0.085016490557855054 0.30358348786830908 0.36314980685710913 0.033945616248228665 0.31574238836765295 10.435218155708526
decision_type=2 2 2 2 2 2 2 2 2 2 2 2 2 2 2 2 2 2 2 2 2 2 2 2 2 2 2 2 2 2
left_child=2 6 3 11 14 21 7 15 -5 -10 27 -1 -11 -14 -3 18 -17 -18 24 -13 -16 22 23 -4 25 -2 -19 -9 -8 -7
right_child=1 4 5 8 -6 29 28 10 9 12 -12 19 13 -15 20 16 17 26 -20 -21 -22 -23 -24 -25 -26 -27 -28 -29 -30 -31
leaf_value=-0.057237806912060235 0.031985046857125006 0.046601645036440327 0.035568857881175822 -0.042692338762001986 0.064197456648217688 -0.040520938519439366 0.053419912846421475 0 0.052424381030032913 -0.033113425072673952 0 -0.037977706735035706 0.047260343135078584 -0.025388478637993102 -0.032577703832823032 0.045040348142520906 -0.034018602422118925 0.024310680075291746 -0.036338621356661896 0.00087161323125191717 0.029808603756575638 0.042205610381010394 -0.050900833839255748 -0.0071492215845711726 0.038430647196260333 -0.028386780960890791 -0.016499804888902111 -0.041507235185190262 0.013054098049504068 0.0093083625499042304
leaf_weight=25.226969156879935 0.60139403492212995 7.5307568311691275 1.5645239986479285 1.5789450267329801 6.427676483988761 2.772352354601026 1.3207529336214059 0.67729218024760429 0.72438049502670798 1.1614682152867319 2.8252256028354168 4.0694220876321188 0.65868452191352822 0.48855911754071712 0.16499209403991955 1.6967203319072712 1.2613181117922048 6.6474527758546174 0.84908392932265986 0.7069121180102228 27.181601133197546 0.6918180864304303 0.73012948408722866 0.65892546623945225 0.62176029756665219 1.0853949524462221 0.40846842899918545 3.0670032724738121 1.547953952103853 0.13834370672702778
leaf_count=1401 3 34 9 69 17 104 5 14 8 34 45 185 5 12 2 6 32 88 31 16 227 3 26 7 3 20 7 120 16 1
internal_value=0 0.0270382 -0.0419382 -0.0478642 0.0382625 -0.00964942 0.00623469 0.00172266 -0.0104666 0.00554059 -0.019209 -0.0533929 -0.00865959 0.0127586 0.03317 0.0126054 0.0183173 0.0118014 -0.00398022 -0.0313026 0.0291327 0.0106649 0.000499482 0.0209944 0.00685985 -0.00347854 0.0210519 -0.0343318 0.0344962 -0.0362613
internal_weight=105.086 63.9148 41.1714 34.6153 41.305 6.55609 22.6098 19.7411 4.61204 3.03309 6.56952 30.0033 2.30871 1.14724 34.8774 13.1716 10.014 8.31724 3.15763 4.77633 27.3466 3.6454 2.95358 2.22345 2.30855 1.68679 7.05592 3.7443 2.86871 2.9107
internal_count=2550 670 1880 1730 280 150 390 369 128 59 179 1602 51 17 263 190 133 127 57 201 229 45 42 16 26 23 95 134 21 105
is_linear=0
shrinkage=0.05


Tree=20
num_leaves=31
num_cat=0
split_feature=5 5 4 2 5 2 0 1 5 5 1 3 1 0 2 5 5 2 5 3 1 5 1 5 0 5 5 1 1 2
split_gain=44.0777 7.47754 2.57747 2.07107 1.23085 1.14042 0.938288 1.92584 0.91425 0.822016 0.789208 0.685675 0.648718 0.584997 0.574304 2.23112 0.746824 0.484812 0.464889 0.414636 0.678262 0.423904 0.353905 0.93034 0.531442 0.357556 0.404482 0.459147 0.419701 0.351954
threshold=0.28497289121150976 0.36766296625137335 1.5000000000000002 0.3114472966441959 0.24721334874629977 0.041431902003036279 6.8048835141671757 0.066382519580874655 0.35281278192996984 0.14198740571737292 0.077629858868269994 0.033945616248228665 0.035108142683711555 7.4939474625449405 0.041431902003036279 0.33307245373725897 0.3459054976701737 0.15397589492377547 0.41138142347335821 0.090938741330915895 0.14433487173754397 0.24289040267467502 0.11826671044474481 0.39108730852603918 5.0239751427695891 0.38636636734008795 0.5352618694305421 0.09198592785704808 0.10066016925800923 0.038888291151610375
decision_type=2 2 2 2 2 2 2 2 2 2 2 2 2 2 2 2 2 2 2 2 2 2 2 2 2 2 2 2 2 2
left_child=2 6 4 10 -1 -4 7 14 11 -7 12 -9 18 22 -2 -16 -17 -8 -3 21 -21 -11 25 -24 -25 -12 27 -27 -29 -6
right_child=1 3 5 -5 29 9 17 8 -10 19 13 -13 -14 -15 15 16 -18 -19 -20 20 -22 -23 23 24 -26 26 -28 28 -30 -31
leaf_value=-0.056707361525214897 0.014860574736745291 -0.030447673323603493 -0.042718066432528817 0.057210699384204013 -0.011269392845391628 0.041289117022701202 0 0 2.7876733294845664e-05 -0.053007548903090229 0.02327524258927078 -0.043827133887974074 0.041545056895745003 0.035144455160634594 -0.052735824782833646 0.035524815285562401 -0.020324301887052313 0.041753465425883748 0.027807276498382796 0.054650436978066069 -0.021471925248110906 0 -0.036187646804174571 0.039643978397404564 0.0034576304173789896 -0.04387641594362799 0.029165413277733383 0.035116122592884685 -0.018302188803115866 -0.040011487676547247
leaf_weight=23.874359750654552 12.219914115965375 0.50185715034604317 1.6345162354409684 10.34480210021138 2.6411053612828246 1.0667853243649008 0.84184097871184294 0.97653866279870172 2.7637776657938957 0.68462914600968339 1.1248235497623666 3.7474626991897821 13.924751427024601 4.9583944827318183 1.5388441183604289 2.0591759020462637 0.63003620505332936 2.0826405175030231 0.68146569281816483 0.41380691528320301 0.48710104078054428 0.39649600349366665 0.49813665077090252 3.2267940305173397 1.9568392634391782 0.92373901978135187 0.39209793508052815 0.45880052447319009 0.97523511573672295 3.1662769578397274
leaf_count=1401 148 8 73 40 90 11 13 21 45 24 13 155 74 35 74 18 14 12 7 3 12 11 11 27 25 16 4 5 15 145
internal_value=0 0.0236571 -0.0459399 0.0373526 -0.0514108 -0.00987159 0.00302993 -7.78647e-05 -0.0211384 0.00694738 0.0300804 -0.0343021 0.0385364 0.0207333 0.00927739 -0.00567436 0.0203881 0.0292808 0 -0.0102301 0.0104641 -0.0311339 0.0124518 0.0202972 0.0272538 0 -0.00899058 -0.0182988 0 -0.0281985
internal_weight=101.193 66.828 34.3651 39.9677 29.6817 4.68333 26.8602 23.9357 7.48778 3.04882 29.6229 4.724 15.1081 14.5149 16.448 4.22806 2.68921 2.92448 1.18332 1.98203 0.900908 1.08113 9.55647 5.68177 5.18363 3.8747 2.74987 2.35777 1.43404 5.80738
internal_count=2550 780 1770 280 1636 134 500 475 221 61 240 176 89 151 254 106 32 25 15 50 15 35 116 63 52 53 40 36 20 235
is_linear=0
shrinkage=0.05


Tree=21
num_leaves=31
num_cat=0
split_feature=5 5 5 0 0 5 1 2 0 0 3 0 1 1 3 2 6 2 0 3 5 5 6 0 3 1 3 3 6 3
split_gain=40.6556 5.5423 2.55914 2.21716 1.30505 1.28038 1.18446 1.13815 1.18342 1.07814 1.93651 0.906774 1.30519 0.842968 0.800004 0.784347 0.907532 0.712412 1.66788 1.27748 0.599688 0.573131 0.548326 0.528666 0.506862 0.73853 0.678098 0.503663 0.454077 0.440707
threshold=0.29894348978996282 0.41138142347335821 0.24721334874629977 5.0050239165975494 2.0283281843974796 0.35636070370674139 0.17959288911601481 0.27256523960499945 4.3983498831946148 3.7797381197715727 0.035765026160780637 5.2742468866526773 0.08118871759768341 0.049157210962045582 0.031260949114852055 0.24983805758071506 -11.242861270904539 0.071499916261372351 2.2775311505273392 0.060996436304875314 0.33307245373725897 0.31469902396202093 -9.2563676834106428 2.7578876527157052 0.058137446329838541 0.13108106935230043 0.05522049202712425 0.035538946623700732 -6.8361330032348624 0.085254126488236076
decision_type=2 2 2 2 2 2 2 2 2 2 2 2 2 2 2 2 2 2 2 2 2 2 2 2 2 2 2 2 2 2
left_child=2 5 3 -1 -4 11 9 8 -3 10 23 12 17 14 -5 16 -6 18 27 -20 -19 -13 -21 -7 26 -26 -12 -2 -23 -10
right_child=1 7 4 13 15 6 -8 -9 29 -11 24 21 -14 -15 -16 -17 -18 20 19 22 -22 28 -24 -25 25 -27 -28 -29 -30 -31
leaf_value=-0.056225443869632977 0.00045639965671558173 0.044052321718384774 0.0077768598108734323 0.055917057601869824 0.024885551936024271 0 -0.026665297824272578 0.055932816384584798 -0.020528139118200246 0.040197601395100986 -0.0035395180531269371 0.0485688593897948 -0.041943182472484637 -0.027960360741597374 -0.021170849404398676 0.017926508692387631 -0.038683313450644172 -0.012259955445338686 -0.048116941460430031 0.03177612527461883 0.03313215539949893 0.031253156936413166 -0.018290322421306317 0.047403486128102024 -0.035711829310694068 0.018360423927650731 0.046872296369478303 0.046922347252882156 -0.0086437002280267076 0.018628491760447289
leaf_weight=21.668300600722436 1.5230701267719289 9.0427555255591887 2.8460916616022578 0.60483533889055141 0.44187029823660751 0.73086652159691379 1.0321477688848961 11.114690642803906 0.63544991984963317 6.8449339605867854 2.3987951949238782 1.3225404117256396 1.8992785057052959 3.3970076246187091 0.44914535246789455 0.59968835301697243 7.4662116691470137 0.7566321040503684 2.5578633630648255 0.89860548265278328 2.5207051262259483 1.0314690917730334 1.0357620650902388 3.3732881136238575 2.0628563221544032 0.68334242329001416 0.75298622250556935 1.1535263061523435 1.5659781545400617 5.0121260359883308
leaf_count=1346 15 53 47 5 2 11 16 48 9 52 33 7 92 129 20 8 323 23 98 5 22 13 27 16 40 7 5 2 26 50
internal_value=0 0.0255234 -0.0407916 -0.0495408 -0.0199712 0.0120459 0.0212665 0.0430481 0.0326493 0.0246381 0.0132026 0.00153699 -0.00481297 -0.0153793 0.0197459 -0.0298171 -0.0342406 0.00179749 -0.00651697 -0.0254625 0.0211194 0.0224013 0.00292885 0.0392693 -0.00445486 -0.0203278 0.00803772 0.0232512 0.00591736 0.0130723
internal_weight=97.4228 59.9497 37.4732 26.1193 11.3539 34.1446 17.8792 25.805 14.6903 16.8471 10.0021 16.2654 12.3454 4.45099 1.05398 8.50777 7.90808 10.4462 7.16883 4.49223 3.27734 3.91999 1.93437 4.10415 5.89798 2.7462 3.15178 2.6766 2.59745 5.64758
internal_count=2550 670 1880 1500 380 510 180 160 112 164 112 330 284 154 25 333 325 192 147 130 45 46 32 27 85 47 38 17 39 59
is_linear=0
shrinkage=0.05


Tree=22
num_leaves=31
num_cat=0
split_feature=5 5 5 4 5 1 2 0 1 0 0 1 2 5 5 1 0 2 2 5 5 2 3 5 1 5 3 0 5 0
split_gain=37.6184 5.10529 2.47105 2.31067 1.21367 1.11511 1.11498 1.03957 1.03438 0.918767 0.871429 1.85027 0.858454 0.805296 0.715571 0.614826 1.042 0.4882 1.25947 0.595998 0.424785 0.419443 0.384989 0.335815 0.513864 0.334873 0.312779 0.918144 0.382602 0.284832
threshold=0.29894348978996282 0.41138142347335821 0.2788949459791184 1.5000000000000002 0.35636070370674139 0.038480091298750692 0.27256523960499945 4.3983498831946148 0.17959288911601481 2.647726267119122 6.4415769481362606 0.08118871759768341 0.041431902003036279 0.15347462147474292 0.24721334874629977 0.065604806099956725 4.5724162879976413 0.071499916261372351 0.041431902003036279 0.33477005362510687 0.33307245373725897 0.15799494031116601 0.085254126488236076 0.36087571084499365 0.054395668729930756 0.31574238836765295 0.048077973946342466 2.0283281843974796 0.29025956988334661 2.2775311505273392
decision_type=2 2 2 2 2 2 2 2 2 2 2 2 2 2 2 2 2 2 2 2 2 2 2 2 2 2 2 2 2 2
left_child=2 4 3 14 10 26 7 -3 9 23 11 17 -5 -14 -1 -11 -17 18 19 29 -19 -16 -9 -6 -25 -12 27 28 -4 -2
right_child=1 6 5 12 8 -7 -8 22 -10 15 25 -13 13 -15 21 16 -18 20 -20 -21 -22 -23 -24 24 -26 -27 -28 -29 -30 -31
leaf_value=-0.055818871235281543 0.02694639099268786 0.042588465260683307 0.031787645502580772 -0.039999292681484784 0.016873502323312816 -0.033477212131336531 0.055054775935823398 -0.018720419974739898 -0.025077116159246227 0.039513200939488263 0.047351716963123944 -0.043064086505430345 0.035368764476955951 -0.016616251769085332 -0.036015873529593609 0 0.037414757594399328 -0.0050385195424296862 -0.049568843149574875 -0.020446382873809996 0.031470825406330609 0.00019838863944425341 0.018163566281331464 -0.047526957499825079 0.015190195367353904 0.0051116853194249382 0.038502496916058684 -0.047037128211318807 -0.0086609604323240243 0.0013647724311310404
leaf_weight=21.375520569272346 2.4421617686748487 8.6784103848040122 1.4365459233522417 1.4386578826233734 0.51773867942393437 2.6441903300583363 10.730699624866245 0.61261472851037879 0.96561790816485782 6.9187618009746057 1.1686885058879846 2.3401375245302907 1.2240228131413462 1.4947898071259258 3.6873981789685777 4.3256894294172525 3.3339754603803158 0.81259823683649335 1.0795050584711132 1.3789130179211495 2.4294778648763895 0.67080665286630381 4.8668161295354366 0.78346698917448498 0.30247573181986809 1.2758331298828123 0.59994754195213307 0.64333196077495802 0.62841071188449849 2.7085282150655985
leaf_count=1401 14 53 9 69 6 105 48 9 16 46 7 105 15 44 185 65 30 24 59 35 22 16 50 13 4 16 3 26 7 48
internal_value=0 0.0249871 -0.0401617 -0.0460538 0.0117548 -0.00947519 0.0420999 0.031613 0.0209233 0.0241125 0.00131303 -0.00349444 -0.00968077 0.00543833 -0.0516764 0.0281402 0.016846 0.00489779 -0.00147488 0.0063498 0.020947 -0.0294409 0.0128821 -0.00906942 -0.026034 0.0283383 0.00866136 0 0.0173373 0.0147286
internal_weight=93.5157 57.6721 35.8436 29.8912 32.7836 5.95243 24.8885 14.1578 17.1477 16.1821 15.6358 13.1913 4.15747 2.71881 25.7337 14.5784 7.65966 10.8512 7.60911 6.5296 3.24208 4.3582 5.47943 1.60368 1.08594 2.44452 3.30824 2.70829 2.06496 5.15069
internal_count=2550 670 1880 1730 510 150 160 112 180 164 330 307 128 59 1602 141 95 202 156 97 46 201 59 23 17 23 45 42 16 62
is_linear=0
shrinkage=0.05


Tree=23
num_leaves=31
num_cat=0
split_feature=5 5 5 4 0 0 6 0 1 2 6 5 2 1 1 1 5 2 2 1 6 6 1 1 5 5 5 1 1 0
split_gain=34.7629 4.93803 2.29105 2.75671 1.79518 1.13158 1.10109 0.786595 1.03491 0.663299 0.734137 0.63443 0.540805 0.51478 0.437849 0.657709 0.55679 0.587603 0.608909 0.583566 0.339196 0.694098 0.312403 0.803001 0.301319 0.317135 0.528655 0.342618 1.43925 0.56479
threshold=0.29894348978996282 0.36766296625137335 0.24721334874629977 1.5000000000000002 8.2649343343853143 2.0283281843974796 -1.0000000180025095e-35 6.8048835141671757 0.066382519580874655 0.24983805758071506 -11.242861270904539 0.35636070370674139 0.041431902003036279 0.052198016307407537 0.035108142683711555 0.069502772379243877 0.41138142347335821 0.15566364248347994 0.11548821102673787 0.084160282358094904 -10.545860290527342 -11.298210144042967 0.08118871759768341 0.079457517830733973 0.36314980685710913 0.31365041434764868 0.30777782201766973 0.032882132677193372 0.044911803008322239 2.2106346330664519
decision_type=2 2 2 2 2 2 2 2 2 2 2 2 2 2 2 2 2 2 2 2 2 2 2 2 2 2 2 2 2 2
left_child=2 7 3 -1 6 20 14 8 24 10 -7 22 -5 -14 -3 -16 17 18 19 -17 21 -4 23 -10 25 26 -2 29 -29 -27
right_child=1 4 5 12 -6 9 -8 -9 11 -11 -12 -13 13 -15 15 16 -18 -19 -20 -21 -22 -23 -24 -25 -26 27 -28 28 -30 -31
leaf_value=-0.055422071611543458 0.0071341667364368134 0 0.020080726046041577 -0.033273152814157964 0.052088045111818186 0.021544296311239108 -0.0016025147326190177 0.030049350255486086 -0.036147653808434065 0.014940578433303424 -0.03745491184780881 0.003073047201097467 0.04516168162359846 -0.0043477037722315171 0.041917866204233573 0.017188261168334825 0.032275964224274652 -0.034039856561604569 0.036273907452115235 -0.034128642260965965 0.02244082374572514 -0.048072964910194527 -0.04039837400269225 0.034080819301970579 -0.026052680410390817 -0.0082088900469995726 -0.044080492741522155 -0.041623718958759819 0.021624876724724934 0.035421797335201358
leaf_weight=20.19940635422245 2.1264145551249434 1.0392139237374092 0.62290221638977528 1.0663566850125783 11.656498331576584 0.39615265280008305 2.6453393884003189 2.445097852498292 0.89558028988540106 0.5804432276636361 6.9010550687089562 2.1447085868567228 0.58013250492513213 1.7015077183023093 10.309742584824564 1.2632851768285025 5.7380992211401463 0.58509966544806946 1.7220687475055454 0.80943387746810902 1.5603293534368257 0.58379227109253429 2.3172095660120249 0.5513622909784317 0.41192970424890596 0.68751586973667 0.53079939959570754 1.0861938367597757 3.4186025899834931 3.2733976664021611
leaf_count=1401 30 14 7 52 58 2 38 21 34 8 323 33 7 40 56 15 51 13 18 17 17 23 107 5 8 11 22 37 54 28
internal_value=0 0.024363 -0.0396134 -0.0484603 0.0354627 -0.0193086 0.0270372 0.00407326 0 -0.0290021 -0.0333281 -0.0165659 -0.00461858 0.0075089 0.0307893 0.0323929 0.0218828 0.00673401 0.0150171 -0.00119907 0.00659347 -0.0102208 -0.0288395 -0.00568149 0.00898019 0.0109437 -0.00251063 0.0157305 0.00471585 0.0266017
internal_weight=89.8497 55.6576 34.1921 23.5474 35.7688 10.6447 24.1123 19.8888 17.4437 7.87765 7.29721 5.90886 3.348 2.28164 21.4669 20.4277 10.118 4.37989 3.79479 2.07272 2.76702 1.20669 3.76415 1.44694 11.5349 11.1229 2.65721 8.46571 4.5048 3.96091
internal_count=2550 670 1880 1500 280 380 222 390 369 333 325 179 99 47 184 170 114 63 50 32 47 30 146 39 190 182 52 130 91 39
is_linear=0
shrinkage=0.05


Tree=24
num_leaves=31
num_cat=0
split_feature=5 5 5 0 0 0 0 1 2 6 5 1 3 6 0 5 0 2 5 5 0 5 3 5 2 3 0 0 2 6
split_gain=31.9773 4.67733 2.15817 2.01808 1.73649 0.982528 0.688485 0.908136 0.614945 0.65414 0.594386 0.548239 0.576761 0.485562 1.077 0.466407 0.576775 0.62826 0.619465 0.603164 0.533757 0.651672 0.51949 0.450689 0.42336 0.337171 0.596096 0.988508 0.602539 0.557914
threshold=0.29894348978996282 0.36766296625137335 0.24721334874629977 5.0050239165975494 9.8553017247274806 2.0283281843974796 6.8048835141671757 0.066382519580874655 0.24983805758071506 -11.242861270904539 0.35487212240695959 0.049157210962045582 0.031260949114852055 -7.7899856567382804 2.7513813956446715 0.4575770795345307 2.7865379469487892 0.15940997996815173 0.43077918887138372 0.39360392093658453 3.9115917518479231 0.37791810929775244 0.083104905846160912 0.42378932237625128 0.11900444785246141 0.022952663207066511 2.2775311505273392 2.9444126052999029 0.07351720954305789 -6.0709357261657706
decision_type=2 2 2 2 2 2 2 2 2 2 2 2 2 2 2 2 2 2 2 2 2 2 2 2 2 2 2 2 2 2
left_child=2 6 3 -1 13 -4 7 25 9 -7 -9 12 -5 14 23 16 -15 19 -19 20 21 -18 -21 -3 -24 -2 -27 28 -28 -29
right_child=1 4 5 11 -6 8 -8 10 -10 -11 -12 -13 -14 15 -16 -17 17 18 -20 22 -22 -23 24 -25 -26 26 27 29 -30 -31
leaf_value=-0.055042571576841816 -0.0055978402105452633 -0.030169967919625097 0.0056101696796761989 0.049443812640293322 0.056168206279987989 0.019818777333476263 0.028293330265405064 -0.029381804425908084 0.014384926931991063 -0.036332631438701912 0.0013576993484664245 -0.024398158357130308 -0.018634999882725999 0.039713515329935299 0.047417956753370821 0.033607521569492919 -0.037137961719588573 -0.042755908342443014 0.01323322336130716 -0.024016705264838907 0.045883456230740818 0.024240972704693078 0 0.023070966843542175 0.044741856177381606 0.041354111859060703 -0.031467958724208045 0.028958302814003425 0.022926875420759458 -0.012684734095151818
leaf_weight=18.265737343579534 2.7344271456822815 0.61251464299857772 2.6492437776178104 0.51905765384435554 7.7772088423371306 0.38103047758340824 2.3567487820982924 3.3599237673915914 0.56783465482294548 6.667395815718919 2.3298165705054998 3.127586574293673 0.4129287963733077 2.0567465685308006 6.7720149271190166 6.9517315141856661 0.46208438463508894 0.93713283911347367 0.68732380867004395 1.2550289686769249 2.1365900263190269 1.4833536259829996 1.9060171768069269 0.79836328327655792 0.68704800307750691 1.5132202245295028 1.9449126678518953 3.6528719402849696 0.48975557414814819 0.77478040196001297
leaf_count=1346 57 11 47 5 27 2 21 141 8 323 38 129 20 15 47 61 11 17 9 18 13 13 25 7 6 6 57 45 6 19
internal_value=0 0.0237062 -0.038999 -0.0478742 0.0346924 -0.0189391 0.00357017 0 -0.0280884 -0.0323629 -0.016125 -0.0138709 0.0155527 0.0280754 0.0392479 0.0226985 0.0155091 0.00942357 -0.0167732 0.0155546 0.0287253 0.00611476 0 0 0.0138574 0.00826042 0.0133874 0.00599692 -0.0180805 0.0204478
internal_weight=86.2704 53.6796 32.5908 22.3253 34.5232 10.2655 19.1565 16.7997 7.61626 7.04843 5.68974 4.05957 0.931986 26.7459 8.18289 18.5631 11.6113 9.55458 1.62446 7.93012 4.08203 1.94544 3.84809 1.41088 2.59307 11.11 8.37554 6.86232 2.43467 4.42765
internal_count=2550 670 1880 1500 280 380 390 369 333 325 179 154 25 253 65 188 127 112 26 86 37 24 49 18 31 190 133 127 63 64
is_linear=0
shrinkage=0.05


Tree=25
num_leaves=31
num_cat=0
split_feature=5 5 5 4 1 1 3 0 0 1 5 6 0 1 1 5 5 3 0 5 6 6 6 0 6 5 6 1 5 6
split_gain=29.5436 4.43025 2.03915 2.57793 1.65305 0.866296 0.668308 0.927456 0.589038 0.781202 0.62218 0.569095 0.398644 0.429818 0.637726 0.552806 0.801657 0.393948 0.799057 0.881525 0.467181 0.43761 0.416242 0.386793 0.372123 0.360564 0.340812 0.336214 0.328805 0.316741
threshold=0.29894348978996282 0.36766296625137335 0.24721334874629977 1.5000000000000002 0.36610243815352511 0.038716968727258529 0.048077973946342466 2.0283281843974796 6.8048835141671757 0.087492051185772066 0.35487212240695959 -2.2697920799255367 5.2742468866526773 0.032882132677193372 0.041380202290548292 0.31365041434764868 0.30047252774238592 0.033798450614101888 3.3996884870579427 0.41453868150711065 -9.4405813217163068 -7.6682739257812491 -7.1076512336730948 2.2106346330664519 -6.3527870178222647 0.3591544926166535 -10.528565883636473 0.08118871759768341 0.31574238836765295 -1.0000000180025095e-35
decision_type=2 2 2 2 2 2 2 2 2 2 2 2 2 2 2 2 2 2 2 2 2 2 2 2 2 2 2 2 2 2
left_child=2 8 3 29 17 6 7 -4 9 12 -11 -7 13 15 -15 16 -2 -3 19 20 -19 -20 -22 -17 -23 -16 -25 -24 -10 -1
right_child=1 4 5 -5 -6 11 -8 -9 28 10 -12 -13 -14 14 25 23 -18 18 21 -21 22 24 27 26 -26 -27 -28 -29 -30 -31
leaf_value=-0.05521892023441665 0.02550707453002355 0.04027110232078588 0.0048705534006518759 -0.0042005363948025686 0.060675265864014463 -0.037178871308430936 0.037641322580342557 -0.044480983745699573 0.048459067118551503 -0.043022659332287716 0 0.013575471176584284 0.033290170795484415 -0.04266755791197932 0.0045141238851992135 -0.0047282719419189699 -0.050815772789194351 0.022568302852697061 0.052029486240269443 0.029311714021318054 -0.043125996799921323 -0.0054401386150047049 0.013221765031200218 -0.0010197787406746634 0.027392817221341272 -0.031451209250256809 0.037685395347906145 -0.039429852920948784 0.0051730166612168962 0.0016317244828712126
leaf_weight=17.9041986220982 0.48453119024634872 7.0712610296905067 2.5603403523564325 3.209871105849742 5.2414311692118636 4.947840518783778 0.74619239941239346 1.2833273126743732 0.94736918807029669 1.6142415818758302 1.2323374748229978 0.41508234944194544 1.0607464313507069 0.88075646571815003 6.0967764407396317 0.66104926168918643 0.61674707662314177 0.6046228110790256 2.3863115608692196 2.3068384267389774 1.0777828264981513 0.62602552771568554 0.96800103411078675 0.40315963793545995 12.56634120643138 0.68361616507172573 2.6359713263809681 0.3205491341650486 1.3339062295854089 0.069925025105478933
leaf_count=1400 3 44 46 99 17 249 8 70 5 89 21 7 15 36 133 11 18 8 18 25 22 11 10 9 116 15 19 9 16 1
internal_value=0 0.0231162 -0.0384227 -0.0473501 0.0340695 -0.0186419 -0.00143344 -0.0110492 0.00329255 0 -0.0234297 -0.0321587 0.0049624 0.00190749 -0.00496307 0.0137678 -0.0137457 0.0286991 0.0243636 0.00617285 -0.0105349 0.0301287 -0.0215925 0.0234185 0.0254294 0 0.0310892 0 0.0265287 -0.0547133
internal_weight=82.9572 51.8204 31.1368 21.184 33.1692 9.95278 4.58986 3.84367 18.6512 16.3699 2.84658 5.36292 13.5234 12.4626 7.66115 4.80146 1.10128 27.9277 20.8565 5.27779 2.97096 15.5787 2.36633 3.70018 13.1924 6.78039 3.03913 1.28855 2.28128 17.9741
internal_count=2550 670 1880 1500 280 380 124 116 390 369 110 256 259 244 184 60 21 263 219 74 49 145 41 39 127 148 28 19 21 1401
is_linear=0
shrinkage=0.05


Tree=26
num_leaves=31
num_cat=0
split_feature=5 5 0 2 5 2 1 0 0 5 6 6 6 0 6 6 5 6 5 6 2 2 3 3 6 3 5 5 2 6
split_gain=27.1004 5.59496 1.95109 1.67007 0.859067 0.578677 0.672001 0.502659 0.83957 0.978409 0.608617 0.912639 0.502498 0.917853 0.420848 0.448707 0.403207 0.399252 0.407796 0.405829 0.390992 0.502398 0.388411 0.375652 0.351866 0.906914 0.553019 0.453268 0.350897 0.342316
threshold=0.28497289121150976 0.36766296625137335 5.1054243844669918 0.3114472966441959 0.25127512216567999 0.042954987560770895 0.051647836800849799 5.2742468866526773 2.3602918490304075 0.33307245373725897 -8.705324172973631 -6.1621990203857413 -7.7899856567382804 2.7513813956446715 -8.8806829452514631 -1.0995689034461973 0.42378932237625128 -4.9122319221496573 0.36087571084499365 -5.451861858367919 0.041431902003036279 0.10555933526824156 0.055451083455246908 0.14643535124625548 -5.7068767547607413 0.060689128965745534 0.39905714988708502 0.41453868150711065 0.11900444785246141 1.0000000180025095e-35
decision_type=2 2 2 2 2 2 2 2 2 2 2 2 2 2 2 2 2 2 2 2 2 2 2 2 2 2 2 2 2 2
left_child=2 7 4 12 -1 -4 -7 8 -2 20 -11 -12 13 16 -9 17 -3 19 -19 -16 -10 -22 -8 -24 25 26 -14 -27 -23 -26
right_child=1 3 5 -5 -6 6 22 14 9 10 11 -13 24 -15 15 -17 -18 18 -20 -21 21 28 23 -25 29 27 -28 -29 -30 -31
leaf_value=-0.05396395285380598 0.013840475463728671 -0.029959273323715563 -0.038528131804948157 0.053363250741598284 -0.024831725197745822 0.048614403491344792 -0.038326679819955606 0.039937914032170028 -0.0075819370398031482 -0.018215755063680623 0.032006221861006316 -0.012185015305173271 0.046068304305475816 0.045968746543796103 -0.011863044784823118 0.033804289982692338 0.022334523525100569 -0.050538617209914885 0.011738512067965898 0.033436807542862296 -0.051824924293265739 0.020669485163052368 0.011117556191191764 -0.037514055002473776 0.029624847071131305 -0.043281456765065104 -0.0050501802611695543 0.0087692079828191032 -0.027409993557950724 0.0095396044791603869
leaf_weight=16.91719972551801 4.8623833083547714 0.5478580761700893 1.3113426957279433 8.3156796954572183 4.1134224561974397 0.484818305820227 0.76381918601691756 1.2040121257305143 2.6750062601640803 2.0900456253439188 2.6770990896038711 1.7398322303779421 1.2119658160954778 6.0356821194291115 0.88458848185837291 0.86865738220512811 0.75505534559488297 0.67072168178856362 0.18073061853647232 0.75729464180767536 2.0394944371655588 0.45705213351175167 1.828907650895417 0.3979147458449005 9.1026340294629318 0.95531400479376294 0.58983802795410145 0.42034757137298584 0.82690883753821254 4.0235370211303225
leaf_count=1390 54 11 71 40 206 5 32 12 69 53 31 44 8 46 18 9 7 19 2 8 126 8 44 22 79 23 8 5 47 53
internal_value=0 0.020174 -0.0420269 0.0334904 -0.048647 -0.0115182 0 0.000480909 -0.00318054 -0.0102526 0.00250837 0.0136079 0.0260946 0.0378751 0.0152493 0.00406526 0 -0.00527154 -0.0322201 0.00688047 -0.0247295 -0.0364461 -0.00981718 0 0.0202886 0.00330858 0.0273194 -0.0244721 -0.00642546 0.0239649
internal_weight=79.7092 53.8917 25.8174 31.9579 21.0306 4.7868 3.47546 21.9338 17.3678 12.5054 6.50698 4.41693 23.6422 7.3386 4.566 3.36199 1.30291 2.49334 0.851452 1.64188 5.99846 3.32346 2.99064 2.22682 16.3036 3.17747 1.8018 1.37566 1.28396 13.1262
internal_count=2550 780 1770 280 1596 174 103 500 432 378 128 75 240 64 68 56 18 47 21 26 250 181 98 66 176 44 16 28 55 132
is_linear=0
shrinkage=0.05


Tree=27
num_leaves=31
num_cat=0
split_feature=5 5 5 0 0 0 0 1 2 5 2 1 3 6 0 5 0 0 1 5 0 3 3 2 6 5 6 6 3 3
split_gain=25.0612 4.03583 1.77563 1.92756 1.59656 0.701352 0.551139 0.622099 0.546197 0.537423 0.504372 0.406249 0.482416 0.381832 0.780785 0.372353 0.492264 0.438364 0.574608 0.361276 0.32461 0.346701 0.738388 0.510604 0.498318 0.703315 0.641187 0.306772 0.304533 0.769395
threshold=0.29894348978996282 0.36766296625137335 0.24721334874629977 5.0050239165975494 9.8553017247274806 2.0283281843974796 6.8048835141671757 0.087492051185772066 0.15799494031116601 0.35487212240695959 0.045714890103232451 0.049157210962045582 0.031260949114852055 -7.7899856567382804 2.7513813956446715 0.4575770795345307 2.7865379469487892 6.0196068545312817 0.17393000653402924 0.42378932237625128 5.2742468866526773 0.037123850749752829 0.035344916524466335 0.085016490557855054 -10.988516807556151 0.30047252774238592 -6.5654053688049308 1.0000000180025095e-35 0.048077973946342466 0.051991952101775728
decision_type=2 2 2 2 2 2 2 2 2 2 2 2 2 2 2 2 2 2 2 2 2 2 2 2 2 2 2 2 2 2
left_child=2 6 3 27 13 -4 7 20 10 -9 28 12 -5 14 19 16 -15 -18 -19 -3 21 22 23 24 -2 -26 -27 -1 -7 -30
right_child=1 4 5 11 -6 8 -8 9 -10 -11 -12 -13 -14 15 -16 -17 17 18 -20 -21 -22 -23 -24 -25 25 26 -28 -29 29 -31
leaf_value=-0.054649091261253349 0.018481364467437398 -0.027346875385943221 0.0029816882811015948 0.046707576955939183 0.054650009486039375 -0.037718235844779825 0.02584213257310157 -0.041273397982705615 0.0035927888532054399 0 -0.047293714433800864 -0.021418213744999054 -0.017320823447887431 0.038080213970804272 0.044683448574841189 0.031221950192104032 -1.3338945988356585e-05 0.035856395915448001 -0.0037134409270789745 0.022707336438446135 0.030494312577684746 -0.0079246442044160117 0.038284686239921567 0.020443513867124546 0.022200341699140657 -0.054419523584714913 0.0026906033382856948 0.001057440274087496 0.039725621903228349 -0.022783821750497549
leaf_weight=15.246623141458262 0.7072632499039172 0.5307074449956477 2.4569013705477101 0.47129322215914671 6.8934161216020575 0.84418356092646751 2.0960415862500659 1.5069319228641682 0.98133357288315881 1.1607137918472288 2.9518536180257797 2.9186747521162033 0.38367542531341314 1.7883985973894621 5.7699775099754333 6.4050947576761237 5.2593888994306308 2.3165948782116179 1.1114605776965616 0.7368776723742485 0.94607452675700265 5.406602312810719 1.5200573094189165 1.7021400481462476 0.44172507524490434 1.4477042998187242 0.47404850274324406 0.068948268890381637 0.6190722165629271 1.420397608540952
leaf_count=1345 6 11 47 5 27 45 21 89 27 21 192 129 20 15 47 61 78 18 16 7 15 132 10 23 3 61 9 1 5 64
internal_value=0 0.0219233 -0.0372189 -0.0461118 0.0327812 -0.0180838 0.00234346 -0.000695383 -0.0263323 -0.0224415 -0.0321828 -0.0119651 0.0139335 0.026069 0.0369939 0.021029 0.0140878 0.00820264 0.0218681 0 0.00363983 0.00080449 0.00909292 0 -0.0128471 -0.0246214 -0.0384225 -0.0540687 -0.0139721 -0.000502403
internal_weight=76.5842 48.2212 28.363 19.0892 30.8119 9.27374 17.4093 15.3133 6.81684 2.66765 5.83551 3.77364 0.854969 23.9185 7.03756 16.8809 10.4758 8.68744 3.42806 1.26759 12.6456 11.6995 6.29294 4.77288 3.07074 2.36348 1.92175 15.3156 2.88365 2.03947
internal_count=2550 670 1880 1500 280 380 390 369 333 110 306 154 25 253 65 188 127 112 34 18 259 244 112 102 79 73 70 1346 114 69
is_linear=0
shrinkage=0.05


Tree=28
num_leaves=31
num_cat=0
split_feature=5 5 5 0 0 2 0 5 1 0 1 3 6 1 0 3 2 0 3 3 6 0 6 0 6 5 3 5 2 1
split_gain=23.2249 3.76256 1.84185 1.86457 1.09487 1.02577 0.928228 0.829769 0.622696 0.753688 0.541583 0.507805 0.450622 0.441427 0.439123 0.42919 0.428198 0.76726 0.691314 0.66876 0.414061 0.40218 0.380882 0.480401 0.37164 0.361865 0.349953 0.344394 0.329521 0.448813
threshold=0.301999181509018 0.41138142347335821 0.2788949459791184 5.1054243844669918 2.0283281843974796 0.27256523960499945 4.3983498831946148 0.35636070370674139 0.17959288911601481 3.100977987988879 0.26861280306907753 0.058137446329838541 -8.097620487213133 0.087492051185772066 4.9929016372899513 0.132833170541718 0.071499916261372351 2.2775311505273392 0.058137446329838541 0.035538946623700732 -9.3903698921203596 6.2290144155058211 -7.8141505718231192 5.4601352646536876 -11.19525623321533 0.25127512216567999 0.081524786520171283 0.33307245373725897 0.042954987560770895 0.051647836800849799
decision_type=2 2 2 2 2 2 2 2 2 2 2 2 2 2 2 2 2 2 2 2 2 2 2 2 2 2 2 2 2 2
left_child=2 7 3 25 -4 6 -3 10 9 11 13 12 20 14 16 28 17 19 -19 -2 -9 -15 -11 -24 -6 -1 -8 -18 -5 -30
right_child=1 5 4 15 24 -7 26 8 -10 22 -12 -13 -14 21 -16 -17 27 18 -20 -21 -22 -23 23 -25 -26 -27 -28 -29 29 -31
leaf_value=-0.053286272980770349 -0.013572402501155663 0.038719025292281599 0.017135056361332002 -0.028425870117272739 0.013109887015998313 0.051768154077176547 -0.025996393184934959 0.0056329944100795542 -0.020211350595125521 0.04367847124026307 0.044366901345492954 -0.037783434528409834 0.031333760167833284 -0.038713008756543987 0.031137144626367876 -0.044845528503950745 -0.012675098633026941 -0.047692494574070619 -0.00033783717006786264 0.042925210785213691 -0.04597479590102601 0 0.0043185221689599962 0.034962376401188711 -0.032431563516780691 -0.027827025158076057 0.013629843394000175 0.024355841731811989 0.046313430138408385 -0.002611079264235967
leaf_weight=15.012610311387116 0.8308531790971736 6.8719143867492694 2.1603265516459933 0.85560460248961989 0.29613936692476306 8.6761320605874044 0.47565874829888333 1.4867755323648455 0.82791199535131532 3.0429866276681405 0.52628324925899583 0.58467829041182984 1.3098798990249607 1.3734712321311247 1.0254835337400434 0.69093101704493154 0.6292038103565577 1.6153874290175738 1.8031198396347461 0.90856620669364929 0.38219566829502594 1.2472332362085579 3.412273121997714 2.5341741107404232 3.1147571443580091 2.9403913496062151 4.1906827352941036 1.9757057037204502 0.44774104654789004 2.3110019890591502
leaf_count=1390 12 53 20 48 2 48 8 24 16 28 3 12 14 84 17 43 25 82 43 2 9 19 54 23 148 172 51 23 5 72
internal_value=0 0.0219023 -0.0359404 -0.042421 -0.00887559 0.0380413 0.0269338 0.00882294 0.0172407 0.0201994 -0.000403644 1.9876e-05 0.00943815 -0.00327084 0.00163834 -0.0110234 -0.00196904 -0.0108018 -0.0248554 0.0139495 -0.00418013 -0.0210263 0.0280046 0.0185671 -0.0267927 -0.0495707 0.00808089 0.0134248 -0.00217843 0.0049226
internal_weight=73.5601 45.7306 27.8295 22.2583 5.57122 20.2144 11.5383 25.5162 13.5809 12.753 11.9353 3.76353 3.17885 11.409 8.78832 4.30528 7.76284 5.15793 3.41851 1.73942 1.86897 2.6207 8.98943 5.94645 3.4109 17.953 4.66634 2.60491 3.61435 2.75874
internal_count=2550 650 1900 1730 170 160 112 490 180 164 310 59 47 307 204 168 187 139 125 14 33 103 105 77 150 1562 59 48 125 77
is_linear=0
shrinkage=0.05


Tree=29
num_leaves=31
num_cat=0
split_feature=5 5 5 4 0 0 2 1 1 0 5 5 2 2 3 0 5 5 3 0 5 1 0 2 5 2 0 2 3 1
split_gain=21.4631 3.49691 1.70674 2.03462 1.50002 0.862892 0.796995 0.624264 0.422867 0.410979 0.454989 0.391268 0.330116 0.717828 0.321378 0.65385 0.448571 0.482441 0.335222 0.380676 0.467992 0.453206 0.344349 0.442185 0.296549 0.294009 0.244106 0.242414 0.19935 0.298821
threshold=0.301999181509018 0.36766296625137335 0.22956328094005587 1.5000000000000002 8.2649343343853143 2.0283281843974796 0.15799494031116601 0.077629858868269994 0.26861280306907753 2.647726267119122 0.41453868150711065 0.2788949459791184 0.11988143706806541 0.041431902003036279 0.022952663207066511 2.2775311505273392 0.32796214520931249 0.33643606305122381 0.037123850749752829 4.0200879979642821 0.34010103344917303 0.203659562536956 2.9444126052999029 0.10204030456916664 0.30777782201766973 0.044582914968920757 8.7490858570009884 0.2927111069402934 0.19776130037555198 0.11826671044474481
