tree
version=v4
num_class=1
num_tree_per_iteration=1
label_index=0
max_feature_idx=5
objective=lambdarank
feature_names=bm25_score tfidf_sim q_title_sim q_abstract_sim keyword_overlap bert_sim
feature_infos=[0:18.190093146238162] [0:0.62942872693531282] [0:0.68637302752805796] [0:0.58218845941713759] [0:3] [-0.13205063343048096:0.74212658405303955]
tree_sizes=2119 3429 3423 3410 3405 3413 3411 3409 3415 3413 3406 3408 3418 3412 3416 3427 3425 3438 3436 3422 3432 3427 3448 3438 3446 3439 3454 3436 3467 3448 3473 3472 3473 3463 3473 3468 3467 3467 3463 3472 3461 3475 3479 3489 3481 3481 3483 3489 3482 3490 3484 3487 3497 3485 3513 3515 3501 3519 3507 3512 3527 3524 3494 3520 3529 3522 3529 3538 3542 3541 3537 3529 3548 3531 3525 3534 3550 3538 3536 3530 3536 3544 3551 3532 3541 3533 3551 3552 3557 3544 3574 3565 3564 3556 3576 3568 3571 3571 3574 3569

Tree=0
num_leaves=19
num_cat=0
split_feature=5 5 5 0 4 0 0 0 2 1 5 3 0 5 2 5 3 2
split_gain=111.928 9.72994 7.27719 3.957 3.76 3.23806 1.97882 2.42291 3.24599 1.75278 1.3349 0.390533 0.331951 0.864377 0.300057 0.0462166 0.00236426 0.00101388
threshold=0.36789838969707495 0.32942944765090948 0.53349968791008007 8.5003972457852317 1.5000000000000002 12.160713175455655 10.907570955051742 10.386255750417449 0.23411184461434703 0.15837276433371703 0.39875131845474249 0.14804506292844546 11.171760606058308 0.55166250467300426 0.069746193350891827 0.46085172891616827 0.21409153223242394 0.29677845078977577
decision_type=2 2 2 2 2 2 2 2 2 2 2 2 2 2 2 2 2 2
left_child=1 16 4 14 10 6 7 8 9 -6 -2 -10 13 -4 -3 -12 17 -1
right_child=2 3 12 -5 5 -7 -8 -9 11 -11 15 -13 -14 -15 -16 -17 -18 -19
leaf_value=-0.099999999999999936 0.042565254213095184 -0.053922555463825877 0.045051551052183281 0.016360014084484981 -0.014061653628781158 0.07626284735706608 -0.043668208335027624 0.063876694393991407 -0.038632396394022113 0.062741467524733849 0.078250129774997193 -0.090385584028976784 0.10000000000000001 0.099999999999999964 -0.09189955711184386 0.087307337433896154 -0.097105272262226927 -0.098549401499751332
leaf_weight=16.110231773229327 3.2583026103675401 0.99552170559763853 1.0971722961403423 2.9293754752725363 1.3126053810119613 2.2951923646032819 1.4618377471342681 2.1766006825491786 0.85177560523152329 1.7114675045013426 2.8211521413177252 0.63722539134323597 8.1353429807350022 2.0584821472875774 1.0891613828716797 2.8127571418881416 0.79617378860711951 1.3019162155687798
leaf_count=393 30 24 18 26 34 13 25 23 32 19 21 23 33 36 34 20 19 26
internal_value=-1.1939e-09 -0.082786 0.0627651 -0.0211106 0.044143 0.0238024 0.00903129 0.0205473 -0.000349992 0.0294049 0.0680394 -0.0607804 0.0946605 0.0808953 -0.073764 0.082772 -0.0997697 -0.0998915
internal_weight=53.8523 23.2224 30.6299 5.01406 19.3389 10.4467 8.15151 6.68967 4.51307 3.02407 8.89221 1.489 11.291 3.15565 2.08468 5.63391 18.2083 17.4121
internal_count=849 522 327 84 240 169 156 131 108 53 71 55 87 54 58 41 438 419
is_linear=0
shrinkage=0.05


Tree=1
num_leaves=31
num_cat=0
split_feature=5 5 0 2 5 3 1 0 5 3 3 2 1 5 5 3 2 3 0 0 1 0 0 0 3 0 3 5 3 2
split_gain=168.69 36.7651 8.56733 8.90869 6.65913 11.3184 5.95562 5.33106 5.03817 4.75062 10.2577 3.07125 3.52773 2.60025 2.34872 0.883527 0.152768 0.00456238 0.00334274 0.00321305 0.000504278 0.000938252 0.00228594 0.00102655 0.00068212 0.000502904 0.000487999 0.000388517 0.000382107 0.000159334
threshold=0.34013062715530401 0.53349968791008007 8.7905239116502205 0.42066407000802525 0.42001642286777502 0.078238318695905681 0.14764793335469453 5.9781742353651692 0.50424727797508251 0.055767372308863382 0.093181829579182432 0.30116065421853155 0.22357661104994739 0.32942944765090948 0.55166250467300426 0.21705631501208886 0.29677845078977577 0.27281074248411957 11.844568587191846 1.0000000180025095e-35 0.092419356403713751 4.391242141914355 3.512312200356305 4.9640842348715495 0.082486569445538296 6.0392294214086881 0.05048109457800716 0.16552164405584338 0.1595678626288618 0.2116099996863875
decision_type=2 2 2 2 2 2 2 2 2 2 2 2 2 2 2 2 2 2 2 2 2 2 2 2 2 2 2 2 2 2
left_child=13 2 4 8 5 -2 -7 -6 9 -4 -11 12 -12 15 -3 16 19 18 -16 -1 24 22 -22 -23 26 -26 -21 -25 29 -29
right_child=1 14 3 -5 7 6 -8 -9 -10 10 11 -13 -14 -15 17 -17 -18 -19 -20 20 21 23 -24 27 25 -27 -28 28 -30 -31
leaf_value=-0.094487661627674663 -0.050839912663962095 0.061088876231694504 -0.083813088881488251 0.041223757820778306 0.085118039827737024 0.052430538380736275 -0.011014271357479033 0.030405454605017087 0.033475184785157285 0.044757639886317598 -0.071614449614859299 -0.087993604835273381 -0.0022521741722319826 -0.040997174093365542 0.094592540742112666 -0.052526266467626252 -0.079602276169413205 0.095304767161346921 0.092911333549691194 -0.093021655358159497 -0.092131576772934889 -0.091351185613166963 -0.094425257422306494 -0.091837550307911589 -0.093837501950610566 -0.092724583600148819 -0.092181461937188347 -0.09287710251028751 -0.091789466731808697 -0.092424395676658791
leaf_weight=2.2319829910993567 5.2555952407419708 7.3006759285926845 3.3953757025301554 8.1736006475985032 7.8585788905620602 12.020370909944178 5.3430995531380168 10.271546117961405 3.7102890089154235 4.5240820422768584 2.9432487655431014 2.9925584197044373 4.8600396923720837 2.896337527781724 5.7998131196945923 1.4942979477345932 2.4040311016142359 7.6112112924456587 6.0313243567943573 2.7812848091125506 2.9041391424834755 3.0143788345158091 1.7353775501251218 2.5473137088119975 2.1278117746114731 1.9410616829991338 4.5644993409514427 4.2984603270888311 1.4521497972309587 3.5478553660213947
leaf_count=21 28 24 19 31 11 39 27 38 21 16 21 21 28 24 28 18 26 23 12 31 40 38 18 33 22 25 58 53 20 35
internal_value=4.85492e-10 0.0352711 0.0165304 -0.00346386 0.0315444 0.0134484 0.0329073 0.0541209 -0.0197514 -0.0303036 -0.0184442 -0.0449294 -0.0284143 -0.0866225 0.0852698 -0.0901898 -0.0917729 0.0943498 0.0937355 -0.0926556 -0.0925233 -0.0923688 -0.0929895 -0.092175 -0.0927872 -0.0933066 -0.0924996 -0.0923846 -0.0925345 -0.0926724
internal_weight=138.032 98.0914 71.3484 30.5992 40.7492 22.6191 17.3635 18.1301 22.4256 18.7153 15.3199 10.7958 7.80329 39.941 26.743 37.0446 35.5503 19.4423 11.8311 33.1463 30.9143 19.4997 4.63952 14.8602 11.4147 4.06887 7.34578 11.8458 9.29847 7.84632
internal_count=849 387 300 157 143 94 66 49 126 105 86 70 49 462 87 438 420 63 40 394 373 237 58 179 136 47 89 141 108 88
is_linear=0
shrinkage=0.05


Tree=2
num_leaves=31
num_cat=0
split_feature=5 5 0 5 1 3 1 2 5 0 0 3 3 5 3 2 0 2 4 0 0 2 0 3 3 0 0 2 2 3
split_gain=146.522 19.7978 12.0609 9.88438 7.38947 3.71177 3.77303 4.78057 5.20715 3.18936 2.82891 2.20277 2.04552 1.30462 0.138085 0.0638592 0.0105945 0.00487388 0.00436391 0.000994278 0.00258825 0.00169396 0.00150822 0.00107098 0.000957753 0.00120175 0.000931074 0.00088538 0.000685139 0.000198656
threshold=0.36789838969707495 0.53349968791008007 4.6924692675349222 0.32942944765090948 0.078770360075272591 0.22591262943850612 0.27351650461526389 0.20850082201644951 0.42926834523677831 9.272883127700462 10.437182078622197 0.11354273606585683 0.28124890273856679 0.55166250467300426 0.20791378543208153 0.29677845078977577 12.32971219074056 0.37014968888824645 1.0000000180025095e-35 4.9726965309133275 4.391242141914355 0.097373118291289196 3.512312200356305 0.080271404701274737 0.14180779616914521 5.5602246882080602 7.7834206325279203 0.07875221966170988 0.18625895829979247 0.084010650127072359
decision_type=2 2 2 2 2 2 2 2 2 2 2 2 2 2 2 2 2 2 2 2 2 2 2 2 2 2 2 2 2 2
left_child=3 2 -2 14 -5 6 7 8 -4 -9 -11 -6 -7 -3 15 18 17 -15 -1 20 21 23 -23 -20 25 -21 28 -22 29 -27
right_child=1 13 5 4 11 12 -8 9 -10 10 -12 -13 -14 16 -16 -17 -18 -19 19 24 27 22 -24 -25 -26 26 -28 -29 -30 -31
leaf_value=-0.08931306689581886 0.070995783674240739 0.063641445424098705 -0.0013597046747962317 0.025052288339410742 -0.090366311140689395 -0.050532702254283739 0.052880318931521765 -0.046261219878511957 0.055255277214834614 0.033990775173221972 -0.024586764068625994 -0.034303061425394528 0.005197872147546443 0.091135209010364274 -0.070993035766416746 -0.078215230661661694 0.086944753529748592 0.088824758243479712 -0.085608173593244366 -0.088210272004716248 -0.086458107264518247 -0.086734482711386229 -0.088833729423639443 -0.087312459297994985 -0.086154256935576365 -0.086760875101820165 -0.087735304368134481 -0.084928286073675599 -0.086188999439484298 -0.087397548420963173
leaf_weight=1.9333053752779985 11.273784495890139 7.842922646552327 7.5265204906463685 3.8300120644271356 3.3787531331181526 3.1789207495748988 6.7323604412376872 4.377086278051137 8.821744926273821 4.3937754929065687 3.8822050131857395 3.6392254233360291 3.4154765233397484 3.594875078648327 1.5218199118971814 2.2142916917800894 5.6026040241122237 6.2526713153347373 2.1709180884063266 2.6756376102566746 1.4909928310662506 1.5879700444638731 1.8552199080586431 1.6020418964326379 2.2937463112175456 2.1768450830131751 3.3719061613082877 2.5863966383039951 3.2855808883905411 2.8026177808642387
leaf_count=21 20 24 35 22 30 24 24 35 34 30 17 32 21 16 20 26 13 34 30 32 21 22 22 21 34 32 35 38 46 38
internal_value=3.97288e-11 0.0417635 0.025039 -0.0723007 -0.0308086 0.0127987 0.0191593 0.0113313 0.0291905 -0.0117436 0.00651246 -0.0612943 -0.0216678 0.0802498 -0.0857089 -0.0864077 0.0886806 0.0896682 -0.0870158 -0.0868566 -0.0864947 -0.0870637 -0.0878656 -0.0863318 -0.0871028 -0.0872548 -0.0870351 -0.0854877 -0.0867494 -0.0871192
internal_weight=121.312 76.8949 53.6019 44.4173 10.848 42.3281 35.7337 29.0013 16.3483 12.6531 8.27598 7.01798 6.5944 23.2931 33.5693 32.0475 15.4502 9.84755 29.8332 27.8999 11.2935 7.21615 3.44319 3.77296 16.6063 14.3126 11.6369 4.07739 8.26504 4.97946
internal_count=849 327 240 522 84 220 175 151 69 82 47 62 45 87 438 418 63 50 392 371 154 95 44 51 217 183 151 59 116 70
is_linear=0
shrinkage=0.05


Tree=3
num_leaves=31
num_cat=0
split_feature=5 5 5 4 5 0 0 2 2 3 5 0 5 0 1 2 3 2 0 0 4 0 1 0 0 0 0 5 5 3
split_gain=126.205 13.4097 7.29866 6.6597 4.78372 3.58874 2.73964 3.88624 4.27389 2.70519 2.63818 2.50609 1.65575 1.54226 0.657223 0.587887 0.157012 0.047942 0.0230393 0.012258 0.00630812 0.00164046 0.00115153 0.00236221 0.0045144 0.00242692 0.00204086 0.00131227 0.000668477 0.000576135
threshold=0.36789838969707495 0.53349968791008007 0.32942944765090948 1.5000000000000002 0.43372768163681036 8.5003972457852317 12.160713175455655 0.15702086842217503 0.43251493516278805 0.10494369100370472 0.42001642286777502 10.809860495049227 0.55166250467300426 3.3237127822173229 0.22357661104994739 0.069746193350891827 0.21705631501208886 0.29677845078977577 11.532678609969393 9.5505454786127721 1.0000000180025095e-35 7.7834206325279203 0.084757253221329085 4.391242141914355 3.512312200356305 4.9640842348715495 5.0295435556006236 0.19631558656692508 0.16552164405584338 0.13081024959938167
decision_type=2 2 2 2 2 2 2 2 2 2 2 2 2 2 2 2 2 2 2 2 2 2 2 2 2 2 2 2 2 2
left_child=2 3 16 10 9 15 7 -6 11 -5 13 14 -3 -2 -9 -4 17 20 19 -14 -1 22 26 24 -24 -25 -22 -28 -27 -30
right_child=1 12 5 4 6 -7 -8 8 -10 -11 -12 -13 18 -15 -16 -17 -18 -19 -20 -21 21 -23 23 25 -26 28 27 -29 29 -31
leaf_value=-0.085342948419434003 0.053625741471129154 0.054959188893496824 -0.044718159189182705 0.0060112190761800683 0.045541739477096346 -0.00039718507713183996 0.064904204630350557 -0.032024544400917974 0.038687930954091128 -0.058861256943721185 0.062896389063209004 0.011388691106152968 0.084083454574313765 0.016417529949651549 -0.072010321414526929 -0.078138545162193693 -0.06428067783486642 -0.074570112583145651 0.081935542136371151 0.08799708452865064 -0.081626772073545101 -0.083145116707714475 -0.081585212715831523 -0.080026481158687934 -0.084744677772148821 -0.081057037160492229 -0.082303402000763123 -0.084153006151260812 -0.082403638736012766 -0.081246213618226079
leaf_weight=1.7164031267166233 4.2874158918857592 7.3499308377504375 2.8083582669496518 3.0210622027516392 5.8023616448044804 4.7225005924701691 3.0341062843799582 1.9217324033379535 3.4855132326483727 3.4332793354988098 11.388178221881388 2.3363367691636086 3.9414467867463809 7.9472306221723557 2.2087806798517704 2.4760009124875069 1.3264796100556839 2.098439283668994 5.8183107674121848 4.0635643573477864 3.1410879679024282 4.0081833116710177 3.2148894928395739 2.5396730601787549 1.7439040318131445 2.1313101947307587 1.7111711986362936 2.1815703622996807 4.084247175604105 1.4593430608510969
leaf_count=21 11 24 24 19 23 26 10 22 19 27 27 16 13 33 33 34 18 26 20 30 47 48 48 40 22 32 24 30 60 22
internal_value=-5.41725e-10 0.0408976 -0.0692502 0.0264964 0.00864022 -0.0320711 0.0213975 0.0130188 -0.00594256 -0.0284966 0.0455773 -0.0299976 0.0741343 0.0294565 -0.0534068 -0.0603774 -0.0811152 -0.0818588 0.0843299 0.0860701 -0.0824064 -0.0822141 -0.0820461 -0.0818009 -0.0826963 -0.0813663 -0.0825749 -0.08334 -0.0818096 -0.0820989
internal_weight=111.403 70.0393 41.3636 48.866 25.2432 10.0069 18.7888 15.7547 9.95236 6.45434 23.6228 6.46685 21.1733 12.2346 4.13051 5.28436 31.3567 30.0302 13.8233 8.00501 27.9318 26.2154 22.2072 15.1734 4.95879 10.2146 7.03383 3.89274 7.6749 5.54359
internal_count=849 327 522 240 169 84 123 113 90 46 71 71 87 44 55 58 438 420 63 43 394 373 325 224 70 154 101 54 114 82
is_linear=0
shrinkage=0.05


Tree=4
num_leaves=31
num_cat=0
split_feature=5 5 5 0 1 0 4 5 2 0 0 5 0 3 3 3 2 0 2 4 0 0 5 5 3 0 0 2 2 2
split_gain=106.521 11.302 6.75242 5.14646 3.51391 3.02443 4.0519 3.65125 2.6419 4.79471 1.69402 1.46568 1.43069 1.37752 0.844193 0.15548 0.0484846 0.0282229 0.0152771 0.00853576 0.00213964 0.00413391 0.00590893 0.0022289 0.00229314 0.00168761 0.00154205 0.00146915 0.00136506 0.00102616
threshold=0.36789838969707495 0.53349968791008007 0.32942944765090948 4.6924692675349222 0.078770360075272591 7.3097462057205327 1.5000000000000002 0.43372768163681036 0.18220149149732479 10.386255750417449 6.4152037152053509 0.55166250467300426 10.907570955051742 0.11354273606585683 0.099550601025812355 0.21409153223242394 0.29677845078977577 12.736923395107164 0.37014968888824645 1.0000000180025095e-35 4.9726965309133275 4.391242141914355 0.16927693784236911 0.16552164405584338 0.14056108967921258 5.5602246882080602 7.7834206325279203 0.097373118291289196 0.18826141756388429 0.17810695498991017
decision_type=2 2 2 2 2 2 2 2 2 2 2 2 2 2 2 2 2 2 2 2 2 2 2 2 2 2 2 2 2 2
left_child=2 3 15 -2 -4 10 -7 -8 -9 14 -5 -3 -11 -6 -10 16 19 18 -13 -1 21 22 -21 29 25 -25 28 -23 -27 -22
right_child=1 11 4 5 13 6 7 8 9 12 -12 17 -14 -15 -16 -17 -18 -19 -20 20 23 27 -24 24 -26 26 -28 -29 -30 -31
leaf_value=-0.082251014324429716 0.056471066061986319 0.052382407534468059 0.010310423659892222 0.0076780397773945006 -0.080118822282688323 0.05322776741126925 -0.025303603865330968 0.057371906433912781 -0.016722692949933362 0.05296812735728982 -0.040942562497999879 0.084751407622460875 0.009693575755108182 -0.031193921465257346 -0.069830140600036589 -0.060757661257084122 -0.070557573456725614 0.077347336530018809 0.08052647240787815 -0.081537778825847076 -0.078430350569720905 -0.077800245165194265 -0.077890721413892125 -0.080870060605656213 -0.077678016903975952 -0.0793090544031404 -0.080212270319246076 -0.075748267721111609 -0.077559096287287355 -0.076585026074205198
leaf_weight=1.6597911566495991 10.273203074932097 7.0610301364213255 3.5703653469681722 4.4062742814421645 2.5624272264540195 8.2570382654666918 5.0211086645722416 4.2414781376719466 1.5159578397870048 3.8884939588606358 3.0189410373568535 3.9196148756891471 3.7536573596298695 3.2808135561645031 1.4776966869831083 1.3357582800090302 1.9242870844900597 3.9611000120639792 4.7116445754654706 1.456400372087957 2.1347199194133277 1.5129287429153921 4.6777756921947002 1.980660792440174 1.9225385822355736 3.2700695022940636 2.6197503469884396 2.0600108578801155 1.6904749497771261 1.1642483510076997
leaf_count=21 20 24 22 21 30 27 39 18 22 15 21 16 28 32 29 19 26 11 36 20 32 25 75 26 31 52 30 34 27 20
internal_value=1.15377e-10 0.0388939 -0.0656269 0.0252972 -0.0287699 0.0162964 0.0237825 0.0115639 0.0240068 0.010701 -0.0120901 0.0706168 0.0317126 -0.0526489 -0.042937 -0.0774244 -0.0782174 0.0808415 0.0824451 -0.0787811 -0.0785459 -0.0779691 -0.0787566 -0.0789246 -0.0792537 -0.0795705 -0.0792309 -0.0766172 -0.0787127 -0.0777791
internal_weight=104.33 65.5072 38.823 45.8538 9.41361 35.5806 28.1554 19.8984 14.8773 10.6358 7.42522 19.6534 7.64215 5.84324 2.99365 29.4094 28.0737 12.5924 8.63126 26.1494 24.4896 9.70712 6.13418 14.7825 11.4835 9.56096 7.58029 3.57294 4.96054 3.29897
internal_count=849 327 522 240 84 220 178 151 112 94 42 87 43 62 51 438 419 63 52 393 372 154 95 218 166 135 109 59 79 52
is_linear=0
shrinkage=0.05


Tree=5
num_leaves=31
num_cat=0
split_feature=5 5 5 5 0 0 1 2 2 1 0 5 3 5 1 2 3 1 4 0 0 0 0 1 1 5 2 5 3 2
split_gain=90.881 10.0248 5.95611 3.35423 7.19904 3.90599 3.00886 2.48218 5.99287 3.37143 2.81948 2.46805 1.65486 1.55137 0.47247 0.230766 0.154334 0.0410839 0.00497828 0.00468778 0.00203017 0.00467994 0.00435861 0.00287874 0.00241871 0.00208843 0.00122569 0.00117193 0.000473179 0.000697017
threshold=0.36789838969707495 0.54658967256546032 0.32942944765090948 0.39875131845474249 5.4661836347625252 11.323533353462437 0.073558526652978268 0.2568231015342623 0.40524971451881503 0.091788133191901072 10.809860495049227 0.37511307001113897 0.11354273606585683 0.45293310284614569 0.22062351947616093 0.4380514575077098 0.21409153223242394 0.19987705897044292 1.0000000180025095e-35 8.1446690339778645 3.3237127822173229 4.391242141914355 4.9726965309133275 0.091788133191901072 0.089551796667622308 0.19631558656692508 0.097373118291289196 0.1583318114280701 0.1254310275728143 0.18826141756388429
decision_type=2 2 2 2 2 2 2 2 2 2 2 2 2 2 2 2 2 2 2 2 2 2 2 2 2 2 2 2 2 2
left_child=2 3 16 11 -5 7 -4 9 10 -6 14 -2 -8 -11 -9 -3 17 18 -1 20 -20 23 26 -22 25 -24 -23 -26 29 -29
right_child=1 15 6 4 5 -7 12 8 -10 13 -12 -13 -14 -15 -16 -17 -18 -19 19 -21 21 22 24 -25 27 -27 -28 28 -30 -31
leaf_value=-0.078462110345447034 0.025996547371584723 0.07962508276804911 0.01384704137393454 0.074317001663660107 -0.025159079609052781 0.059152237883607323 -0.078020186636200139 -0.041465302108005711 0.041287101200446166 0.010593275304614605 0.012809043542553702 -0.020376347135170142 -0.025023173068540707 0.051093916990496938 -0.076301926012491583 0.066014947567149485 -0.057309264128179098 -0.068624483777018172 -0.074046093305385682 -0.077361674585581408 -0.075569696502873485 -0.074617286407312508 -0.075182048521217806 -0.078903061666113564 -0.073901999170506869 -0.07755895176740335 -0.072642823504129359 -0.076338893864868987 -0.074510301477961449 -0.074991744958343709
leaf_weight=1.5458282679319477 5.6584585607051832 8.6852462366223318 2.9647914804518205 8.3415632694959623 2.5677218660712304 5.5869022235274306 2.5740675255656242 1.6487938389182071 3.9143397323787212 3.4362593330442888 1.8311454616487024 5.8207738250494003 3.4434855058789253 7.5806338079273701 2.3756377082318068 4.8557183868251732 1.2765881717205037 2.2315683849155894 2.9952360801398816 3.0173271037638179 1.1793360132724076 1.3671032935380929 1.5618107169866546 1.4368219338357446 1.7525133192539213 2.2634216845035553 1.849157355725765 1.9359999336302283 1.1388869471848009 1.9049653038382528
leaf_count=21 21 36 18 13 16 21 33 19 23 27 12 30 33 36 37 36 19 34 54 38 20 25 25 20 31 35 33 31 20 32
internal_value=5.19932e-10 0.0366845 -0.0627231 0.0261155 0.033392 0.0215966 -0.0273807 0.0126124 -0.00660871 0.0264361 -0.0386261 0.00248225 -0.0476932 0.0384614 -0.0620295 0.0747446 -0.0742853 -0.0751131 -0.0757178 -0.0755284 -0.075243 -0.0754618 -0.0750936 -0.0774004 -0.0755845 -0.0765885 -0.0734821 -0.075014 -0.0754054 -0.0756708
internal_weight=98.7421 62.3032 36.4389 48.7622 37.283 28.9414 8.98234 23.3545 9.76992 13.5846 5.85558 11.4792 6.01755 11.0169 4.02443 13.541 27.4566 26.18 23.9484 22.4026 19.3853 16.39 13.7739 2.61616 10.5576 3.82523 3.21626 6.73237 4.97985 3.84097
internal_count=849 327 522 255 204 191 84 170 91 79 68 51 66 63 56 72 438 419 385 364 326 272 232 40 174 60 58 114 83 63
is_linear=0
shrinkage=0.05


Tree=6
num_leaves=31
num_cat=0
split_feature=5 5 5 0 1 0 0 0 0 0 0 5 0 3 5 3 1 0 2 0 1 0 0 0 1 5 2 5 3 5
split_gain=81.0598 10.049 5.18742 3.34826 2.88751 1.78518 1.48948 3.20302 2.17724 2.29518 2.25669 2.29015 1.42365 1.37497 0.658822 0.146279 0.037579 0.0257165 0.0109186 0.00462062 0.0053126 0.00192722 0.00534794 0.00483691 0.00274408 0.00234554 0.00140584 0.00112566 0.000513523 0.000670166
threshold=0.36789838969707495 0.53349968791008007 0.32942944765090948 4.6924692675349222 0.070463371500318187 12.160713175455655 10.833430998151853 10.386255750417449 8.7905239116502205 9.8478898369266989 7.932059429237019 0.46401754021644598 9.5050242593980681 0.11354273606585683 0.55166250467300426 0.21705631501208886 0.19987705897044292 12.736923395107164 0.37014968888824645 8.1446690339778645 1.0000000180025095e-35 3.512312200356305 4.391242141914355 4.9726965309133275 0.089551796667622308 0.19631558656692508 0.097373118291289196 0.1583318114280701 0.1254310275728143 0.2771750688552857
decision_type=2 2 2 2 2 2 2 2 2 2 2 2 2 2 2 2 2 2 2 2 2 2 2 2 2 2 2 2 2 2
left_child=2 3 15 -2 -4 6 7 8 10 12 11 -5 -10 -6 -3 16 19 18 -16 20 -1 -22 -23 26 25 -25 -24 -26 29 -29
right_child=1 14 4 5 13 -7 -8 -9 9 -11 -12 -13 -14 -15 17 -17 -18 -19 -20 -21 21 22 23 24 27 -27 -28 28 -30 -31
leaf_value=-0.075647593596265189 0.048471064547306375 0.054981483122471767 0.015703128927355561 -0.021191168136618109 -0.074163652593847704 0.05111536830526571 -0.020759140379362939 0.049532405160432259 -0.031620896527149674 -0.070960111438735068 0.039984842411602342 0.033452032497529295 0.025593334119650243 -0.025214452037578012 0.078869778154272707 -0.054522832278019101 -0.065961550394005544 0.071765565005687051 0.07507237468784185 -0.074901696804849136 -0.071342604635569296 -0.074879098826497764 -0.071846482554840649 -0.072440574505788044 -0.071137463225444994 -0.075018616167888658 -0.06968965934662659 -0.073361321807440968 -0.07168960239167578 -0.07187829581215871
leaf_weight=1.4630283229053151 9.5588912814855558 6.2073193434625891 2.7273756116628629 5.0723270811140662 2.5502120964229107 3.0441371724009505 3.2991821095347396 5.2982078008353701 2.0187026411294928 1.5893932227045295 5.9385143481194964 3.0829123184084892 2.3564097918570042 3.2796093970537186 3.8031830713152868 1.194807294756173 2.0587645582854739 3.4386408179998398 3.7686862396076322 2.8397669792175284 2.9353125169873264 2.4597338512539855 1.3162478208541863 1.4924123845994457 1.6831969358026979 2.1580464504659176 1.7735202610492704 2.5895648598670964 1.091271713376045 1.0792555585503576
leaf_count=21 20 24 15 39 36 14 30 21 27 26 22 19 22 33 16 18 35 11 36 38 56 38 25 25 31 35 33 43 20 20
internal_value=-3.72979e-10 0.0359222 -0.0605499 0.0225325 -0.0267609 0.0147108 0.0108435 0.0149554 0.00582221 -0.0195001 0.0165387 -0.000534485 -0.000805649 -0.0466269 0.0680076 -0.0716132 -0.0724319 0.0753513 0.0769797 -0.0730141 -0.0727467 -0.0725182 -0.0727388 -0.0723395 -0.0728694 -0.0739646 -0.0706085 -0.0722488 -0.0726418 -0.0729251
internal_weight=93.1686 58.4765 34.6921 41.2587 8.5572 31.6998 28.6556 25.3565 20.0583 5.96451 14.0938 8.15524 4.37511 5.82982 17.2178 26.1349 24.9401 11.0105 7.57187 22.8814 20.0416 18.5786 15.6432 13.1835 10.0937 3.65046 3.08977 6.44329 4.76009 3.66882
internal_count=849 327 522 240 84 220 206 176 155 75 80 58 49 69 87 438 420 63 52 385 347 326 270 232 174 60 58 114 83 63
is_linear=0
shrinkage=0.05


Tree=7
num_leaves=31
num_cat=0
split_feature=5 5 5 0 0 3 2 2 3 1 5 0 5 0 3 3 1 2 0 0 4 0 0 0 1 0 5 2 5 5
split_gain=71.5889 8.8473 4.44174 2.59445 2.46083 1.518 2.06371 2.10225 1.70192 2.0044 4.90305 1.27282 0.695411 0.603125 0.554997 0.158129 0.155251 0.0367388 0.0239088 0.0148111 0.00406036 0.0031838 0.00216721 0.00576825 0.00472708 0.00285325 0.00260846 0.00144741 0.00100464 0.000650568
threshold=0.36789838969707495 0.53349968791008007 0.32942944765090948 8.5003972457852317 4.6924692675349222 0.22591262943850612 0.43251493516278805 0.31083583277930898 0.1433757628261591 0.072435686832357501 0.39533343911170965 9.8134164354874063 0.55166250467300426 7.2104828428111487 0.28124890273856679 0.21982191006428758 0.092419356403713751 0.29677845078977577 11.532678609969393 9.5505454786127721 1.0000000180025095e-35 7.7834206325279203 3.512312200356305 4.391242141914355 0.089787800183544347 4.9640842348715495 0.19631558656692508 0.2116099996863875 0.16552164405584338 0.27091439068317419
decision_type=2 2 2 2 2 2 2 2 2 2 2 2 2 2 2 2 2 2 2 2 2 2 2 2 2 2 2 2 2 2
left_child=2 4 15 16 -2 6 7 8 9 -6 -11 13 -3 -12 -7 17 -4 20 19 -14 -1 22 -22 -24 26 -26 -25 -23 -27 -28
right_child=1 12 3 -5 5 14 -8 -9 -10 10 11 -13 18 -15 -16 -17 -18 -19 -20 -21 21 27 23 24 25 28 29 -29 -30 -31
leaf_value=-0.073341332848848223 0.044174067266705051 0.05187253721525719 -0.044636387252419807 0.003521600890223717 0.041687539426403235 -0.033050042256446428 0.050998706449973175 -0.026320875532612833 0.038167660497221527 -0.078875497438335093 0.01543583993887237 0.042421401616174324 0.072967954562353346 -0.023236801740147688 0.003027916224399161 -0.05040878937808127 -0.063632180283312023 -0.062908919547813649 0.070556101114933406 0.077927068911791852 -0.068978502899687946 -0.072855965030918637 -0.072763010882593931 -0.069988983864465851 -0.06770479347796364 -0.068840759049882586 -0.073229245776936444 -0.070604883447608055 -0.070294541479018882 -0.071617031611288628
leaf_weight=1.3793163858354187 9.3192209154367429 5.8881441149860647 2.4336850717663747 3.7906392477452755 3.0814164280891552 1.8772885333746661 4.3025453314185134 2.9269494656473389 7.2677646297961465 1.7887934967875461 2.1304247491061687 2.5172574892640114 3.0156445521861297 1.9139019735157488 2.4665436409413815 1.056997027248143 1.9275473244488237 1.6185848303139199 4.2798012606799603 3.0069109024479985 2.7112103737890783 1.9338627383112901 2.3936614133417597 1.8737005740404109 1.9705145154148338 1.6339784897863863 1.3031084351241591 1.1321215741336343 4.3575412705540657 1.2037521451711652
leaf_count=21 20 24 25 26 12 24 20 30 38 17 15 15 13 28 21 16 33 26 20 30 56 33 39 34 40 32 23 15 81 22
internal_value=6.55752e-10 0.0344408 -0.0587159 -0.0267345 0.0217072 0.0147909 0.0193736 0.0130819 0.0192494 0.00722216 -0.00549609 0.0145083 0.0655795 -0.00286526 -0.012564 -0.0693274 -0.053032 -0.0701779 0.0734134 0.0754439 -0.0707154 -0.0705388 -0.0702777 -0.0705167 -0.0700811 -0.0693553 -0.0714003 -0.0720247 -0.0698981 -0.0724551
internal_weight=88.5028 55.7826 32.7202 8.15187 39.5921 30.2729 25.9291 21.6265 18.6996 11.4318 8.35038 6.56158 16.1905 4.04433 4.34383 24.5683 4.36123 23.5114 10.3024 6.02256 21.8928 20.5135 17.4475 14.7363 12.3426 7.96203 4.38056 3.06598 5.99152 2.50686
internal_count=849 327 522 84 240 220 175 155 125 87 75 58 87 43 45 438 58 422 63 43 396 375 327 271 232 153 79 48 113 45
is_linear=0
shrinkage=0.05


Tree=8
num_leaves=31
num_cat=0
split_feature=5 5 5 1 5 0 0 0 0 3 0 3 5 5 3 1 0 0 0 0 0 0 1 1 0 5 5 1 5 5
split_gain=62.7081 8.32097 4.33324 2.5246 2.3342 5.30649 1.7899 2.62205 1.77611 1.44849 1.20388 0.97443 0.811325 0.185498 0.164867 0.0380582 0.0240206 0.0148429 0.00408501 0.00337599 0.00215508 0.00534272 0.00452347 0.00328707 0.00277455 0.00275217 0.00105708 0.00069124 0.000369818 0.000811491
threshold=0.36789838969707495 0.52167966961860668 0.32942944765090948 0.068679750117514718 0.39875131845474249 5.5602246882080602 10.386255750417449 9.1585632051852048 7.8839487881187642 0.1433757628261591 10.907570955051742 0.11354273606585683 0.55166250467300426 0.4865879118442536 0.22187488592965526 0.19987705897044292 11.532678609969393 9.5505454786127721 1.0000000180025095e-35 8.1446690339778645 3.3237127822173229 4.391242141914355 0.089551796667622308 0.091788133191901072 4.9640842348715495 0.19631558656692508 0.1583318114280701 0.057436214646819091 0.28138409554958349 0.23498969525098803
decision_type=2 2 2 2 2 2 2 2 2 2 2 2 2 2 2 2 2 2 2 2 2 2 2 2 2 2 2 2 2 2
left_child=2 4 14 -4 8 -6 7 9 -2 -7 -8 -5 -3 -9 15 18 17 -14 -1 20 -20 23 25 -22 -24 -23 -26 -27 29 -28
right_child=1 12 3 11 5 6 10 13 -10 -11 -12 -13 16 -15 -16 -17 -18 -19 19 -21 21 22 24 -25 26 27 28 -29 -30 -31
leaf_value=-0.071531531501877618 -0.022722711014758298 0.0492933120576763 0.017689645873960668 -0.067937416753941243 0.064259119197154477 -0.0094990029090102988 0.046333643794711686 -0.036015564271958095 0.018789373336983411 0.034550055123553254 0.010466884306972386 -0.024940357618419041 0.071107701434355228 -0.064847215625315383 -0.047511917867942559 -0.061315599421751348 0.068593675759064346 0.076198154210410471 -0.067026502244766403 -0.070393914282944517 -0.068782026863973764 -0.06803038172120765 -0.065772412207491124 -0.072517232548022476 -0.066863889110342883 -0.069741440863600304 -0.068116999183597579 -0.071436969269942058 -0.067589914256980008 -0.069773545774372267
leaf_weight=1.3355134502053392 4.8224672675132734 7.04500709101558 2.4543745890259734 2.3205965459346771 7.1459380537271526 3.598031163215639 4.9564083814620954 1.4356635343283417 5.5330271534621716 3.8776238150894642 4.4313136525452137 3.0489632971584797 2.8245664248242957 0.91243780590593804 1.0026004128158081 1.8217469006776799 3.8804866503924131 2.9045870122499764 2.3945511095225873 2.4741901271045199 1.0834794975817197 1.7490416839718799 1.7952100746333597 1.290621146559715 1.4806126579642294 1.1399417743086817 2.2279808111488824 1.2717246711254118 1.0480657331645487 1.1064298897981641
leaf_count=21 27 36 14 37 13 36 22 26 24 21 36 33 13 23 15 35 20 30 54 38 20 34 39 20 31 22 43 23 22 21
internal_value=1.95506e-10 0.0328691 -0.0565021 -0.0243203 0.0195714 0.0274739 0.0137912 -0.00112797 -0.000542458 0.0133493 0.0294034 -0.0435227 0.0621821 -0.0472191 -0.0673449 -0.0682399 0.0716311 0.0736885 -0.0688583 -0.068671 -0.068414 -0.0686481 -0.0682133 -0.0708126 -0.0674923 -0.0695404 -0.0680189 -0.0706355 -0.0684092 -0.0686667
internal_weight=84.4132 53.3676 31.0456 7.82393 36.7129 26.3574 19.2115 9.82376 10.3555 7.47565 9.38772 5.36956 16.6546 2.3481 23.2217 22.2191 9.60964 5.72915 20.3974 19.0618 16.5877 14.1931 11.819 2.3741 7.6583 4.16071 5.86309 2.41167 4.38248 3.33441
internal_count=849 327 522 84 228 177 164 106 51 57 58 70 99 49 438 423 63 43 388 367 329 275 235 40 156 79 117 45 86 64
is_linear=0
shrinkage=0.05


Tree=9
num_leaves=31
num_cat=0
split_feature=5 5 5 5 3 0 3 1 3 0 2 2 3 3 5 3 4 2 0 0 1 0 0 0 5 1 4 0 2 2
split_gain=56.5931 7.20172 3.80238 2.67026 4.17925 3.26823 2.64617 2.51532 1.49959 1.25187 1.69075 1.08238 0.989778 0.989083 0.657165 0.165752 0.146394 0.0358015 0.0235682 0.0122738 0.00339396 0.00252562 0.00433557 0.00592518 0.00298061 0.002628 0.00210696 0.00147192 0.00113311 0.000840768
threshold=0.36789838969707495 0.53349968791008007 0.32942944765090948 0.44042211771011358 0.079110239424440121 5.6621744663763778 0.12446821089075429 0.068679750117514718 0.17562640213531364 10.386255750417449 0.21578205794604141 0.26426251725960398 0.15785549740026547 0.14957769770859342 0.55166250467300426 0.22187488592965526 1.5000000000000002 0.29677845078977577 11.532678609969393 9.5505454786127721 1.0000000180025095e-35 3.512312200356305 4.391242141914355 4.9726965309133275 0.16927693784236911 0.089551796667622308 1.5000000000000002 7.6307193248817944 0.097373118291289196 0.17810695498991017
decision_type=2 2 2 2 2 2 2 2 2 2 2 2 2 2 2 2 2 2 2 2 2 2 2 2 2 2 2 2 2 2
left_child=2 3 15 4 -2 -5 -6 -4 -8 10 -7 16 -11 -12 -3 17 -9 20 19 -16 -1 -22 -23 28 29 26 -26 -27 -24 -25
right_child=1 14 7 5 6 9 8 11 -10 12 13 -13 -14 -15 18 -17 -18 -19 -20 -21 21 22 23 24 25 27 -28 -29 -30 -31
leaf_value=-0.069612897088417613 -0.035842627986754756 0.048104195179165442 0.016370596978796784 0.071175140537730774 0.038225120992163499 0.02712498232303396 -0.036468550493512698 -0.051962626980906979 0.018250068987823494 0.056857034182249667 -0.00022292924380741669 -0.011825277322534784 0.019452830782984962 -0.060311796733536351 0.069739695340712712 -0.045384703135530134 -0.073007743030841718 -0.058900925609590288 0.067095303925000543 0.074524487257960709 -0.065416626474188611 -0.069233234869634563 -0.065887340550846579 -0.066541199163717465 -0.070227423301578926 -0.066550809645647441 -0.067469161152397636 -0.068218520707443553 -0.063803587229904687 -0.064669979117507048
leaf_weight=1.2679679356515539 4.4346190690994289 5.3622338790446511 2.5150780156254759 4.3599827438592937 7.9940624684095365 4.3701172135770303 2.4156934283673763 1.87125264108181 2.5994965955615044 3.2887138463556767 1.9148598928004505 1.6540825515985487 3.8264461848884821 1.0661233607679603 2.5027926685288531 0.96734077483415504 1.4798431843519211 1.4244737066328514 3.6427763374522328 2.8854609066620469 2.3741391357034471 2.1855262182652941 1.1576135307550424 1.6527876593172544 1.6123665776103717 3.5330632161349058 1.2133738398551941 2.1151609197258949 1.4949160441756246 0.94268206506967533
leaf_count=21 31 24 14 6 33 31 25 34 16 13 29 17 31 25 13 15 19 26 20 30 56 39 26 33 30 74 24 38 34 22
internal_value=3.04133e-10 0.0320442 -0.0551044 0.0201689 0.0060749 0.0332279 0.0203638 -0.0244223 -0.00810654 0.021791 0.00732035 -0.0449205 0.0367415 -0.0217132 0.0619693 -0.0656204 -0.0612561 -0.0665537 0.0702018 0.072302 -0.0671114 -0.0669379 -0.0671649 -0.0668355 -0.0673441 -0.0677981 -0.069043 -0.0671753 -0.064713 -0.0658616
internal_weight=80.125 50.6634 29.4617 36.2701 17.4439 18.8262 13.0093 7.52026 5.01519 14.4663 7.3511 5.00518 7.11516 2.98098 14.3933 21.9414 3.3511 20.9741 9.03103 5.38825 19.5496 18.2816 15.9075 13.722 11.0694 8.47396 2.82574 5.64822 2.65253 2.59547
internal_count=849 327 522 240 105 135 74 84 41 129 85 70 44 54 87 438 53 423 63 43 397 376 320 281 221 166 54 112 60 55
is_linear=0
shrinkage=0.05


Tree=10
num_leaves=31
num_cat=0
split_feature=5 5 5 4 5 5 1 0 0 0 0 3 3 2 5 3 0 2 2 0 0 1 5 3 0 0 0 0 1 3
split_gain=51.3223 6.45861 3.52489 2.31211 2.1997 2.12299 2.03353 1.24127 1.22321 1.69076 2.87052 1.08576 0.981355 0.867974 0.780847 0.161658 0.160031 0.096577 0.0338797 0.022628 0.0131935 0.00245065 0.00308774 0.00278588 0.00223751 0.00352918 0.00869529 0.00254383 0.00167554 0.000891475
threshold=0.36789838969707495 0.52167966961860668 0.32942944765090948 1.5000000000000002 0.43372768163681036 0.42001642286777502 0.068679750117514718 12.160713175455655 10.819382200766492 10.386255750417449 8.7905239116502205 0.095408930407033229 0.095408930407033229 0.26426251725960398 0.55166250467300426 0.22187488592965526 6.6626545073872014 0.263769984400062 0.29677845078977577 11.532678609969393 9.5505454786127721 0.084757253221329085 0.19728406518697741 0.09181292493953104 7.7834206325279203 4.391242141914355 3.512312200356305 4.9726965309133275 0.052012187636265257 0.045822822596860234
decision_type=2 2 2 2 2 2 2 2 2 2 2 2 2 2 2 2 2 2 2 2 2 2 2 2 2 2 2 2 2 2
left_child=2 3 15 5 11 12 -4 8 9 10 -6 -5 -2 16 -3 18 -8 -12 21 20 -16 22 29 28 25 26 -23 -27 -24 -1
right_child=1 14 6 4 7 -7 13 -9 -10 -11 17 -13 -14 -15 19 -17 -18 -19 -20 -21 -22 24 23 -25 -26 27 -28 -29 -30 -31
leaf_value=-0.066279737223618379 -0.00049758569340403389 0.045664174113781986 0.013220412710759542 0.0021352472421700907 0.031338183568372376 0.052597130212844935 -0.069091150492205822 0.052727588587056576 -0.025342342684369135 0.048789857110238026 -0.035144644771735976 -0.04642808108680594 0.031925792145191527 -0.012796286509201005 0.068220349584325171 -0.043901607731928319 -0.046535079342307634 -0.057289407126789316 -0.05740167305484848 0.065682891267914795 0.073341082013266098 -0.064224065695312971 -0.067599262135313573 -0.069424929551008527 -0.066743276254213876 -0.062591414670037579 -0.069460731126608319 -0.064821031333102089 -0.065019520450725607 -0.064453343332941573
leaf_weight=1.0985541604459421 4.4283756315708178 6.3714635875076047 2.4688891097903243 2.191408850252631 3.0654620863497239 7.2739356346428385 1.5967147611081602 2.0450479537248603 1.9685448277741668 2.9408312886953354 1.0028646662831304 2.4241262152791023 4.9338059015572071 1.6048680655658243 2.3387100296094996 0.94353169575333495 1.5494071245193479 0.96717167738825072 1.3391915000975121 3.362707550637424 2.7217821590602398 2.0604291670024382 1.4144542478024966 1.1399432532489298 1.9991664141416539 1.7169515509158371 1.2883944138884542 5.0185946170240641 1.1340847220271824 1.7052364759147165
leaf_count=20 24 36 14 17 19 24 32 10 23 13 18 29 20 17 13 15 21 31 26 20 30 48 29 21 38 42 22 114 26 37
internal_value=-3.61405e-10 0.03139 -0.0537016 0.0191588 0.00596005 0.0323333 -0.02359 0.017251 0.0099556 0.0186671 0.00107477 -0.0233707 0.0165893 -0.0427189 0.0588716 -0.0641243 -0.0579827 -0.0460164 -0.0650824 0.068862 0.0709745 -0.0656361 -0.0664196 -0.0673703 -0.0652152 -0.0649122 -0.0662388 -0.0642527 -0.0664513 -0.0651689
internal_weight=76.1146 48.0362 28.0784 33.2416 16.6055 16.6361 7.21988 11.9899 9.94487 7.97633 5.0355 4.61554 9.36218 4.75099 14.7947 20.8585 3.14612 1.97004 19.915 8.4232 5.06049 18.5758 6.49227 3.68848 12.0835 10.0844 3.34882 6.73555 2.54854 2.80379
internal_count=849 327 522 228 160 68 84 114 104 81 68 46 44 70 99 438 53 49 423 63 43 397 133 76 264 226 70 156 55 57
is_linear=0
shrinkage=0.05


Tree=11
num_leaves=31
num_cat=0
split_feature=5 5 5 0 0 5 0 4 0 2 2 2 2 5 3 5 2 0 3 0 0 1 0 0 5 0 0 3 1 3
split_gain=45.8972 5.94988 3.3204 1.93208 1.74795 1.32597 1.25546 2.08024 1.34804 1.31145 0.764408 0.671602 0.978814 0.600109 0.250079 0.170381 0.0363497 0.0223712 0.0138749 0.0101636 0.00201684 0.00243508 0.00384021 0.00592428 0.00206745 0.00311786 0.00202468 0.00119832 0.00101379 0.000831283
threshold=0.36789838969707495 0.53349968791008007 0.32942944765090948 4.6924692675349222 8.5003972457852317 0.48531098663806921 7.932059429237019 1.5000000000000002 6.4522463912826939 0.2116099996863875 0.36655523919373667 0.42066407000802525 0.26652581957227905 0.55166250467300426 0.080950087837060689 0.31291598081588751 0.29677845078977577 11.532678609969393 0.20791378543208153 9.5505454786127721 7.7834206325279203 0.092419356403713751 4.391242141914355 3.512312200356305 0.19728406518697741 5.0295435556006236 4.9640842348715495 0.042533696406165854 0.05380298080765205 0.12081719320083735
decision_type=2 2 2 2 2 2 2 2 2 2 2 2 2 2 2 2 2 2 2 2 2 2 2 2 2 2 2 2 2 2
left_child=2 3 15 -2 14 6 8 -8 -5 -9 -11 12 -7 -3 -4 16 18 19 20 -15 21 24 23 -23 27 28 -24 -1 -26 -22
right_child=1 13 4 5 -6 11 7 9 -10 10 -12 -13 -14 17 -16 -17 -18 -19 -20 -21 29 22 26 -25 25 -27 -28 -29 -30 -31
leaf_value=-0.065322139524097989 0.041631047051561391 0.045547351382158374 -0.030774179103544082 0.0075796065466138436 0.0044610505556011452 0.039135804375001783 0.041435320688427972 0.018787482359114718 -0.04451109537681288 -0.045442122619566296 -0.0025011591685083229 0.049717964642948725 -0.0050926213327185934 0.06739530696643338 -0.057199187706372334 -0.047273555613152433 -0.056006582636194763 0.064493708681023387 -0.07098135969578509 0.072040198135541314 -0.066648450179907032 -0.0630389043852536 -0.061242426178502507 -0.068204039823976173 -0.065731031873033349 -0.067694326997760706 -0.063482335152497293 -0.063209631350324522 -0.063367860014528321 -0.064671463135614504
leaf_weight=1.0846851989626975 7.3708188980817786 4.9422595631331188 1.5509670302271836 2.7219658568501535 3.2174228690564632 2.7419317513704291 4.3477162681519959 4.1569468844681978 2.284299474209547 1.800792586058378 2.4415262080729008 2.738006642088294 2.3004819732159376 2.1590924439951777 2.1180340722203255 1.6236866172403086 1.2636285442858923 3.1477948585525155 0.86137658357620317 2.5909820073284209 1.3390557002276193 1.2191121112555268 1.3392030894756315 1.0193269923329351 0.88570732250809692 1.3475615065544841 4.0900498740375042 1.761429253965616 0.9307435005903244 0.88191094063222397
leaf_count=21 20 24 21 19 26 22 15 30 26 34 21 18 35 13 37 36 26 20 18 30 24 30 35 18 19 29 97 41 23 21
internal_value=1.2855e-10 0.0303451 -0.0523152 0.0190807 -0.0224393 0.012571 0.00502803 0.0133607 -0.0161888 -0.00117152 -0.0207289 0.0297825 0.0189576 0.0592118 -0.0460288 -0.0627867 -0.0641842 0.0677626 -0.0648007 0.0699289 -0.0644659 -0.064239 -0.0636483 -0.065391 -0.0649925 -0.065872 -0.0629298 -0.0640147 -0.0645202 -0.0658634
internal_weight=72.2785 45.7446 26.5339 32.9045 6.88642 25.5337 17.7532 12.747 5.00627 8.39927 4.24232 7.78042 5.04241 12.8401 3.669 19.6475 18.0238 7.89787 16.7602 4.75007 15.8988 13.6778 7.66769 2.23844 6.01013 3.16401 5.42925 2.84611 1.81645 2.22097
internal_count=849 327 522 240 84 220 145 100 45 85 55 75 57 87 58 438 402 63 376 43 358 313 180 48 133 71 132 62 42 45
is_linear=0
shrinkage=0.05


Tree=12
num_leaves=31
num_cat=0
split_feature=5 5 5 5 0 1 2 2 0 2 1 0 4 0 5 3 5 0 0 0 1 0 0 1 5 1 3 0 2 5
split_gain=41.3196 5.44844 3.30039 2.08528 3.09912 1.71415 1.00991 2.25288 1.19731 1.46658 1.25434 0.715163 0.670772 1.58538 0.590535 0.310577 0.0770611 0.162232 0.0202772 0.00960363 0.00324308 0.00205585 0.00210077 0.00369504 0.00330763 0.00313051 0.00203723 0.00192557 0.00147694 0.000957689
threshold=0.36789838969707495 0.53349968791008007 0.32942944765090948 0.39875131845474249 5.4661836347625252 0.068679750117514718 0.42066407000802525 0.30512596348615739 10.809860495049227 0.19660656083207803 0.15231038814256645 7.932059429237019 1.5000000000000002 6.6626545073872014 0.55166250467300426 0.11284401615168239 0.29114294052124029 8.0663423213526837 11.532678609969393 9.5505454786127721 0.23406982158042253 7.7834206325279203 4.391242141914355 0.089787800183544347 0.19728406518697741 0.11026162275650996 0.038909512627417688 4.9640842348715495 0.069746193350891827 0.24639309942722323
decision_type=2 2 2 2 2 2 2 2 2 2 2 2 2 2 2 2 2 2 2 2 2 2 2 2 2 2 2 2 2 2
left_child=2 3 16 11 -5 -4 7 8 9 10 -6 -2 13 -7 -3 -9 20 28 19 -16 21 22 25 24 -24 26 -1 -25 -18 -29
right_child=1 14 5 4 6 12 -8 15 -10 -11 -12 -13 -14 -15 18 -17 17 -19 -20 -21 -22 -23 23 27 -26 -27 -28 29 -30 -31
leaf_value=-0.064834229283260408 -0.017609830105291779 0.044092287645666861 0.014093694079620675 0.05943726121664053 -0.0051066925172042425 -0.064856038950940789 0.038308545429107749 -0.017477685768859351 0.047361380054729924 -0.026790133549820329 0.039012960648823723 0.010930212393896761 -0.061019783102922803 0.015620057927448836 0.066272188544368379 -0.057728842043868946 -0.064367808635061072 -0.039975369077640967 0.063495027538648011 0.070934546672398721 -0.06658662184997674 -0.065045051234540338 -0.062477119265490794 -0.060186712660368472 -0.065845116538689782 -0.066639672279025744 -0.062175853792561464 -0.062100298275129966 -0.061760503303924234 -0.064015730367146112
leaf_weight=1.3012599386274848 4.0545739382505435 4.7143532745540124 2.2864005640149108 5.4250375851988819 2.7493482939898986 1.1446753442287447 3.9664528463035813 0.85163713246583839 2.6700548045337191 2.1473288368433714 3.8908035233616829 4.7859658785164356 1.9635450504720209 1.3150615952908991 1.989306980744004 1.0959769273176787 0.77391329035162915 1.1495803259313104 2.9038352258503437 2.4832212389446795 0.88204189017415124 1.7804597020149238 1.4311532359570249 1.1727448198944328 1.4857798051089046 0.9709710907191037 1.6153019424527881 3.2247017994523048 1.8215765152126548 0.81814085878431786
leaf_count=25 28 24 14 12 29 28 29 14 16 39 24 23 27 15 13 26 20 20 20 30 21 37 35 33 34 19 41 83 50 20
internal_value=4.2262e-12 0.0293649 -0.051082 0.0184542 0.026448 -0.0210575 0.0161457 0.00958794 0.018039 0.0091294 0.0207453 -0.00215923 -0.0392272 -0.0218307 0.0579145 -0.0401281 -0.0620143 -0.0556122 0.0667485 0.0688608 -0.0636473 -0.0634594 -0.0632245 -0.0627675 -0.0641927 -0.0641806 -0.0633619 -0.0619705 -0.0625379 -0.0624879
internal_weight=68.8652 43.7279 25.1373 31.6372 22.7966 6.70968 17.3716 13.4051 11.4575 8.78748 6.64015 8.84054 4.42328 2.45974 12.0907 1.94761 18.4276 3.74507 7.37636 4.47253 14.6826 13.8005 12.0201 8.13252 2.91693 3.88753 2.91656 5.21559 2.59549 4.04284
internal_count=849 327 522 240 189 84 177 148 108 92 53 51 70 43 87 40 438 90 63 43 348 327 290 205 69 85 66 136 70 103
is_linear=0
shrinkage=0.05


Tree=13
num_leaves=31
num_cat=0
split_feature=5 5 5 5 0 1 0 3 3 3 0 4 1 3 5 0 0 0 1 0 0 1 5 3 0 3 2 5 2 5
split_gain=37.4346 5.04921 2.97571 2.14428 2.32255 2.33092 1.71453 1.80718 1.6368 1.79215 1.45926 1.30801 0.778605 0.221955 0.0664794 0.1386 0.0185461 0.00872617 0.00228632 0.00208333 0.0020066 0.00324668 0.00279044 0.00277723 0.00171907 0.00147734 0.00104701 0.000859169 0.000807127 0.000384733
threshold=0.36789838969707495 0.44634227454662329 0.32942944765090948 0.55166250467300426 5.6621744663763778 0.35828754797905393 10.386255750417449 0.10603358710576591 0.074640867998867932 0.12446821089075429 8.5003972457852317 1.5000000000000002 0.16362392940790751 0.080950087837060689 0.29114294052124029 8.0663423213526837 11.532678609969393 9.5505454786127721 0.23406982158042253 7.7834206325279203 4.391242141914355 0.089787800183544347 0.19728406518697741 0.081302870172049804 4.9726965309133275 0.038909512627417688 0.069746193350891827 0.24639309942722323 0.10928142113521669 0.1583318114280701
decision_type=2 2 2 2 2 2 2 2 2 2 2 2 2 2 2 2 2 2 2 2 2 2 2 2 2 2 2 2 2 2
left_child=2 8 14 4 -3 6 7 -6 -2 -10 13 -11 -9 -4 18 26 17 -5 19 20 23 22 -22 25 -23 -1 -16 29 -27 -26
right_child=1 3 10 16 5 -7 -8 12 9 11 -12 -13 -14 -15 15 -17 -18 -19 -20 -21 21 24 -24 -25 27 28 -28 -29 -30 -31
leaf_value=-0.063703161765922445 -0.024109514074562438 0.06760397308608726 -0.029038711980136106 0.06534471494415578 -0.025388034907993115 -0.021635051085479917 0.053297605753656219 0.048414322335066748 0.029640014529721717 0.015054685754022091 0.0040613730920800858 -0.03944032405996812 0.010992454160567051 -0.054954434481338778 -0.063047290923113244 -0.039759477239808182 0.062588459375105349 0.069947467277852102 -0.065095903780103673 -0.064044275907591014 -0.061439134704121948 -0.059201129860353967 -0.064634321087590416 -0.065751566236469036 -0.060309398849700206 -0.060264847585459462 -0.06076902937308451 -0.062928450019735807 -0.062475515257756464 -0.061487929484912308
leaf_weight=1.2453862875700021 3.5368283055722705 3.9412143528461518 1.454729110002517 1.842719605192541 1.8842557910829763 2.3167427256703368 5.7375107444822788 3.025921456515789 7.433678422123192 2.342354591935873 3.0323886275291443 2.0779775306582451 2.570956202223897 1.9121601786464451 0.71706901490688313 1.0600153021514414 2.6815349403768778 2.3340437924489379 0.84091112762689668 1.6868399735540158 1.3367841485887768 1.1211555469781158 1.397830508649349 0.78679524362087239 1.1043440196663148 0.78775388933718182 1.6995272561907766 0.76460862532258023 0.86766534112393856 1.856894329190254
leaf_count=25 28 7 21 13 35 30 32 16 38 14 26 31 33 37 20 20 20 30 21 37 35 34 34 17 33 23 50 20 20 49
internal_value=-1.40004e-10 0.0284935 -0.0502226 0.0417902 0.0333239 0.0246273 0.0327354 0.0169655 0.00574176 0.0146483 -0.0210976 -0.0105632 0.0312244 -0.043757 -0.0610124 -0.0548331 0.0658335 0.0679168 -0.0625695 -0.0624055 -0.0621602 -0.0616949 -0.0630724 -0.0631169 -0.0609177 -0.0624022 -0.0614451 -0.0614342 -0.0614235 -0.0610484
internal_weight=65.3986 41.7257 23.6729 26.3349 19.4766 15.5354 13.2186 7.48113 15.3908 11.854 6.39928 4.42033 5.59688 3.36689 17.2736 3.47661 6.8583 4.17676 13.797 12.9561 11.2692 7.58162 2.73461 3.6876 4.847 2.90081 2.4166 3.72585 1.65542 2.96124
internal_count=849 327 522 216 153 146 116 84 111 83 84 45 49 58 438 90 63 43 348 327 290 205 69 85 136 68 70 102 43 82
is_linear=0
shrinkage=0.05


Tree=14
num_leaves=31
num_cat=0
split_feature=5 5 5 0 1 0 4 5 5 2 0 3 3 3 5 5 1 0 2 0 3 0 5 1 2 3 5 0 2 3
split_gain=34.0172 4.72467 2.83691 1.72313 1.45331 0.859683 0.899878 1.43898 0.738197 1.84537 1.59257 0.663192 0.59298 0.72998 0.433009 0.0614256 0.131535 0.0141612 0.00753627 0.00191878 0.00614962 0.00321369 0.00224172 0.003104 0.00160097 0.00150264 0.0010198 0.000874856 0.000631418 0.000627174
threshold=0.36789838969707495 0.51133212447166454 0.32942944765090948 4.6924692675349222 0.068679750117514718 7.932059429237019 1.5000000000000002 0.43372768163681036 0.55166250467300426 0.19660656083207803 10.77503062822734 0.11354273606585683 0.22591262943850612 0.13573172375960768 0.42877160012722021 0.29114294052124029 0.15728822790071453 12.38830443881138 0.37014968888824645 4.5176906606322857 0.081302870172049804 4.9726965309133275 0.19631558656692508 0.079941195936899731 0.069746193350891827 0.038909512627417688 0.24639309942722323 7.2664560819002846 0.10928142113521669 0.12285522454142626
decision_type=2 2 2 2 2 2 2 2 2 2 2 2 2 2 2 2 2 2 2 2 2 2 2 2 2 2 2 2 2 2
left_child=2 3 15 -2 -4 14 -7 -8 9 -3 -11 -6 13 -9 -5 19 24 18 -10 20 25 -21 27 -24 -17 -1 -25 -23 -27 -28
right_child=1 8 4 5 11 6 7 12 17 10 -12 -13 -14 -15 -16 16 -18 -19 -20 21 -22 22 23 26 -26 28 29 -29 -30 -31
leaf_value=-0.062816272192681918 0.038540699097857706 0.070894165600268372 0.012769177490738963 -0.021684615285380945 -0.06148914341327423 0.034826609497219496 -0.021489931514773283 0.0054005547728857078 0.068305380679493266 -0.016281812577316434 0.048957278148527766 -0.020518582521096104 -0.005933049432007266 0.041416055630048493 0.0067992582342857729 -0.06295340768894514 -0.039809203006642285 0.061174622915419821 0.064174374952144106 -0.059252283112419035 -0.066088650448422284 -0.060207234949253945 -0.064677865233157814 -0.060846825856624737 -0.06010656478674882 -0.059476920886814236 -0.063451429484260677 -0.062247309510773813 -0.061424124463379776 -0.061453736567854869
leaf_weight=1.1880567409098217 6.3365296497941044 2.8932877331972104 2.1568881794810286 2.8811102118343141 1.7284899223595855 4.0879777483642075 3.097088860347867 2.3784353528171778 2.250675005838275 1.7937065251171591 1.9550597593188284 2.3047327511012554 1.8287157770246265 3.4444285659119487 2.4851310737431049 0.75571509078145016 1.0880660805851219 1.9624166712164877 2.1670660683885217 1.6041806414723376 0.95693819224834431 2.3534917980432515 1.1391284726560114 1.8023071065545084 1.4252052679657934 0.80065557174384572 0.90241942368447758 0.67659151181578625 0.86731406301259995 0.69584011100232601
leaf_count=25 20 10 14 30 37 17 33 33 16 29 12 33 28 29 23 21 26 12 35 51 21 69 27 50 43 25 22 18 21 19
internal_value=3.32118e-10 0.0278952 -0.0491659 0.0157916 -0.0203601 0.00865644 0.0148594 0.0072654 0.0525625 0.040895 0.0177417 -0.038077 0.0189045 0.026705 -0.0084936 -0.0601349 -0.0540088 0.064709 0.066279 -0.061677 -0.0626197 -0.0612851 -0.061716 -0.0624189 -0.061093 -0.0614574 -0.0616622 -0.0606628 -0.0604894 -0.0625817
internal_weight=62.0076 39.5616 22.446 26.5394 6.19011 20.2029 14.8366 10.7487 13.0222 6.64205 3.74877 4.03322 7.65158 5.82286 5.36624 16.2559 3.26899 6.38016 4.41774 12.9869 3.81296 9.17396 7.56978 4.5397 2.18092 2.85603 3.40057 3.03008 1.66797 1.59826
internal_count=849 327 522 213 84 193 140 123 114 51 41 70 90 62 53 438 90 63 51 348 92 256 205 118 64 71 91 87 46 41
is_linear=0
shrinkage=0.05


Tree=15
num_leaves=31
num_cat=0
split_feature=5 5 5 1 2 0 1 3 2 2 2 1 5 5 0 5 1 0 0 1 0 0 5 1 3 2 3 0 2 2
split_gain=30.9468 5.4834 3.11823 2.68239 2.55391 1.98548 1.0068 0.991381 0.875288 0.84312 0.616393 0.442848 0.428147 0.193101 0.0743002 0.0608427 0.127829 0.0107873 0.00543282 0.0019846 0.00201277 0.00151136 0.00287208 0.0028169 0.00223701 0.00147197 0.00101959 0.00059388 0.000552794 0.000407927
threshold=0.38241355121135717 0.32942944765090948 0.52167966961860668 0.073037510219603488 0.26426251725960398 5.4661836347625252 0.15231038814256645 0.15215995674851238 0.091215438217908285 0.30512596348615739 0.26652581957227905 0.24914726735043949 0.55166250467300426 0.36789838969707495 7.498252217475792 0.29114294052124029 0.15728822790071453 11.532678609969393 9.5505454786127721 0.23406982158042253 7.7834206325279203 4.391242141914355 0.19631558656692508 0.089787800183544347 0.081302870172049804 0.069746193350891827 0.038909512627417688 5.255621269821888 0.12583575481030898 0.14974502431352441
decision_type=2 2 2 2 2 2 2 2 2 2 2 2 2 2 2 2 2 2 2 2 2 2 2 2 2 2 2 2 2 2
left_child=1 15 5 -3 8 -2 14 10 -5 11 -8 -9 -4 -10 -7 19 25 18 -14 20 21 24 27 -24 26 -17 -1 -23 -28 -25
right_child=2 3 12 4 -6 6 7 9 13 -11 -12 -13 17 -15 -16 16 -18 -19 -20 -21 -22 22 23 29 -26 -27 28 -29 -30 -31
leaf_value=-0.061804531103530638 0.047598085070880952 0.021256111284878421 0.044072008369056087 -0.02401881812903997 0.0052057743057193611 -0.0056721833595968748 0.047383564990027154 0.00035269682447816434 -0.054337080899336768 -0.022905031139810472 0.01668953817832201 0.033571042500471528 0.063289605117132761 -0.079251930219034317 -0.021207152921871256 -0.062131647002323299 -0.038670895598166152 0.06111060225475845 0.06719837056264015 -0.063432836347326368 -0.06244396950681104 -0.057873719776020044 -0.062890839668144863 -0.059191533008673559 -0.063824448540208717 -0.059308428277636487 -0.058955942828092467 -0.059389310715275506 -0.060923921305453224 -0.060550347622098336
leaf_weight=1.1240283325314511 5.5229871720075634 3.7199051529169065 5.1522186789661628 1.7197377495467661 3.1185701079666615 1.6792738642543548 3.3645609058439714 1.9652388356626032 1.3830845560878517 1.9294861657544968 3.1830642456188798 2.049815921112895 1.5764390397816899 1.7767174392938612 1.4209612458944318 0.70869139581918705 1.0298023745417593 2.2947689658030868 2.0384902292862535 0.73141463287174779 1.5145847033709294 0.92183439992368255 1.2858257163316014 0.98204815760254893 0.72034406848251809 1.3246613051742313 0.83182481303811051 2.1629520207643509 0.62489509396255016 1.2622763272374866
leaf_count=25 17 22 36 25 24 16 21 22 31 36 37 18 13 18 25 21 26 20 30 21 37 32 35 33 17 43 27 68 16 37
internal_value=-2.73683e-10 -0.039533 0.0331023 -0.0138216 -0.0301362 0.0218365 0.0127114 0.0190408 -0.0527236 0.00425813 0.032462 0.0173117 0.0546071 -0.0683464 -0.0127925 -0.0593216 -0.0530235 0.0637918 0.0654938 -0.0609079 -0.0607463 -0.060487 -0.0600509 -0.0610248 -0.0613608 -0.0602924 -0.0606731 -0.0589364 -0.0598002 -0.0599558
internal_weight=59.1205 26.9432 32.1773 11.718 7.99811 21.1154 15.5924 12.4922 4.87954 5.94454 6.54763 4.01505 11.0619 3.1598 3.10024 15.2252 3.06316 5.9097 3.61493 12.162 11.4306 9.91603 6.61494 3.53015 3.30109 2.03335 2.58075 3.08479 1.45672 2.24432
internal_count=849 558 291 120 98 192 175 134 74 76 58 40 99 49 41 438 90 63 43 348 327 290 205 105 85 64 68 100 43 70
is_linear=0
shrinkage=0.05


Tree=16
num_leaves=31
num_cat=0
split_feature=5 5 5 0 0 3 1 5 1 2 4 5 2 0 3 5 1 0 0 1 0 2 1 0 5 0 0 5 3 5
split_gain=28.5304 4.16638 2.28775 1.38328 1.08578 0.762973 1.35446 0.837176 0.601871 0.852034 0.792791 0.601567 1.50863 1.15174 0.12705 0.0754762 0.156174 0.0105071 0.00503543 0.00362977 0.00161272 0.0012548 0.00117313 0.00227099 0.0020542 0.0022557 0.00116012 0.000599575 0.000414931 0.000263898
threshold=0.36789838969707495 0.51133212447166454 0.32942944765090948 4.6924692675349222 8.5003972457852317 0.23331301029447318 0.27351650461526389 0.39533343911170965 0.15231038814256645 0.20850082201644951 1.5000000000000002 0.55166250467300426 0.19660656083207803 10.77503062822734 0.082486569445538296 0.29114294052124029 0.15728822790071453 11.532678609969393 9.5505454786127721 0.23406982158042253 7.7834206325279203 0.069746193350891827 0.092419356403713751 4.483360616130537 0.19728406518697741 5.0295435556006236 4.9726965309133275 0.24376118183135989 0.042533696406165854 0.1583318114280701
decision_type=2 2 2 2 2 2 2 2 2 2 2 2 2 2 2 2 2 2 2 2 2 2 2 2 2 2 2 2 2 2
left_child=2 3 15 -2 14 6 7 -5 -9 -10 -11 12 -3 -14 -4 19 21 18 -13 20 22 -17 24 -24 28 -26 -25 29 -1 -28
right_child=1 11 4 5 -6 -7 -8 8 9 10 -12 17 13 -15 -16 16 -18 -19 -20 -21 -22 -23 23 26 25 -27 27 -29 -30 -31
leaf_value=-0.060163281381216752 0.036290585448960508 0.068622409905103376 -0.030486357626776119 -0.014733130283291446 0.0016663256494966151 -0.02049105542884179 0.042417903374064335 -0.0059316126962820825 0.041509744229003193 0.027264403467103154 -0.018146434056376351 0.062679678655680693 -0.011062507855593005 0.046834509638239839 -0.050994192981218468 -0.06130850903009976 -0.035105756524136285 0.060391445434190422 0.066544862262272117 -0.063694887736021139 -0.061564208646727216 -0.058618874478772898 -0.060927224505332091 -0.056980895283695446 -0.060035577799066348 -0.063433795080623009 -0.058010370209048007 -0.060480944887640803 -0.058724497470956864 -0.059121972541587735
leaf_weight=0.8366063572466359 5.7607836835086372 2.6688364669680578 1.3814359493553632 3.8153716363012853 2.742611438035965 2.0544039448723188 2.9667584989219895 2.9531519915908557 2.9164046123623848 2.0230038799345493 1.8310529142618182 1.4867468057200315 1.6812037713825705 1.756357420235872 1.6660214792937038 0.6649161279201502 0.99222595617175091 2.11738898511976 1.9449471649713812 0.70812592469155866 1.4262786414474256 1.2467045132070778 1.4729607626795767 0.84590304642915759 1.0950900204479692 0.88136878795921791 0.84148085117340166 0.60806853137910355 1.2495248876512048 1.4608106762170789
leaf_count=21 20 10 22 31 26 34 20 38 18 14 38 13 29 12 36 21 26 20 30 21 37 43 39 33 35 24 31 20 41 46
internal_value=-6.50596e-11 0.0266663 -0.0476814 0.0148871 -0.0211573 0.00824377 0.0118203 0.00511551 0.0129038 0.0211194 0.00568983 0.0512453 0.0404169 0.0185189 -0.0416978 -0.0583985 -0.0512005 0.0631613 0.0648703 -0.0602278 -0.0599988 -0.0595544 -0.0597585 -0.0592633 -0.0603959 -0.061551 -0.0586108 -0.0590845 -0.0593015 -0.0587157
internal_weight=56.0965 35.9764 20.1201 24.3209 5.79007 18.5601 16.5057 13.539 9.72361 6.77046 3.85406 11.6555 6.1064 3.43756 3.04746 14.3301 2.90385 5.54908 3.43169 11.4262 10.7181 1.91162 9.29181 5.22922 4.06259 1.97646 3.75626 2.91036 2.08613 2.30229
internal_count=849 327 522 213 84 193 159 139 108 70 52 114 51 41 58 438 90 63 43 348 327 64 290 169 121 59 130 97 62 77
is_linear=0
shrinkage=0.05


Tree=17
num_leaves=31
num_cat=0
split_feature=5 5 5 5 0 1 2 2 2 1 5 2 3 5 2 5 0 3 0 0 1 5 0 0 0 0 2 5 3 5
split_gain=25.7875 4.17261 2.1293 1.46942 2.2735 0.9921 0.733351 1.0531 0.987403 0.820724 0.687556 0.538519 0.503628 0.352447 0.117944 0.0559256 0.00835989 0.00607257 0.00408995 0.00149816 0.00202863 0.00335624 0.00197466 0.00398918 0.00193303 0.00127953 0.00117085 0.000532437 0.000232325 0.000171001
threshold=0.36789838969707495 0.52167966961860668 0.32942944765090948 0.39875131845474249 5.5699330824214632 0.068679750117514718 0.46619151788893204 0.30512596348615739 0.40524971451881503 0.15231038814256645 0.45293310284614569 0.13224686023161344 0.11354273606585683 0.55166250467300426 0.29677845078977577 0.31291598081588751 11.532678609969393 0.20791378543208153 9.5505454786127721 7.6307193248817944 0.082153858929603626 0.19728406518697741 4.391242141914355 3.512312200356305 5.0295435556006236 4.9726965309133275 0.20850082201644951 0.24639309942722323 0.044885518073811408 0.15512561798095706
decision_type=2 2 2 2 2 2 2 2 2 2 2 2 2 2 2 2 2 2 2 2 2 2 2 2 2 2 2 2 2 2
left_child=2 3 14 11 -5 -4 7 9 -9 -6 -11 -2 -7 -3 15 17 18 19 -15 20 21 28 23 -22 -23 -24 -21 29 -1 -27
right_child=1 13 5 4 6 12 -8 8 -10 10 -12 -13 -14 16 -16 -17 -18 -19 -20 26 22 24 25 -25 -26 27 -28 -29 -30 -31
leaf_value=-0.059318617605705531 0.010156229393543714 0.043430375757381852 0.0077593904709330952 0.053583316266662122 -0.010716822824023484 -0.05833420904934794 0.041023698723487684 -0.051701103764672844 0.012654295727520488 0.0020227647886980091 0.036304800693111948 -0.017059967375643515 -0.020391404561470417 0.061907073182639695 -0.040683610861883469 -0.047386637271349868 0.059800101954960383 -0.064762482603902743 0.065518037495395628 -0.061820760426387927 -0.057718457699661954 -0.060213838421294068 -0.056301971270937473 -0.062208693162526765 -0.063570275251916469 -0.057363845739767286 -0.059147950443896702 -0.059519608429437834 -0.058150434865284199 -0.058349649669674868
leaf_weight=0.71310833841561772 3.4833149425685432 4.6868244353681785 1.9775670841336239 4.4397881627082851 2.2435944154858571 1.509121945127845 1.8781209103763092 1.2952268561348312 1.1040979418903587 2.2414765432476997 4.2088174959644675 3.8007183261215687 2.0799041055142879 1.3766109910793605 0.97500281408429224 0.99833409301936704 1.9343555918894706 0.56832657940685827 1.8221282805316148 1.0801608003675944 1.0177724193781612 0.9581068269908426 0.89772117324173484 0.96232417039573181 0.7767207995057106 0.66077416948974166 0.66015094704926003 0.84509863890707482 1.0556967575103042 1.3160434700548647
leaf_count=19 22 36 14 14 34 37 14 35 13 28 39 29 33 13 27 35 20 18 30 32 37 31 38 22 22 26 19 30 37 45
internal_value=-2.68833e-10 0.0257745 -0.0466939 0.0148118 0.0227006 -0.0206771 0.0121302 0.00723839 -0.0220867 0.0153315 0.0243918 -0.00404484 -0.0363457 0.0533436 -0.0574334 -0.0587388 0.0623949 -0.0597233 0.063964 -0.0594616 -0.0592072 -0.060154 -0.0586252 -0.0599007 -0.0617166 -0.0579461 -0.0608069 -0.0584692 -0.0586214 -0.0580201
internal_weight=53.567 34.5151 19.0519 24.6952 17.4111 5.56659 12.9713 11.0932 2.39932 8.69389 6.45029 7.28403 3.58903 9.81992 13.4853 12.5103 5.13309 11.512 3.19874 10.9437 9.20337 3.50363 5.69973 1.9801 1.73483 3.71964 1.74031 2.82192 1.76881 1.97682
internal_count=849 327 522 228 177 84 163 149 48 101 67 51 70 99 438 411 63 376 43 358 307 109 198 59 53 139 51 101 56 71
is_linear=0
shrinkage=0.05


Tree=18
num_leaves=31
num_cat=0
split_feature=5 5 5 5 0 1 3 3 3 0 0 3 3 3 5 0 0 0 1 0 1 5 0 0 0 0 2 2 5 5
split_gain=23.5816 3.81335 2.02981 1.35941 1.57663 1.68698 1.12225 1.17579 0.987831 0.928504 0.843823 0.727743 0.269464 0.115348 0.0873983 0.175647 0.0076829 0.00372411 0.00180804 0.00151482 0.00138319 0.00356042 0.00188136 0.00332156 0.00179217 0.00119468 0.00118229 0.00089104 0.000794546 0.000208292
threshold=0.36789838969707495 0.44634227454662329 0.32942944765090948 0.55166250467300426 5.6621744663763778 0.35828754797905393 0.079110239424440121 0.12446821089075429 0.176744123486166 10.386255750417449 8.5003972457852317 0.1433757628261591 0.092246972868936766 0.080950087837060689 0.29114294052124029 8.0663423213526837 11.532678609969393 9.5505454786127721 0.23406982158042253 7.6307193248817944 0.079941195936899731 0.19728406518697741 4.4268068017081905 3.512312200356305 5.0012991459162448 4.9726965309133275 0.20850082201644951 0.069746193350891827 0.24639309942722323 0.15512561798095706
decision_type=2 2 2 2 2 2 2 2 2 2 2 2 2 2 2 2 2 2 2 2 2 2 2 2 2 2 2 2 2 2
left_child=2 6 14 4 -3 9 -2 -8 -9 11 13 12 -6 -4 18 27 17 -5 19 20 21 -1 23 -22 -23 -24 -21 -16 29 -27
right_child=1 3 10 16 5 -7 7 8 -10 -11 -12 -13 -14 -15 15 -17 -18 -19 -20 26 22 24 25 -25 -26 28 -28 -29 -30 -31
leaf_value=-0.057983807486088647 -0.019955430627671727 0.064552174228115641 -0.028014747632056577 0.061434325748474711 -0.020818873690096825 -0.021815837576458785 0.027660194400669826 -0.034528515079344173 0.017506331903511186 0.048761619825284402 0.00042078337578134797 0.032246544959230794 0.012684649543335811 -0.048509488904142577 -0.059736971210464375 -0.030352433328326846 0.059343123439439739 0.064995200526288918 -0.061754165874032187 -0.061677766867944267 -0.057075800301604078 -0.059685501336858272 -0.055752972930097178 -0.061553733645829084 -0.063439020754617242 -0.056835992267649307 -0.058774138850436891 -0.057270410140220211 -0.059590003926015322 -0.057897322668463473
leaf_weight=1.5881331991404297 3.5873829685151568 2.9129255115985897 1.241689141839742 1.2802877561189228 1.1109336335211977 1.7503360677510489 5.4926912263035756 1.8557928130030634 1.7935969382524488 4.3982015233486891 2.5668457876890898 3.8738044202327728 1.3052970208227632 1.535564351826906 0.528614087030291 0.85991610400378693 1.7973069152794776 1.7216313458047805 0.61236567981541234 0.82641130127012707 0.74520843103528001 0.64590755477547623 0.74700671620667014 0.93209800310432911 0.62643118388950825 0.69052824191749174 0.60886183753609657 1.1913034450262783 0.61592299863696087 1.3986244825646279
leaf_count=54 32 7 21 13 28 30 34 28 17 32 26 38 18 37 20 20 20 30 21 25 29 23 35 22 18 30 18 50 22 51
internal_value=1.11497e-10 0.0251681 -0.0460727 0.0387018 0.0314406 0.0236863 0.00374428 0.0130441 -0.0089545 0.0311379 -0.0202457 0.0188148 -0.00271959 -0.0393464 -0.0570118 -0.0488035 0.0619286 0.0634765 -0.0591215 -0.0589504 -0.0586818 -0.0595627 -0.0581905 -0.0595642 -0.0615335 -0.057523 -0.060446 -0.0580285 -0.0580118 -0.0575465
internal_weight=50.8416 32.8802 17.9614 20.1507 15.3515 12.4386 12.7295 9.14208 3.64939 10.6882 5.3441 6.29004 2.41623 2.77725 12.6173 2.57983 4.79923 3.00192 10.0375 9.42513 7.98986 2.86047 5.12939 1.67731 1.27234 3.45208 1.43527 1.71992 2.70508 2.08915
internal_count=849 327 522 216 153 146 111 79 45 116 84 84 46 58 438 90 63 43 348 327 284 95 189 51 41 138 43 70 103 81
is_linear=0
shrinkage=0.05


Tree=19
num_leaves=31
num_cat=0
split_feature=5 5 5 5 0 1 2 2 0 2 5 4 0 2 2 5 5 1 0 0 5 2 0 1 1 5 0 0 5 0
split_gain=21.4289 3.73896 1.98039 1.25866 1.88314 0.861466 0.638434 0.868297 0.65929 0.554048 0.52555 0.477932 0.586009 0.381927 0.320614 0.30558 0.0724222 0.146656 0.00608289 0.00295229 0.00128073 0.00115332 0.00105616 0.00101205 0.00129942 0.00251181 0.00156385 0.0011672 0.00103041 0.000363662
threshold=0.36789838969707495 0.52167966961860668 0.32942944765090948 0.39875131845474249 5.5602246882080602 0.068679750117514718 0.46619151788893204 0.30512596348615739 7.0331415234546268 0.40524971451881503 0.48734059929847723 1.5000000000000002 7.0101394350074502 0.13224686023161344 0.19176568700916236 0.55166250467300426 0.29114294052124029 0.15728822790071453 11.532678609969393 9.5505454786127721 0.12223348021507265 0.074600962325964415 4.5633093411149384 0.23406982158042253 0.079941195936899731 0.19728406518697741 7.6307193248817944 5.0295435556006236 0.15512561798095706 4.9726965309133275
decision_type=2 2 2 2 2 2 2 2 2 2 2 2 2 2 2 2 2 2 2 2 2 2 2 2 2 2 2 2 2 2
left_child=2 3 16 13 -5 -4 7 8 -6 -9 14 12 -7 -2 -10 -3 20 21 19 -17 22 -18 -1 24 25 -22 28 -27 -26 -30
right_child=1 15 5 4 6 11 -8 9 10 -11 -12 -13 -14 -15 -16 18 17 -19 -20 -21 23 -23 -24 -25 26 27 -28 -29 29 -31
leaf_value=-0.058730613913285226 0.0080978216444012596 0.042642757801153071 0.0081480531515777041 0.05269761708142693 -0.012127610560754655 -0.044576208212570148 0.039649715438214654 -0.046002165208403958 0.023208734075403244 0.0056651134848752192 0.043577305766587887 -0.055775452559810035 0.011991263505235536 -0.01567161421543228 -0.0040306827910891211 0.06081611161653501 -0.059704080434084997 -0.032237411953006105 0.058881831367571115 0.0640936979655298 -0.057281826963429462 -0.056909505791477889 -0.056144566029145096 -0.060968889433359111 -0.059506828833219852 -0.059318059496785369 -0.05993100833384727 -0.062193560516428881 -0.0568257738772798 -0.057885059156472532
leaf_weight=0.70859862677753127 3.2278581410646501 4.3251783978193981 1.8278101384639729 3.6882282979786387 1.825496032834051 0.95897596888244152 1.7725052665919054 1.102487503550946 2.7606095802038908 0.98016694001853455 1.9522108659148214 1.4776825048029423 0.8761134147644043 3.5471158064901829 1.7747277533635495 1.1929586227051916 0.59476048871874743 0.85595327615737904 1.6527432813309131 1.6201217549387363 0.70464214123785529 0.97348778415471315 0.89160548057407141 0.52220006007701147 0.72658579889684904 0.63023721426725365 1.0978212356567381 0.80197770521044731 1.4275570027530196 1.8736839303746817
leaf_count=19 22 36 14 13 20 31 14 35 27 13 21 27 12 29 34 13 22 26 20 30 28 42 42 19 26 24 35 24 58 73
internal_value=4.37682e-10 0.0244418 -0.0453118 0.0136923 0.0213999 -0.0194077 0.0119135 0.00718432 0.0144171 -0.0216858 0.0218864 -0.0346116 -0.0175696 -0.00434694 0.0125496 0.0521152 -0.056588 -0.0488837 0.0612893 0.0627038 -0.058578 -0.0579694 -0.0572897 -0.0588428 -0.05869 -0.0597258 -0.0582581 -0.0609282 -0.0578022 -0.057427
internal_weight=48.3721 31.4224 16.9497 22.6314 15.8564 5.14058 12.1682 10.3957 8.31304 2.08265 6.48755 3.31277 1.83509 6.77497 4.53534 8.791 11.8091 2.4242 4.46582 2.81308 9.38491 1.56825 1.6002 7.78471 7.26251 2.13686 5.12565 1.43221 4.02783 3.30124
internal_count=849 327 522 228 177 84 164 150 102 48 82 70 43 51 61 99 438 90 63 43 348 64 61 287 268 76 192 48 157 131
is_linear=0
shrinkage=0.05


Tree=20
num_leaves=31
num_cat=0
split_feature=5 5 3 5 1 2 0 0 2 0 1 2 2 5 5 5 5 1 0 0 5 2 0 1 5 2 0 0 0 5
split_gain=19.8139 4.16835 1.97449 1.94057 1.66607 1.97952 1.18703 0.982847 0.687863 0.539551 0.731767 0.587336 0.383748 0.445613 0.291834 0.291354 0.067092 0.134457 0.00544911 0.00269999 0.00116887 0.00100543 0.000926303 0.000851418 0.00229203 0.00105395 0.00153822 0.000986199 0.000944932 0.000575727
threshold=0.39533343911170965 0.32942944765090948 0.078238318695905681 0.53120598196983349 0.073037510219603488 0.26652581957227905 5.4661836347625252 4.7987064760182614 0.090736220530219056 7.3097462057205327 0.3329520651086133 0.43251493516278805 0.2116099996863875 0.46085172891616827 0.36387653648853308 0.55166250467300426 0.29114294052124029 0.15728822790071453 11.532678609969393 9.5505454786127721 0.12223348021507265 0.074600962325964415 4.5633093411149384 0.079941195936899731 0.19728406518697741 0.14420462182495042 5.0295435556006236 5.0295435556006236 8.1446690339778645 0.1782939359545708
decision_type=2 2 2 2 2 2 2 2 2 2 2 2 2 2 2 2 2 2 2 2 2 2 2 2 2 2 2 2 2 2
left_child=1 16 8 6 -4 7 -2 -6 -3 -8 11 12 -11 -14 -9 -5 20 21 19 -17 22 -18 -1 24 -22 29 -27 -26 -28 -25
right_child=3 2 4 15 5 -7 9 14 -10 10 -12 -13 13 -15 -16 18 17 -19 -20 -21 23 -23 -24 25 27 26 28 -29 -30 -31
leaf_value=-0.058190686163846678 0.047816353033535167 -0.023049886033699275 0.039386973945512202 0.041276742152616785 0.0027995964547983991 0.029455522412400004 -0.0073179114544579303 -0.033164523186729904 -0.071518099740707372 0.030012487930602041 -0.013054798393043441 0.050394147837389575 -0.014359244902263164 0.020809298895178421 -0.066637153323346771 0.060407785413329175 -0.059161499634224117 -0.032044761589315282 0.058540940044004175 0.063636481635552924 -0.056812675758971837 -0.056461386243770964 -0.055682210282823823 -0.058694832267963327 -0.058878472134337834 -0.060592697242783058 -0.057242007261961783 -0.061607611668656796 -0.059303150627459306 -0.056733970521093482
leaf_weight=0.67252552136778987 3.4154003299772802 1.4593008104711755 2.0580788366496563 3.4367497060447922 1.2657663188874724 1.8530268333852289 2.2921090628951779 1.2304704710841181 1.4688457380980251 3.6776807606220228 1.496003434062003 1.786056177690625 1.4572121957316997 2.3585901604965329 1.3831387273967264 1.1147107779979708 0.55820154212415152 0.80532307177782048 1.5335865113884208 1.5449262415058909 0.65636807493865523 0.90169514995068312 0.81281065847724676 0.48229375109076533 0.58736871834844329 0.74523864593356881 1.5272785574197771 0.75845826976001263 0.87443353887647379 1.672334738075733
leaf_count=19 13 17 10 27 18 15 27 24 25 38 32 13 31 38 20 13 22 26 20 30 28 42 42 17 24 25 65 24 29 75
internal_value=2.76222e-10 -0.0345766 -0.0123593 0.0312211 0.000797205 -0.0130575 0.0215705 -0.0333643 -0.047363 0.0147108 0.0193966 0.0246283 0.0184871 0.00737883 -0.0508785 0.0520692 -0.0561191 -0.0484462 0.0609146 0.0622833 -0.0580966 -0.0574938 -0.056818 -0.0583566 -0.0592351 -0.0580249 -0.0586082 -0.0604165 -0.0579924 -0.0571729
internal_weight=45.886 21.773 10.7186 24.113 7.79048 5.7324 16.4831 3.87938 2.92815 13.0677 10.7755 9.27954 7.49348 3.8158 2.61361 7.62997 11.0543 2.26522 4.19322 2.65964 8.78911 1.4599 1.48534 7.30377 2.0022 5.30158 3.14695 1.34583 2.40171 2.15463
internal_count=849 567 129 282 87 77 192 62 42 179 152 120 107 69 44 90 438 90 63 43 348 64 61 287 76 211 119 48 94 92
is_linear=0
shrinkage=0.05


Tree=21
num_leaves=31
num_cat=0
split_feature=5 5 5 4 5 1 1 5 2 0 0 1 2 3 2 1 1 5 1 0 0 5 2 1 5 2 0 0 5 0
split_gain=18.1577 3.01574 1.64364 1.26417 1.02729 0.806394 1.2465 0.760963 1.02266 0.884503 0.682857 0.517685 0.463258 0.333132 0.45798 0.251127 0.205393 0.0632896 0.128104 0.00488392 0.00266905 0.00112368 0.000928977 0.000895618 0.00218461 0.000872528 0.00124894 0.000819917 0.000790603 0.000756572
threshold=0.36789838969707495 0.48531098663806921 0.32942944765090948 1.5000000000000002 0.42001642286777502 0.15277195128880303 0.16362392940790751 0.55166250467300426 0.067415495397648947 11.171760606058308 6.6626545073872014 0.2958475621555457 0.13224686023161344 0.11093268889512752 0.17810695498991017 0.25176377116161042 0.061190143131826483 0.29114294052124029 0.15728822790071453 11.532678609969393 9.5505454786127721 0.12223348021507265 0.074600962325964415 0.079941195936899731 0.19728406518697741 0.14420462182495042 5.0295435556006236 5.0295435556006236 0.25540859997272497 8.7905239116502205
decision_type=2 2 2 2 2 2 2 2 2 2 2 2 2 2 2 2 2 2 2 2 2 2 2 2 2 2 2 2 2 2
left_child=2 3 17 4 12 -5 -7 8 -3 11 16 15 -2 -8 -15 -10 -4 21 22 20 -9 -1 -19 24 -23 -25 -27 -26 29 -28
right_child=1 7 10 5 -6 6 13 19 9 -11 -12 -13 -14 14 -16 -17 -18 18 -20 -21 -22 23 -24 25 27 26 28 -29 -30 -31
leaf_value=-0.056307381747493071 0.020429482432333092 0.063030558840006912 -0.026274888525862267 -0.034354293431489269 0.042912567990844835 0.045886611839150805 0.008397101050093933 0.059899745628312739 0.0082272898564250165 0.053872657557769765 -0.0047067136261665149 -0.011331763851877561 -0.0078277253864683909 0.0019134073022063988 -0.042640825187880801 0.038631017758998881 -0.059557050811582725 -0.058750164509075456 -0.031505071996277723 0.058194080691046847 0.063229523100001087 -0.056347784946840798 -0.056068281575992501 -0.05671515844825864 -0.058536478957555586 -0.059913619670280915 -0.056246819940539587 -0.061099578373748679 -0.059079503174470575 -0.058599016035810504
leaf_weight=1.3786996863782386 3.519446320831781 2.1848479360342008 0.88928939774632343 1.9138518040999759 3.4905102141201496 1.3023528568446634 1.3926566038280728 1.013480346649885 1.274798193946481 1.6820390745997427 2.8665975201874971 1.6092660957947371 2.467289961874485 1.0519162304699423 1.2769352467730639 1.4536027424037454 0.96830001007765532 0.52454770077019863 0.76188421342521895 1.408201342448592 1.4816315574571488 0.61233534198254336 0.83994857221841812 2.0057679181918502 0.55249737575650193 0.69859675783664021 1.1701351478695872 0.71685350779443979 0.58005180675536383 0.48295035399496544
leaf_count=61 22 10 11 31 17 9 18 13 27 15 39 33 22 11 35 14 34 22 26 20 30 28 42 92 24 25 55 24 23 16
internal_value=-9.06754e-11 0.023445 -0.0444376 0.00948177 0.0213537 -0.0067358 0.00378554 0.0423752 0.0337294 0.0230945 -0.0200092 0.0111596 0.00878395 -0.0109479 -0.0225162 0.0244254 -0.0436238 -0.0556155 -0.0479288 0.0605483 0.061877 -0.0576093 -0.0570993 -0.0578725 -0.0588007 -0.0575187 -0.0580685 -0.059984 -0.0574913 -0.056934
internal_weight=43.5713 28.5228 15.0485 16.415 9.47725 6.93771 5.02386 12.1079 8.20455 6.01971 4.72419 4.33767 5.98674 3.72151 2.32885 2.7284 1.85759 10.3243 2.12638 3.90331 2.49511 8.19789 1.3645 6.81919 1.88169 4.9375 2.93173 1.26935 2.23314 1.65309
internal_count=849 327 522 165 61 104 73 162 99 89 84 74 44 64 46 41 45 438 90 63 43 348 64 287 76 211 119 48 94 71
is_linear=0
shrinkage=0.05


Tree=22
num_leaves=31
num_cat=0
split_feature=5 5 5 5 0 3 1 3 0 0 3 3 3 5 3 5 1 0 0 5 2 1 5 2 0 0 2 0 5 0
split_gain=16.6064 2.79051 1.57983 1.07598 1.52946 0.871952 0.652646 0.632218 0.462963 0.485725 0.446508 0.375853 0.289867 0.265427 0.0765543 0.0597136 0.116803 0.00373281 0.00182326 0.00102641 0.000907537 0.000826325 0.00195574 0.000798596 0.00115451 0.000706821 0.000686372 0.000596383 0.000368618 0.00042665
threshold=0.36789838969707495 0.53120598196983349 0.32942944765090948 0.42001642286777502 5.5602246882080602 0.086761221927299736 0.068679750117514718 0.12446821089075429 10.386255750417449 9.3305081130845871 0.18799637126627686 0.11354273606585683 0.1433757628261591 0.55166250467300426 0.14804506292844546 0.29114294052124029 0.15728822790071453 11.532678609969393 9.5505454786127721 0.12223348021507265 0.069746193350891827 0.079941195936899731 0.19728406518697741 0.14420462182495042 5.0295435556006236 5.0295435556006236 0.20850082201644951 4.5633093411149384 0.1782939359545708 5.5279072100958846
decision_type=2 2 2 2 2 2 2 2 2 2 2 2 2 2 2 2 2 2 2 2 2 2 2 2 2 2 2 2 2 2
left_child=2 3 15 5 -5 -2 -4 -7 9 12 -10 -8 -6 -3 -11 19 20 18 -15 27 -17 22 -21 28 -25 -24 -26 -1 -23 -30
right_child=1 13 6 4 8 7 11 -9 10 14 -12 -13 -14 17 -16 16 -18 -19 -20 21 -22 23 25 24 26 -27 -28 -29 29 -31
leaf_value=-0.05708124026074296 -0.023056620360207312 0.040105938737214589 0.0058607900850830875 0.061934089255046045 -2.1617921307651869e-05 0.025706997742913702 -0.05567298986285784 -0.0082889750125386876 0.040422744929148866 -0.009066250238353727 0.0067326716273573735 -0.018937498240346753 0.025955265624557064 0.059489364499333321 -0.033735875642257974 -0.058423926393150319 -0.031625673942658007 0.057822847909938052 0.062323306228009502 -0.05598967810745259 -0.055658831803957434 -0.057625757377079062 -0.058150749731676422 -0.059483751696670577 -0.058194097716546912 -0.060609117448198739 -0.05634189320566662 -0.054918025857546751 -0.055235758956812278 -0.056982810396031237
leaf_weight=0.59634651429950991 2.7536262739449793 3.1208898294717065 1.6326740235090245 2.1163391023874274 2.0506812911480647 3.228520629927516 1.1621362883597615 2.3725913818925619 2.5885153729468584 0.61274965386837699 1.5861040586605666 1.7369810212403534 2.2545769363641739 0.96332328068092543 0.64602454751729965 0.47126519214361928 0.73295536171644915 1.3051636782474814 1.3814517587888984 0.57038714922964562 0.80131970532238483 0.42344549670815457 0.51385033316910245 0.66369887255132232 0.83794641960412297 0.67840328346937895 1.2408373067155478 0.68413235060870647 0.85660256166011073 0.59027154371142387
leaf_count=19 29 27 14 7 36 21 37 28 25 19 26 33 20 13 26 21 26 20 30 28 43 17 24 25 34 24 60 42 47 28
internal_value=-3.76753e-11 0.023031 -0.0437807 0.0137237 0.0234088 -1.9162e-05 -0.0194239 0.0113065 0.0150368 0.00559383 0.0276225 -0.0336632 0.013582 0.0508119 -0.0217271 -0.0552054 -0.0475253 0.0599661 0.061159 -0.0572173 -0.0566828 -0.0574768 -0.0583976 -0.0571249 -0.0576682 -0.0595496 -0.0570885 -0.0559255 -0.0563282 -0.0559485
internal_weight=41.1738 26.9806 14.1933 20.2097 11.855 8.35474 4.53179 5.60111 9.73865 5.56403 4.17462 2.89912 4.30526 6.77083 1.25877 9.66146 2.00554 3.64994 2.34478 7.65592 1.27258 6.37544 1.76264 4.6128 2.74248 1.19225 2.07878 1.28048 1.87032 1.44687
internal_count=849 327 522 237 159 78 84 49 152 101 51 70 56 90 45 438 90 63 43 348 64 287 76 211 119 48 94 61 92 75
is_linear=0
shrinkage=0.05


Tree=23
num_leaves=31
num_cat=0
split_feature=5 5 5 3 1 2 0 1 0 3 5 1 4 2 5 2 3 2 0 0 0 1 5 2 0 2 0 0 0 2
split_gain=15.2499 3.32462 1.59392 1.31747 1.29689 1.43625 0.919767 0.891946 0.534029 0.36747 0.426211 0.32532 0.319092 0.433175 0.269837 0.137738 0.0565206 0.0483474 0.00347751 0.00170894 0.00102842 0.00131476 0.00229569 0.000881242 0.000865079 0.000709769 0.000570008 0.00155562 0.000878553 0.00016614
threshold=0.39533343911170965 0.32942944765090948 0.53120598196983349 0.078238318695905681 0.068679750117514718 0.26652581957227905 5.4661836347625252 0.14764793335469453 7.3097462057205327 0.23331301029447318 0.48531098663806921 0.078770360075272591 1.5000000000000002 0.22605974669149062 0.55166250467300426 0.28533145049410297 0.22591262943850612 0.29677845078977577 11.532678609969393 9.5505454786127721 7.6307193248817944 0.082153858929603626 0.19728406518697741 0.22455390503404957 5.0295435556006236 0.23833967022959002 4.3677290948074194 3.512312200356305 5.367733845273766 0.18826141756388429
decision_type=2 2 2 2 2 2 2 2 2 2 2 2 2 2 2 2 2 2 2 2 2 2 2 2 2 2 2 2 2 2
left_child=1 16 6 11 -5 7 -2 -6 -8 10 12 -3 -10 -14 -4 -12 17 20 19 -16 21 22 -1 -22 -24 26 27 -23 -28 -30
right_child=2 3 14 4 5 -7 8 -9 9 -11 15 -13 13 -15 18 -17 -18 -19 -20 -21 23 25 24 -25 -26 -27 28 -29 29 -31
leaf_value=-0.055748024322886329 0.045917903787870945 -0.021497715226669226 0.039078447443771896 0.038482933013458814 -0.0074009594082231362 0.025938531566863696 -0.008941997407424393 -0.057347200781417564 0.034272559629235859 -0.0032316150170285775 0.049153446166264485 -0.058178781656173732 0.022340544036451804 -0.013134595233640654 0.059160321842712041 0.02813224855275951 -0.035744003994156733 -0.042356440646443276 0.057490272644690116 0.061985424444310627 -0.058852434488045668 -0.055125470185934972 -0.057547328971526694 -0.056034043382930832 -0.060074682302139505 -0.057866817329274213 -0.053777659123528831 -0.058379040404464122 -0.056219829439820623 -0.055057624656653252
leaf_weight=1.1653679339215144 2.7801591418683556 1.0172941815108045 2.9826938826590768 1.5997579544782636 1.9216093355789783 1.6312780845910309 2.096381362527608 1.6712971385568378 1.380422979593275 1.5647500036284325 1.415726622566581 1.4894901216030119 1.8498092964291575 1.6089894585311411 0.90215338254347521 1.7333080954849718 0.37092883139848787 0.63162627164274532 1.1943010990507898 1.3163967942818997 0.91892393212765433 0.89621334709227107 0.69736378919333197 0.39725342858582735 0.65810152888298035 0.42502174340188492 0.72826930787414346 0.62261711619794369 1.0862561380490658 0.42892625834792841
leaf_count=56 13 14 27 7 33 15 27 32 11 35 17 28 21 39 13 29 13 26 20 30 38 49 35 18 26 21 54 18 56 28
internal_value=-1.02577e-10 -0.0332232 0.0292867 -0.0122944 -0.000907046 -0.0129691 0.0200775 -0.0306342 0.0139106 0.0189256 0.0232657 -0.043293 0.0139491 0.00583796 0.0500644 0.0375828 -0.0548565 -0.0556755 0.0596656 0.0608366 -0.0567239 -0.0564732 -0.0573753 -0.0580018 -0.0587744 -0.05593 -0.0557112 -0.0564592 -0.0552048 -0.0558908
internal_weight=39.1827 18.3576 20.8251 9.33073 6.82394 5.22418 14.4295 3.59291 11.6494 9.55301 7.98826 2.50678 4.83922 3.4588 6.39555 3.14903 9.02687 8.65594 3.41285 2.21855 8.02431 6.70814 2.52083 1.31618 1.35547 4.1873 3.76228 1.51883 2.24345 1.51518
internal_count=849 567 282 129 87 80 192 65 179 152 117 42 71 60 90 46 438 425 63 43 399 343 117 56 61 226 205 67 138 84
is_linear=0
shrinkage=0.05


Tree=24
num_leaves=31
num_cat=0
split_feature=5 5 5 5 0 3 0 3 0 0 5 2 0 0 5 1 3 5 0 0 5 2 1 5 2 0 5 0 0 0
split_gain=14.0351 2.47351 1.35177 0.718391 1.37999 0.564717 0.536447 0.518436 0.462225 0.604131 0.404931 0.941351 0.534169 0.281038 0.0591998 0.114412 0.0506993 0.0289701 0.00319342 0.00153045 0.00101359 0.000853435 0.000739013 0.00174034 0.000628219 0.00132114 0.000632687 0.000565251 0.000491849 0.000337994
threshold=0.36789838969707495 0.51133212447166454 0.32942944765090948 0.42001642286777502 5.5602246882080602 0.086761221927299736 8.5003972457852317 0.12446821089075429 10.386255750417449 8.7905239116502205 0.55166250467300426 0.19660656083207803 10.77503062822734 10.907570955051742 0.29114294052124029 0.15728822790071453 0.085821751395314269 0.47059085965156561 11.532678609969393 9.5505454786127721 0.12223348021507265 0.067415495397648947 0.079941195936899731 0.19728406518697741 0.14420462182495042 4.5176906606322857 0.24639309942722323 5.0295435556006236 8.2361307867323905 6.3258968921895153
decision_type=2 2 2 2 2 2 2 2 2 2 2 2 2 2 2 2 2 2 2 2 2 2 2 2 2 2 2 2 2 2
left_child=2 3 14 5 -5 -2 16 -7 9 -6 11 -3 -13 -10 20 21 -4 -11 19 -12 -1 -16 23 -22 29 -26 28 -25 -27 -24
right_child=1 10 6 4 8 7 -8 -9 13 17 18 12 -14 -15 15 -17 -18 -19 -20 -21 22 -23 24 27 25 26 -28 -29 -30 -31
leaf_value=-0.055151133721836602 -0.019251464814540167 0.064236572981339071 -0.028613180121927817 0.061422022374425927 0.012773470557617598 0.023624978065451205 -0.00046695492921414823 -0.008690169762083904 0.038605348573185767 -0.021654548524730258 0.058909469631201777 -0.0055080310309100159 0.040784313400080832 0.0097955011838000636 -0.057896189040134785 -0.029883919288251598 -0.043821911500340177 -0.037036321480714146 0.057233742036690065 0.061646766840982303 -0.055289520894936064 -0.055025122229614865 -0.05533312772622101 -0.057542267690776319 -0.059385075006193014 -0.055187077578342972 -0.057754433030885788 -0.059889669661636238 -0.057305398164657906 -0.057112858516768839
leaf_weight=1.0960194198414663 2.5177094712853494 1.7320342361927021 1.0586430551484221 1.7095270529389361 3.0181354973465204 2.8852274790406227 1.9543164875358341 2.1781078837811947 1.8531619701534512 0.65995826758444287 0.85830347053706724 1.3238791637122633 1.1773495711386202 1.5582926496863363 0.40918363165110327 0.66612960211932648 1.1359572848305104 0.5709213363006711 1.1164997317828236 1.2606679219752548 0.49138427339494217 0.70444092247635126 1.2925579398870466 0.44512121099978663 0.45898200105875764 0.95208878628909566 0.59702655300497998 0.60504084918648005 0.38476428855210543 0.33615077752619971
leaf_count=61 29 10 24 6 36 21 26 28 16 20 13 29 12 30 20 26 34 27 20 30 28 44 75 24 17 56 29 24 17 17
internal_value=2.68801e-10 0.0221073 -0.0428872 0.0115445 0.0208031 0.000101004 -0.0195192 0.00972389 0.0117385 0.000733379 0.0460808 0.0359027 0.0162822 0.0254455 -0.0543759 -0.0462753 -0.0364854 -0.0287891 0.0593978 0.060538 -0.0565409 -0.0560801 -0.0568147 -0.0577455 -0.0564579 -0.0569735 -0.0564011 -0.0588947 -0.0557968 -0.0557004
internal_weight=37.0076 24.4198 12.5878 16.951 9.37 7.58104 4.14892 5.06334 7.66047 4.24902 7.46873 4.23326 2.50123 3.41145 8.43889 1.77975 2.1946 1.23088 3.23547 2.11897 6.65914 1.11362 5.56312 1.54155 4.02157 2.39286 1.93388 1.05016 1.33685 1.62871
internal_count=849 327 522 213 135 78 84 49 129 83 114 51 41 46 438 90 58 47 63 43 348 64 287 76 211 119 102 48 73 92
is_linear=0
shrinkage=0.05


Tree=25
num_leaves=31
num_cat=0
split_feature=5 5 5 5 0 1 2 2 0 3 2 4 0 5 2 0 3 2 0 0 1 5 0 2 2 5 0 0 0 0
split_gain=12.9657 2.34125 1.27154 0.765508 1.08596 0.504843 0.490764 0.545687 0.509998 0.511381 0.343799 0.310864 0.288359 0.280494 0.222639 0.103541 0.057547 0.050027 0.0025411 0.00122927 0.000886912 0.00226098 0.00104648 0.000793569 0.000551549 0.000512149 0.000381483 0.000965289 0.000679695 0.000133359
threshold=0.36789838969707495 0.52167966961860668 0.32942944765090948 0.39875131845474249 5.5699330824214632 0.068679750117514718 0.46619151788893204 0.30512596348615739 10.809860495049227 0.14180779616914521 0.42066407000802525 1.5000000000000002 7.0101394350074502 0.55166250467300426 0.13224686023161344 7.498252217475792 0.22591262943850612 0.29677845078977577 11.532678609969393 9.5505454786127721 0.082153858929603626 0.19728406518697741 7.6307193248817944 0.22455390503404957 0.23833967022959002 0.24956379085779193 4.3677290948074194 3.512312200356305 5.367733845273766 5.5602246882080602
decision_type=2 2 2 2 2 2 2 2 2 2 2 2 2 2 2 2 2 2 2 2 2 2 2 2 2 2 2 2 2 2
left_child=2 3 16 14 -5 -4 7 8 9 15 -9 12 -7 -3 -2 -6 17 20 19 -15 21 -1 24 -24 26 -23 27 -22 -28 -27
right_child=1 13 5 4 6 11 -8 10 -10 -11 -12 -13 -14 18 -16 -17 -18 -19 -20 -21 22 25 23 -25 -26 29 28 -29 -30 -31
leaf_value=-0.055087734995590443 0.0069140345561842058 0.037706131247719377 0.0041865895792212891 0.04782592073961775 -0.0037807197712076499 -0.039572494420737084 0.038988106144772501 -0.040848254754175334 0.038588155223385961 0.018837891838538512 0.0069845269374544192 -0.0520162647179538 0.0056305682058261338 0.058496719607033502 -0.013945295580697896 -0.026179881026459947 -0.033882925232759882 -0.04060720254259715 0.056951705088542283 0.061036929928670103 -0.054649291887862161 -0.059424407975175432 -0.058315772414452884 -0.055296164363912617 -0.057162395717414029 -0.05696262253544087 -0.053280492057741873 -0.057374730743764119 -0.055311348716319542 -0.05820203936590547
leaf_weight=1.0062462445348486 2.443992152810103 3.201319968327879 1.4408138766884802 2.5782339088618746 1.1706432234495863 0.70797712728381157 1.3551362557336686 0.87691863812506177 1.4796815887093542 2.8739195289090276 0.65718906372785568 1.1561417616903782 0.70326806604862213 0.79669452691450748 2.6840704269707203 0.92249558679759491 0.33763708733022202 0.56044831406325091 1.0282397535629568 1.1841487037017939 0.78647146653384037 0.5248114578425882 0.59429298620671023 0.34325452800840139 0.37115517258644093 0.54041928891092539 0.59987525828182686 0.55354257579892874 1.3154785414226351 0.36269368883222342
leaf_count=56 22 36 14 14 18 31 14 36 16 38 12 27 12 13 29 29 13 26 20 30 49 23 28 18 21 30 54 18 84 18
internal_value=-5.08861e-10 0.021726 -0.0424366 0.0121485 0.0191007 -0.0195007 0.011168 0.00644413 0.012822 0.00514628 -0.0203574 -0.032794 -0.0170464 0.0480082 -0.00400391 -0.0136526 -0.054079 -0.0549811 0.0589684 0.0600153 -0.0561323 -0.056903 -0.0557212 -0.0572102 -0.0553362 -0.0581822 -0.055128 -0.0557751 -0.0546753 -0.0574604
internal_weight=35.1572 23.2527 11.9045 17.0423 11.9142 4.0082 9.33598 7.98085 6.44674 4.96706 1.53411 2.56739 1.41125 6.2104 5.12806 2.09314 7.89633 7.55869 3.00908 1.98084 6.99824 2.43417 4.56407 0.937548 3.62652 1.42792 3.25537 1.34001 1.91535 0.903113
internal_count=849 327 522 228 177 84 163 149 101 85 48 70 43 99 51 47 438 425 63 43 399 127 272 46 226 71 205 67 138 48
is_linear=0
shrinkage=0.05


Tree=26
num_leaves=31
num_cat=0
split_feature=5 5 5 5 0 4 3 0 0 0 0 5 1 5 5 1 0 0 5 1 5 2 2 0 2 0 0 0 2 5
split_gain=11.8125 2.16685 1.21413 0.776908 1.14098 0.50041 0.757045 0.450643 0.353977 0.563356 0.336766 0.292385 0.166727 0.0722712 0.0588359 0.108096 0.002312 0.00120918 0.000923725 0.000720079 0.00150849 0.000657472 0.00055293 0.000856193 0.000538465 0.000392212 0.000298619 0.000250302 0.00024801 0.000180545
threshold=0.36789838969707495 0.52167966961860668 0.32942944765090948 0.42001642286777502 5.5602246882080602 1.5000000000000002 0.11057209341265607 6.6626545073872014 10.386255750417449 8.7905239116502205 10.907570955051742 0.55166250467300426 0.061190143131826483 0.48337177932262426 0.29114294052124029 0.15728822790071453 11.532678609969393 9.9877406859739661 0.12223348021507265 0.079941195936899731 0.19728406518697741 0.069746193350891827 0.14420462182495042 5.0295435556006236 0.20850082201644951 5.0295435556006236 6.38461351697054 4.5633093411149384 0.29324194252156482 0.18971417099237445
decision_type=2 2 2 2 2 2 2 2 2 2 2 2 2 2 2 2 2 2 2 2 2 2 2 2 2 2 2 2 2 2
left_child=2 3 14 5 -5 6 -2 12 9 -6 -10 -3 -4 -11 18 21 17 -13 27 20 -20 -16 26 -24 -25 -22 29 -1 -26 -21
right_child=1 11 7 4 8 -7 -8 -9 10 13 -12 16 -14 -15 15 -17 -18 -19 19 22 25 -23 23 24 28 -27 -28 -29 -30 -31
leaf_value=-0.055427944569667556 -0.0094061278245171579 0.036418349693485473 -0.02389586691901131 0.060499538844691447 0.015407297397245785 -0.02021374717518087 0.030627354436173052 -0.0052933321720316133 0.039753163524164678 -0.015093417001648205 0.0085439492235261077 0.058468009291264826 -0.057609993624958757 -0.039903996265311097 -0.057193807851558157 -0.028574281499279153 0.056731164430099991 0.061011005909614148 -0.05481418957188483 -0.055862250041476838 -0.057196874666716108 -0.054504723239040945 -0.058201267004664672 -0.056948852442929881 -0.054485610910970067 -0.059271867941192935 -0.056598711629003623 -0.05380299304838923 -0.056212363487710165 -0.054413951503617712
leaf_weight=0.46398665942251494 2.6613471247255864 3.056625396013259 0.73770618811249755 1.5424697324633578 3.0284640323370695 2.2547559887170792 2.1228787042200565 2.3353201802819967 1.8613241799175742 0.76941906474530675 1.6138060661032794 0.92212148872204147 0.72918215394020081 0.47454277751967311 0.36854035500436999 0.60607683844864368 0.95286201965063799 0.94806285761296749 0.42628843151032902 0.29049189668148778 0.39187734201550484 0.59312923951074481 0.51875299680978093 0.66178576648235299 0.60468837851658463 0.54369289241731167 0.28632814064621914 0.48439671937376261 0.31693482212722301 0.83004420856013894
leaf_count=19 26 36 11 7 38 34 18 39 17 25 34 18 34 29 21 26 20 25 28 17 24 43 25 34 42 24 16 42 18 59
internal_value=1.22523e-10 0.0211067 -0.0418931 0.0117349 0.0212283 -0.000794416 0.00835771 -0.0189358 0.0134098 0.00377096 0.02526 0.0471338 -0.040655 -0.0245581 -0.0537095 -0.0451124 0.0587358 0.0597571 -0.0560256 -0.0563036 -0.0572794 -0.0555353 -0.0559249 -0.0564383 -0.0558607 -0.0584027 -0.0551576 -0.054598 -0.0550794 -0.0547894
internal_weight=33.3979 22.2087 11.1892 16.329 9.29003 7.03898 4.78423 3.80221 7.74756 4.27243 3.47513 5.87967 1.46689 1.24396 7.38701 1.56775 2.82305 1.87018 5.81927 4.87088 1.36186 0.96167 3.50903 2.10216 1.58341 0.93557 1.40686 0.948383 0.921623 1.12054
internal_count=849 327 522 228 150 78 44 84 143 92 51 99 45 54 438 90 63 43 348 287 76 64 211 119 94 48 92 61 60 76
is_linear=0
shrinkage=0.05


Tree=27
num_leaves=31
num_cat=0
split_feature=5 5 5 3 3 2 0 0 2 2 0 5 1 5 1 1 2 3 2 0 0 1 5 0 2 5 2 0 0 0
split_gain=11.0364 2.46274 1.24021 0.882942 0.987459 1.06727 0.798482 0.686127 0.373781 0.455636 0.442089 0.349261 0.285489 0.282017 0.216807 0.409344 0.204674 0.059359 0.0480693 0.00216063 0.000968877 0.000745852 0.00193755 0.000865045 0.000593241 0.000513877 0.000444461 0.000258786 0.000770215 0.000550078
threshold=0.39533343911170965 0.32942944765090948 0.52167966961860668 0.078238318695905681 0.088898751611838786 0.26426251725960398 6.8938117724469699 5.4661836347625252 0.46619151788893204 0.30512596348615739 7.3097462057205327 0.48734059929847723 0.078770360075272591 0.55166250467300426 0.15837276433371703 0.18164383373644413 0.42066407000802525 0.22887454165893589 0.29677845078977577 11.532678609969393 9.5505454786127721 0.079941195936899731 0.19728406518697741 7.6307193248817944 0.2116099996863875 0.24956379085779193 0.23833967022959002 4.3677290948074194 3.512312200356305 5.367733845273766
decision_type=2 2 2 2 2 2 2 2 2 2 2 2 2 2 2 2 2 2 2 2 2 2 2 2 2 2 2 2 2 2
left_child=1 17 7 12 -5 6 -6 -2 9 10 -9 14 -3 -4 -12 -16 -11 18 21 20 -15 22 -1 26 -25 -24 27 28 -23 -29
right_child=2 3 13 4 5 -7 -8 8 -10 16 11 -13 -14 19 15 -17 -18 -19 -20 -21 -22 23 25 24 -26 -27 -28 29 -30 -31
leaf_value=-0.054561386464506478 0.044187007129447856 -0.018112650124379938 0.03607622498478337 0.034744050632639502 -0.006991055170944744 0.02102347148322331 -0.059777796822733598 -0.0075595274175022211 0.037740840551421954 -0.035439700995804402 -0.0066375438501761769 0.043768255455213456 -0.055289235714357343 0.058076500028627936 0.04468942685587643 0.0049422077533557802 0.0039860162436331599 -0.031547538891907062 -0.0395576354407133 0.056486944603897138 0.060468768930562515 -0.054102787584070035 -0.059027531899667821 -0.057732820288302622 -0.055020379733493829 -0.056884271605111669 -0.056602584028730668 -0.052842088928039481 -0.05664273772537412 -0.054827566252370834
leaf_weight=0.84769427170977207 2.0452335365116623 0.87980507127940688 2.973649392835795 1.3728599967435 1.5401687677949669 1.452608425170183 1.3394262269139288 1.8126776739954928 1.2441339893266548 0.75855319714173652 0.98307127505540881 1.2819497548043726 1.2502364907413719 0.70165468333289061 1.0770153142511847 1.6252589677460489 0.58157259598374367 0.2973197903484105 0.50493306946009386 0.87946177925914515 1.0666513615287838 0.68581424746662445 0.4473058972507713 0.5039645442739128 0.33596461731940508 0.7462654528208077 0.32429747562855471 0.49131849873810995 0.52845988236367702 1.2030093842186032
leaf_count=54 13 14 36 12 32 16 27 27 14 36 21 17 28 13 9 34 12 12 26 20 30 50 22 28 19 45 21 54 19 88
internal_value=-1.88547e-10 -0.0316587 0.0274215 -0.0124642 -0.00220817 -0.0139182 -0.0315445 0.0179506 0.0122203 0.00831017 0.0135759 0.0212887 -0.0399336 0.0466439 0.0134691 0.0207838 -0.0183302 -0.053403 -0.0543847 0.0585122 0.0595195 -0.0556092 -0.0563893 -0.0552183 -0.0566479 -0.0576875 -0.0548468 -0.0546511 -0.0552082 -0.0542518
internal_weight=31.7823 14.7515 17.0309 7.8351 5.70506 4.3322 2.87959 11.4095 9.36423 8.1201 6.77997 4.9673 2.13004 5.62142 3.68535 2.70227 1.34013 6.91635 6.61903 2.64777 1.76831 6.11409 2.04127 4.07283 0.839929 1.19357 3.2329 2.9086 1.21427 1.69433
internal_count=849 567 282 129 87 75 59 183 170 156 108 81 42 99 64 43 48 438 426 63 43 400 121 279 47 67 232 211 69 142
is_linear=0
shrinkage=0.05


Tree=28
num_leaves=31
num_cat=0
split_feature=5 5 5 5 0 4 3 1 0 0 3 5 3 5 0 5 0 0 5 1 5 1 0 5 5 1 0 5 0 0
split_gain=10.0894 1.90014 1.02514 0.608562 0.978929 0.402804 0.562159 0.39395 0.301405 0.456892 0.327816 0.284472 0.265851 0.0587881 0.105877 0.043594 0.00198453 0.000994135 0.000776661 0.000621928 0.00128888 0.000469448 0.000604467 0.000483786 0.000287134 0.000273555 0.000189899 0.000246548 0.000157918 0.000135217
threshold=0.36789838969707495 0.52167966961860668 0.32942944765090948 0.42001642286777502 5.5602246882080602 1.5000000000000002 0.11057209341265607 0.068679750117514718 10.386255750417449 8.7905239116502205 0.18799637126627686 0.55166250467300426 0.11354273606585683 0.29114294052124029 8.0663423213526837 0.48337177932262426 11.532678609969393 9.9877406859739661 0.12223348021507265 0.079941195936899731 0.19728406518697741 0.23406982158042253 7.6307193248817944 0.15512561798095706 0.24956379085779193 0.087235277261674057 4.9726965309133275 0.24639309942722323 4.5633093411149384 4.3441466088883978
decision_type=2 2 2 2 2 2 2 2 2 2 2 2 2 2 2 2 2 2 2 2 2 2 2 2 2 2 2 2 2 2
left_child=2 3 13 5 -5 6 -2 -4 9 -6 -10 -3 -9 18 25 -11 17 -13 28 20 -20 22 23 -21 -22 -15 29 -28 -1 -25
right_child=1 11 7 4 8 -7 -8 12 10 15 -12 16 -14 14 -16 -17 -18 -19 19 21 24 -23 -24 26 -26 -27 27 -29 -30 -31
leaf_value=-0.054800677691187884 -0.0078555316140974645 0.035151175948972373 0.0029859204221895953 0.059652190991923842 0.014269318522006795 -0.018753152373194498 0.028423892905689935 -0.053995634800737692 0.037635914005286319 -0.015798153837750233 0.0048747479714066821 0.058024885009602879 -0.018432037959684327 -0.056087868894689363 -0.026527921837395458 -0.036052622573536565 0.056260112973431524 0.060459665449514637 -0.054286089599719027 -0.056402675867428469 -0.058762817866661224 -0.057318920318145256 -0.056583269474046752 -0.054272495461592109 -0.05689823979061575 -0.054207550335436575 -0.054383424950673442 -0.056081668360199448 -0.053413623917258318 -0.052773832537529319
leaf_weight=0.41114887595176863 2.4212220683693912 2.8477709898725143 1.2593880891799929 1.3122636787593345 2.7820372404530649 2.0511062918230891 1.9101629331707952 0.84980873763561282 1.853240733034909 0.70927526103332617 1.2986434204503892 0.81857324531301878 1.376950188539922 0.29648341890424468 0.53749858308583498 0.42474907217547297 0.8114627117756753 0.85939150373451412 0.36581167159602024 0.38975226087495807 0.42217954294756055 0.29131252225488413 0.61974624171853054 0.52797094685956825 0.40410829801112413 0.55648777121677995 0.70211642002686836 0.30723881255835295 0.40966922231018543 0.21052300184965134
leaf_count=19 26 36 14 7 38 34 18 37 25 25 26 18 33 21 20 29 20 25 28 26 22 19 35 34 26 49 51 22 42 24
internal_value=-3.21674e-11 0.0203762 -0.0412106 0.0111326 0.0199921 -0.000499872 0.00814388 -0.0193639 0.0126286 0.00336543 0.0241376 0.0459439 -0.0320043 -0.0530147 -0.0439087 -0.0233845 0.0582902 0.0592719 -0.0555162 -0.0557887 -0.056757 -0.0554101 -0.0552084 -0.0548098 -0.0578509 -0.0548611 -0.0544546 -0.0549004 -0.0541084 -0.0538453
internal_weight=30.0381 20.0999 9.93819 14.7627 8.38021 6.38249 4.33139 3.48615 7.06795 3.91606 3.15188 5.3372 2.22676 6.45205 1.39047 1.13402 2.48943 1.67796 5.06158 4.24076 1.1921 3.04866 2.75735 2.1376 0.826288 0.852971 1.74785 1.00936 0.820818 0.738494
internal_count=849 327 522 228 150 78 44 84 143 92 51 99 70 438 90 54 63 43 348 287 76 211 192 157 48 70 131 73 61 58
is_linear=0
shrinkage=0.05


Tree=29
num_leaves=31
num_cat=0
split_feature=5 5 5 3 1 2 0 0 1 5 2 2 2 0 2 1 5 2 3 2 3 1 5 0 5 2 2 3 0 5
split_gain=9.30447 2.12804 1.11441 0.692956 0.833429 0.850124 0.814235 0.60462 0.718895 0.87056 0.491761 0.517031 0.566224 0.320375 0.495629 0.240338 0.150888 0.0922899 0.0574838 0.0478625 0.00114372 0.000630691 0.00168965 0.000719217 0.000538499 0.00049556 0.00037109 0.000360762 0.000191112 0.00053797
threshold=0.39533343911170965 0.32942944765090948 0.55166250467300426 0.078238318695905681 0.073037510219603488 0.26426251725960398 4.5176906606322857 5.4661836347625252 0.35828754797905393 0.48531098663806921 0.091215438217908285 0.20850082201644951 0.25198487793837221 10.386255750417449 0.067415495397648947 0.078770360075272591 0.36387653648853308 0.24404821629263646 0.22887454165893589 0.29677845078977577 0.27281074248411957 0.079941195936899731 0.19728406518697741 7.6307193248817944 0.22231064736843112 0.2116099996863875 0.23833967022959002 0.16765988886848837 4.3677290948074194 0.16552164405584338
decision_type=2 2 2 2 2 2 2 2 2 2 2 2 2 2 2 2 2 2 2 2 2 2 2 2 2 2 2 2 2 2
